<?xml version="1.0"?>
<opencv_storage>
<cascade>
  <stageType>BOOST</stageType>
  <featureType>HAAR</featureType>
  <height>24</height>
  <width>24</width>
  <stageParams>
    <boostType>GAB</boostType>
    <minHitRate>9.9900001287460327e-01</minHitRate>
    <maxFalseAlarm>5.0000000000000000e-01</maxFalseAlarm>
    <weightTrimRate>9.4999999999999996e-01</weightTrimRate>
    <maxDepth>1</maxDepth>
    <maxWeakCount>100</maxWeakCount></stageParams>
  <featureParams>
    <maxCatCount>0</maxCatCount>
    <featSize>1</featSize>
    <mode>ALL</mode></featureParams>
  <stageNum>20</stageNum>
  <stages>
    <!-- stage 0 -->
    <_>
      <maxWeakCount>5</maxWeakCount>
      <stageThreshold>-1.2977867126464844e+00</stageThreshold>
      <weakClassifiers>
        <_>
          <internalNodes>
            0 -1 80 -2.7535593835636973e-04</internalNodes>
          <leafValues>
            8.5976630449295044e-01 -7.5498574972152710e-01</leafValues></_>
        <_>
          <internalNodes>
            0 -1 120 8.9661992387846112e-04</internalNodes>
          <leafValues>
            -5.0984245538711548e-01 7.4408173561096191e-01</leafValues></_>
        <_>
          <internalNodes>
            0 -1 173 5.8886891929432750e-04</internalNodes>
          <leafValues>
            -3.5809335112571716e-01 6.9279158115386963e-01</leafValues></_>
        <_>
          <internalNodes>
            0 -1 189 4.1805980727076530e-03</internalNodes>
          <leafValues>
            -2.7037265896797180e-01 8.5559010505676270e-01</leafValues></_>
        <_>
          <internalNodes>
            0 -1 304 1.6047497047111392e-04</internalNodes>
          <leafValues>
            -4.0597540140151978e-01 5.9550750255584717e-01</leafValues></_></weakClassifiers></_>
    <!-- stage 1 -->
    <_>
      <maxWeakCount>10</maxWeakCount>
      <stageThreshold>-1.4082990884780884e+00</stageThreshold>
      <weakClassifiers>
        <_>
          <internalNodes>
            0 -1 78 -1.0023257927969098e-03</internalNodes>
          <leafValues>
            6.5210729837417603e-01 -5.8991599082946777e-01</leafValues></_>
        <_>
          <internalNodes>
            0 -1 136 2.4943868629634380e-04</internalNodes>
          <leafValues>
            -5.7793432474136353e-01 4.5324870944023132e-01</leafValues></_>
        <_>
          <internalNodes>
            0 -1 178 1.2660922948271036e-03</internalNodes>
          <leafValues>
            -4.0417191386222839e-01 5.0904208421707153e-01</leafValues></_>
        <_>
          <internalNodes>
            0 -1 30 7.3021301068365574e-04</internalNodes>
          <leafValues>
            -3.3857142925262451e-01 4.6677541732788086e-01</leafValues></_>
        <_>
          <internalNodes>
            0 -1 201 2.0214226096868515e-03</internalNodes>
          <leafValues>
            -3.1260687112808228e-01 5.8102011680603027e-01</leafValues></_>
        <_>
          <internalNodes>
            0 -1 197 -1.7630802094936371e-01</internalNodes>
          <leafValues>
            -9.4211393594741821e-01 2.6589435338973999e-01</leafValues></_>
        <_>
          <internalNodes>
            0 -1 269 1.3240789994597435e-03</internalNodes>
          <leafValues>
            -5.8680552244186401e-01 3.4367126226425171e-01</leafValues></_>
        <_>
          <internalNodes>
            0 -1 291 -8.2450178524595685e-06</internalNodes>
          <leafValues>
            -8.1026250123977661e-01 1.9684147834777832e-01</leafValues></_>
        <_>
          <internalNodes>
            0 -1 135 3.2306730281561613e-03</internalNodes>
          <leafValues>
            -3.3205386996269226e-01 5.3238761425018311e-01</leafValues></_>
        <_>
          <internalNodes>
            0 -1 322 4.5575515832751989e-04</internalNodes>
          <leafValues>
            -2.7071058750152588e-01 5.5952799320220947e-01</leafValues></_></weakClassifiers></_>
    <!-- stage 2 -->
    <_>
      <maxWeakCount>10</maxWeakCount>
      <stageThreshold>-1.3012071847915649e+00</stageThreshold>
      <weakClassifiers>
        <_>
          <internalNodes>
            0 -1 183 5.1199027802795172e-04</internalNodes>
          <leafValues>
            -5.3523808717727661e-01 5.6800001859664917e-01</leafValues></_>
        <_>
          <internalNodes>
            0 -1 97 -8.8655260697123595e-06</internalNodes>
          <leafValues>
            -7.7890348434448242e-01 3.2947492599487305e-01</leafValues></_>
        <_>
          <internalNodes>
            0 -1 125 -8.6506443039979786e-06</internalNodes>
          <leafValues>
            -6.4422780275344849e-01 3.6540821194648743e-01</leafValues></_>
        <_>
          <internalNodes>
            0 -1 208 3.8308673538267612e-03</internalNodes>
          <leafValues>
            -3.4942233562469482e-01 6.5871727466583252e-01</leafValues></_>
        <_>
          <internalNodes>
            0 -1 260 -8.6187810666160658e-06</internalNodes>
          <leafValues>
            -7.3116314411163330e-01 2.8273817896842957e-01</leafValues></_>
        <_>
          <internalNodes>
            0 -1 216 -1.2194833252578974e-03</internalNodes>
          <leafValues>
            4.3646141886711121e-01 -4.3524605035781860e-01</leafValues></_>
        <_>
          <internalNodes>
            0 -1 157 3.4339535050094128e-03</internalNodes>
          <leafValues>
            -2.8941929340362549e-01 6.2356168031692505e-01</leafValues></_>
        <_>
          <internalNodes>
            0 -1 95 8.5611827671527863e-06</internalNodes>
          <leafValues>
            2.1336822211742401e-01 -7.7833306789398193e-01</leafValues></_>
        <_>
          <internalNodes>
            0 -1 147 5.4252883419394493e-03</internalNodes>
          <leafValues>
            -2.2146958112716675e-01 7.9769432544708252e-01</leafValues></_>
        <_>
          <internalNodes>
            0 -1 306 2.3236055858433247e-04</internalNodes>
          <leafValues>
            -3.5368761420249939e-01 4.4697707891464233e-01</leafValues></_></weakClassifiers></_>
    <!-- stage 3 -->
    <_>
      <maxWeakCount>12</maxWeakCount>
      <stageThreshold>-1.4727180004119873e+00</stageThreshold>
      <weakClassifiers>
        <_>
          <internalNodes>
            0 -1 80 -5.4035324137657881e-04</internalNodes>
          <leafValues>
            5.3094911575317383e-01 -6.0986548662185669e-01</leafValues></_>
        <_>
          <internalNodes>
            0 -1 142 2.9784871730953455e-04</internalNodes>
          <leafValues>
            -5.0809341669082642e-01 4.1297623515129089e-01</leafValues></_>
        <_>
          <internalNodes>
            0 -1 254 -1.7120212316513062e-01</internalNodes>
          <leafValues>
            -8.8183575868606567e-01 2.7316319942474365e-01</leafValues></_>
        <_>
          <internalNodes>
            0 -1 71 1.1618274729698896e-03</internalNodes>
          <leafValues>
            -5.0241440534591675e-01 3.5991886258125305e-01</leafValues></_>
        <_>
          <internalNodes>
            0 -1 2 -3.7659070221707225e-04</internalNodes>
          <leafValues>
            4.2405143380165100e-01 -3.8128328323364258e-01</leafValues></_>
        <_>
          <internalNodes>
            0 -1 235 -8.5482297436101362e-06</internalNodes>
          <leafValues>
            -7.3374265432357788e-01 2.3470242321491241e-01</leafValues></_>
        <_>
          <internalNodes>
            0 -1 208 5.2004423923790455e-03</internalNodes>
          <leafValues>
            -3.1259498000144958e-01 6.5519720315933228e-01</leafValues></_>
        <_>
          <internalNodes>
            0 -1 100 -8.7830549091449939e-06</internalNodes>
          <leafValues>
            -6.0054785013198853e-01 2.7487513422966003e-01</leafValues></_>
        <_>
          <internalNodes>
            0 -1 160 6.3950457843020558e-04</internalNodes>
          <leafValues>
            -3.2426962256431580e-01 4.9645611643791199e-01</leafValues></_>
        <_>
          <internalNodes>
            0 -1 102 1.1846151202917099e-01</internalNodes>
          <leafValues>
            2.5098460912704468e-01 -7.5700551271438599e-01</leafValues></_>
        <_>
          <internalNodes>
            0 -1 180 2.7920340653508902e-03</internalNodes>
          <leafValues>
            -3.1044691801071167e-01 5.7649278640747070e-01</leafValues></_>
        <_>
          <internalNodes>
            0 -1 241 9.5706107094883919e-04</internalNodes>
          <leafValues>
            -4.1980850696563721e-01 4.0800067782402039e-01</leafValues></_></weakClassifiers></_>
    <!-- stage 4 -->
    <_>
      <maxWeakCount>12</maxWeakCount>
      <stageThreshold>-9.9935305118560791e-01</stageThreshold>
      <weakClassifiers>
        <_>
          <internalNodes>
            0 -1 136 2.5425199419260025e-03</internalNodes>
          <leafValues>
            -4.2339372634887695e-01 5.8546018600463867e-01</leafValues></_>
        <_>
          <internalNodes>
            0 -1 79 -3.8172578206285834e-04</internalNodes>
          <leafValues>
            3.0582702159881592e-01 -5.9046453237533569e-01</leafValues></_>
        <_>
          <internalNodes>
            0 -1 271 -8.7535372585989535e-06</internalNodes>
          <leafValues>
            -7.3963904380798340e-01 2.1314120292663574e-01</leafValues></_>
        <_>
          <internalNodes>
            0 -1 218 -1.0587826371192932e-01</internalNodes>
          <leafValues>
            -8.2832676172256470e-01 1.9795505702495575e-01</leafValues></_>
        <_>
          <internalNodes>
            0 -1 283 8.5663659774581902e-06</internalNodes>
          <leafValues>
            1.9943681359291077e-01 -6.5670251846313477e-01</leafValues></_>
        <_>
          <internalNodes>
            0 -1 225 3.4736902453005314e-03</internalNodes>
          <leafValues>
            -2.4069833755493164e-01 6.4892810583114624e-01</leafValues></_>
        <_>
          <internalNodes>
            0 -1 292 -8.6907730292296037e-06</internalNodes>
          <leafValues>
            -8.6266630887985229e-01 1.7461207509040833e-01</leafValues></_>
        <_>
          <internalNodes>
            0 -1 308 5.4418289801105857e-04</internalNodes>
          <leafValues>
            -3.0467385053634644e-01 4.7331038117408752e-01</leafValues></_>
        <_>
          <internalNodes>
            0 -1 193 -8.5606934590032324e-06</internalNodes>
          <leafValues>
            -6.7863029241561890e-01 2.0089498162269592e-01</leafValues></_>
        <_>
          <internalNodes>
            0 -1 256 -1.0058742761611938e-01</internalNodes>
          <leafValues>
            -9.5562505722045898e-01 1.2211614102125168e-01</leafValues></_>
        <_>
          <internalNodes>
            0 -1 191 1.9094960298389196e-03</internalNodes>
          <leafValues>
            -2.5633376836776733e-01 6.0928493738174438e-01</leafValues></_>
        <_>
          <internalNodes>
            0 -1 162 3.5649500787258148e-03</internalNodes>
          <leafValues>
            -1.2873063981533051e-01 8.3587777614593506e-01</leafValues></_></weakClassifiers></_>
    <!-- stage 5 -->
    <_>
      <maxWeakCount>12</maxWeakCount>
      <stageThreshold>-1.0081801414489746e+00</stageThreshold>
      <weakClassifiers>
        <_>
          <internalNodes>
            0 -1 94 -4.3056398862972856e-04</internalNodes>
          <leafValues>
            5.1057827472686768e-01 -4.6473029255867004e-01</leafValues></_>
        <_>
          <internalNodes>
            0 -1 141 -8.7163098214659840e-06</internalNodes>
          <leafValues>
            -5.8793520927429199e-01 2.5198483467102051e-01</leafValues></_>
        <_>
          <internalNodes>
            0 -1 181 5.0707003101706505e-03</internalNodes>
          <leafValues>
            -2.1923801302909851e-01 6.3852524757385254e-01</leafValues></_>
        <_>
          <internalNodes>
            0 -1 19 -1.4050380885601044e-01</internalNodes>
          <leafValues>
            -9.1109329462051392e-01 1.4299748837947845e-01</leafValues></_>
        <_>
          <internalNodes>
            0 -1 277 -7.4018788291141391e-04</internalNodes>
          <leafValues>
            3.9966449141502380e-01 -3.6524942517280579e-01</leafValues></_>
        <_>
          <internalNodes>
            0 -1 181 -1.6811344772577286e-02</internalNodes>
          <leafValues>
            9.2856448888778687e-01 -1.6496708989143372e-01</leafValues></_>
        <_>
          <internalNodes>
            0 -1 46 1.1179243773221970e-01</internalNodes>
          <leafValues>
            2.1758361160755157e-01 -7.0774382352828979e-01</leafValues></_>
        <_>
          <internalNodes>
            0 -1 58 -2.2530645132064819e-01</internalNodes>
          <leafValues>
            -7.7517646551132202e-01 1.4275789260864258e-01</leafValues></_>
        <_>
          <internalNodes>
            0 -1 105 1.4166170358657837e-01</internalNodes>
          <leafValues>
            1.5280888974666595e-01 -7.2419142723083496e-01</leafValues></_>
        <_>
          <internalNodes>
            0 -1 279 -8.5708006736240350e-06</internalNodes>
          <leafValues>
            -7.3502469062805176e-01 1.4535768330097198e-01</leafValues></_>
        <_>
          <internalNodes>
            0 -1 149 6.5651605837047100e-04</internalNodes>
          <leafValues>
            -2.6164451241493225e-01 4.2942252755165100e-01</leafValues></_>
        <_>
          <internalNodes>
            0 -1 316 -1.4543476572725922e-04</internalNodes>
          <leafValues>
            3.6616519093513489e-01 -2.9803591966629028e-01</leafValues></_></weakClassifiers></_>
    <!-- stage 6 -->
    <_>
      <maxWeakCount>18</maxWeakCount>
      <stageThreshold>-1.4814921617507935e+00</stageThreshold>
      <weakClassifiers>
        <_>
          <internalNodes>
            0 -1 52 -5.4275937145575881e-04</internalNodes>
          <leafValues>
            4.9518570303916931e-01 -4.9327355623245239e-01</leafValues></_>
        <_>
          <internalNodes>
            0 -1 93 -8.5782230598852038e-06</internalNodes>
          <leafValues>
            -5.9753775596618652e-01 2.5157085061073303e-01</leafValues></_>
        <_>
          <internalNodes>
            0 -1 122 1.4452586183324456e-03</internalNodes>
          <leafValues>
            -5.3065395355224609e-01 2.6696431636810303e-01</leafValues></_>
        <_>
          <internalNodes>
            0 -1 290 8.6304717115126550e-06</internalNodes>
          <leafValues>
            1.6385309398174286e-01 -6.7209285497665405e-01</leafValues></_>
        <_>
          <internalNodes>
            0 -1 326 1.0042102076113224e-04</internalNodes>
          <leafValues>
            -3.0103430151939392e-01 3.6315450072288513e-01</leafValues></_>
        <_>
          <internalNodes>
            0 -1 3 -5.0401128828525543e-04</internalNodes>
          <leafValues>
            4.1808959841728210e-01 -3.0806377530097961e-01</leafValues></_>
        <_>
          <internalNodes>
            0 -1 111 -8.7327571236528456e-06</internalNodes>
          <leafValues>
            -6.8954104185104370e-01 1.5280319750308990e-01</leafValues></_>
        <_>
          <internalNodes>
            0 -1 159 2.2670081816613674e-03</internalNodes>
          <leafValues>
            -2.1997253596782684e-01 5.5387419462203979e-01</leafValues></_>
        <_>
          <internalNodes>
            0 -1 179 9.6588284941390157e-04</internalNodes>
          <leafValues>
            -3.9922595024108887e-01 2.9158374667167664e-01</leafValues></_>
        <_>
          <internalNodes>
            0 -1 198 -1.1485748738050461e-01</internalNodes>
          <leafValues>
            -7.7627885341644287e-01 1.5862441062927246e-01</leafValues></_>
        <_>
          <internalNodes>
            0 -1 284 2.9939564410597086e-04</internalNodes>
          <leafValues>
            -3.3314949274063110e-01 3.2043537497520447e-01</leafValues></_>
        <_>
          <internalNodes>
            0 -1 86 1.1399168521165848e-01</internalNodes>
          <leafValues>
            1.4669483900070190e-01 -7.0556116104125977e-01</leafValues></_>
        <_>
          <internalNodes>
            0 -1 169 -3.1771170906722546e-03</internalNodes>
          <leafValues>
            5.1515680551528931e-01 -2.5910687446594238e-01</leafValues></_>
        <_>
          <internalNodes>
            0 -1 14 2.6584340957924724e-04</internalNodes>
          <leafValues>
            -3.2398110628128052e-01 2.9404002428054810e-01</leafValues></_>
        <_>
          <internalNodes>
            0 -1 138 -8.2214264693902805e-06</internalNodes>
          <leafValues>
            -4.8269376158714294e-01 2.0861425995826721e-01</leafValues></_>
        <_>
          <internalNodes>
            0 -1 161 2.6964708231389523e-03</internalNodes>
          <leafValues>
            -1.5445803105831146e-01 8.3002781867980957e-01</leafValues></_>
        <_>
          <internalNodes>
            0 -1 312 -1.7542392015457153e-05</internalNodes>
          <leafValues>
            -6.7619746923446655e-01 1.7176645994186401e-01</leafValues></_>
        <_>
          <internalNodes>
            0 -1 210 3.5837264731526375e-03</internalNodes>
          <leafValues>
            -1.3865309953689575e-01 9.1385889053344727e-01</leafValues></_></weakClassifiers></_>
    <!-- stage 7 -->
    <_>
      <maxWeakCount>18</maxWeakCount>
      <stageThreshold>-1.1802190542221069e+00</stageThreshold>
      <weakClassifiers>
        <_>
          <internalNodes>
            0 -1 222 -1.4219958393368870e-04</internalNodes>
          <leafValues>
            4.9573862552642822e-01 -4.0243902802467346e-01</leafValues></_>
        <_>
          <internalNodes>
            0 -1 66 8.7411690401495434e-06</internalNodes>
          <leafValues>
            2.1470291912555695e-01 -6.8611633777618408e-01</leafValues></_>
        <_>
          <internalNodes>
            0 -1 4 -2.7658994076773524e-04</internalNodes>
          <leafValues>
            4.0629136562347412e-01 -3.3932876586914062e-01</leafValues></_>
        <_>
          <internalNodes>
            0 -1 208 7.2039365768432617e-03</internalNodes>
          <leafValues>
            -2.3695079982280731e-01 6.0208606719970703e-01</leafValues></_>
        <_>
          <internalNodes>
            0 -1 154 2.5918881874531507e-04</internalNodes>
          <leafValues>
            -3.7423151731491089e-01 3.2160443067550659e-01</leafValues></_>
        <_>
          <internalNodes>
            0 -1 87 -1.0861858725547791e-01</internalNodes>
          <leafValues>
            -8.4366208314895630e-01 1.4221382141113281e-01</leafValues></_>
        <_>
          <internalNodes>
            0 -1 189 2.9064640402793884e-03</internalNodes>
          <leafValues>
            -2.7470484375953674e-01 3.8955083489418030e-01</leafValues></_>
        <_>
          <internalNodes>
            0 -1 35 2.5108942762017250e-02</internalNodes>
          <leafValues>
            1.8877454102039337e-01 -5.8543449640274048e-01</leafValues></_>
        <_>
          <internalNodes>
            0 -1 328 2.7714660973288119e-04</internalNodes>
          <leafValues>
            -2.3779535293579102e-01 4.3913349509239197e-01</leafValues></_>
        <_>
          <internalNodes>
            0 -1 278 -5.9113629162311554e-02</internalNodes>
          <leafValues>
            -6.4592546224594116e-01 1.4540059864521027e-01</leafValues></_>
        <_>
          <internalNodes>
            0 -1 81 -8.9012455646297894e-06</internalNodes>
          <leafValues>
            -7.4282592535018921e-01 1.4345456659793854e-01</leafValues></_>
        <_>
          <internalNodes>
            0 -1 212 -8.5617457443731837e-06</internalNodes>
          <leafValues>
            -6.7378169298171997e-01 1.2940530478954315e-01</leafValues></_>
        <_>
          <internalNodes>
            0 -1 166 -3.2572141208220273e-05</internalNodes>
          <leafValues>
            -7.0518893003463745e-01 1.3034772872924805e-01</leafValues></_>
        <_>
          <internalNodes>
            0 -1 172 -1.5555283427238464e-01</internalNodes>
          <leafValues>
            -7.7921390533447266e-01 1.1153342574834824e-01</leafValues></_>
        <_>
          <internalNodes>
            0 -1 21 2.8836965793743730e-04</internalNodes>
          <leafValues>
            -2.7178138494491577e-01 3.8649889826774597e-01</leafValues></_>
        <_>
          <internalNodes>
            0 -1 164 1.9351104274392128e-03</internalNodes>
          <leafValues>
            -1.6561630368232727e-01 5.9400421380996704e-01</leafValues></_>
        <_>
          <internalNodes>
            0 -1 159 3.9574615657329559e-03</internalNodes>
          <leafValues>
            -1.6030672192573547e-01 6.4964795112609863e-01</leafValues></_>
        <_>
          <internalNodes>
            0 -1 22 -2.4943432072177529e-04</internalNodes>
          <leafValues>
            4.1531613469123840e-01 -2.4150758981704712e-01</leafValues></_></weakClassifiers></_>
    <!-- stage 8 -->
    <_>
      <maxWeakCount>16</maxWeakCount>
      <stageThreshold>-9.9323493242263794e-01</stageThreshold>
      <weakClassifiers>
        <_>
          <internalNodes>
            0 -1 187 3.1590478029102087e-03</internalNodes>
          <leafValues>
            -3.8400000333786011e-01 4.9428570270538330e-01</leafValues></_>
        <_>
          <internalNodes>
            0 -1 82 1.8656461179489270e-05</internalNodes>
          <leafValues>
            2.3470552265644073e-01 -5.4398036003112793e-01</leafValues></_>
        <_>
          <internalNodes>
            0 -1 82 -8.9793502411339432e-06</internalNodes>
          <leafValues>
            -7.2758674621582031e-01 1.7246596515178680e-01</leafValues></_>
        <_>
          <internalNodes>
            0 -1 297 -4.4395675649866462e-04</internalNodes>
          <leafValues>
            3.5761603713035583e-01 -3.5220927000045776e-01</leafValues></_>
        <_>
          <internalNodes>
            0 -1 315 3.3890500664710999e-02</internalNodes>
          <leafValues>
            1.4754077792167664e-01 -7.0919626951217651e-01</leafValues></_>
        <_>
          <internalNodes>
            0 -1 140 1.0936919134110212e-03</internalNodes>
          <leafValues>
            -4.1737017035484314e-01 2.3956450819969177e-01</leafValues></_>
        <_>
          <internalNodes>
            0 -1 306 1.4787819236516953e-04</internalNodes>
          <leafValues>
            -3.1040111184120178e-01 2.8526523709297180e-01</leafValues></_>
        <_>
          <internalNodes>
            0 -1 302 8.5524698079098016e-06</internalNodes>
          <leafValues>
            1.3411158323287964e-01 -6.1724746227264404e-01</leafValues></_>
        <_>
          <internalNodes>
            0 -1 289 1.1421977542340755e-03</internalNodes>
          <leafValues>
            -3.1523349881172180e-01 3.0524590611457825e-01</leafValues></_>
        <_>
          <internalNodes>
            0 -1 244 3.7980736233294010e-03</internalNodes>
          <leafValues>
            -1.2907406687736511e-01 8.1995779275894165e-01</leafValues></_>
        <_>
          <internalNodes>
            0 -1 263 -8.2611732068471611e-06</internalNodes>
          <leafValues>
            -5.9865278005599976e-01 1.7036753892898560e-01</leafValues></_>
        <_>
          <internalNodes>
            0 -1 8 -4.0304666617885232e-04</internalNodes>
          <leafValues>
            3.0720967054367065e-01 -3.1591299176216125e-01</leafValues></_>
        <_>
          <internalNodes>
            0 -1 1 -4.3303906917572021e-02</internalNodes>
          <leafValues>
            -5.8109676837921143e-01 1.5646797418594360e-01</leafValues></_>
        <_>
          <internalNodes>
            0 -1 199 -1.1483635008335114e-01</internalNodes>
          <leafValues>
            -9.0060383081436157e-01 9.7425557672977448e-02</leafValues></_>
        <_>
          <internalNodes>
            0 -1 190 3.3726538531482220e-03</internalNodes>
          <leafValues>
            -1.8926918506622314e-01 5.8739548921585083e-01</leafValues></_>
        <_>
          <internalNodes>
            0 -1 132 2.9922107933089137e-04</internalNodes>
          <leafValues>
            -3.0084320902824402e-01 3.0591115355491638e-01</leafValues></_></weakClassifiers></_>
    <!-- stage 9 -->
    <_>
      <maxWeakCount>20</maxWeakCount>
      <stageThreshold>-1.0448694229125977e+00</stageThreshold>
      <weakClassifiers>
        <_>
          <internalNodes>
            0 -1 203 -2.9963119886815548e-03</internalNodes>
          <leafValues>
            5.0626379251480103e-01 -3.4438306093215942e-01</leafValues></_>
        <_>
          <internalNodes>
            0 -1 170 9.2224392574280500e-04</internalNodes>
          <leafValues>
            -2.4856369197368622e-01 4.3873289227485657e-01</leafValues></_>
        <_>
          <internalNodes>
            0 -1 303 -8.9836676124832593e-06</internalNodes>
          <leafValues>
            -7.5001370906829834e-01 1.4294141530990601e-01</leafValues></_>
        <_>
          <internalNodes>
            0 -1 209 3.8927751593291759e-03</internalNodes>
          <leafValues>
            -1.3807147741317749e-01 7.1943145990371704e-01</leafValues></_>
        <_>
          <internalNodes>
            0 -1 145 1.6752032024669461e-05</internalNodes>
          <leafValues>
            1.8180300295352936e-01 -5.2025252580642700e-01</leafValues></_>
        <_>
          <internalNodes>
            0 -1 118 2.6620034128427505e-02</internalNodes>
          <leafValues>
            8.0270126461982727e-02 -9.0381878614425659e-01</leafValues></_>
        <_>
          <internalNodes>
            0 -1 73 2.4873074144124985e-03</internalNodes>
          <leafValues>
            -3.8660916686058044e-01 2.7344000339508057e-01</leafValues></_>
        <_>
          <internalNodes>
            0 -1 229 4.1723167523741722e-03</internalNodes>
          <leafValues>
            -1.7883045971393585e-01 4.8240810632705688e-01</leafValues></_>
        <_>
          <internalNodes>
            0 -1 15 1.4069298049435019e-04</internalNodes>
          <leafValues>
            -2.0893168449401855e-01 4.1911017894744873e-01</leafValues></_>
        <_>
          <internalNodes>
            0 -1 281 -9.2246691565378569e-06</internalNodes>
          <leafValues>
            -6.8951654434204102e-01 1.2875910103321075e-01</leafValues></_>
        <_>
          <internalNodes>
            0 -1 196 3.2325410284101963e-03</internalNodes>
          <leafValues>
            -1.6963085532188416e-01 5.6642222404479980e-01</leafValues></_>
        <_>
          <internalNodes>
            0 -1 27 6.2596081988885999e-05</internalNodes>
          <leafValues>
            -2.0123791694641113e-01 4.3560948967933655e-01</leafValues></_>
        <_>
          <internalNodes>
            0 -1 195 1.7589405615581200e-05</internalNodes>
          <leafValues>
            1.7350661754608154e-01 -5.1822829246520996e-01</leafValues></_>
        <_>
          <internalNodes>
            0 -1 219 -5.3420517593622208e-02</internalNodes>
          <leafValues>
            -6.3352435827255249e-01 1.5318487584590912e-01</leafValues></_>
        <_>
          <internalNodes>
            0 -1 113 2.5341210886836052e-02</internalNodes>
          <leafValues>
            8.9649714529514313e-02 -7.1897846460342407e-01</leafValues></_>
        <_>
          <internalNodes>
            0 -1 157 2.3811119608581066e-03</internalNodes>
          <leafValues>
            -2.4808724224567413e-01 3.4955334663391113e-01</leafValues></_>
        <_>
          <internalNodes>
            0 -1 156 -2.3135831579566002e-03</internalNodes>
          <leafValues>
            8.0235987901687622e-01 -1.1283481866121292e-01</leafValues></_>
        <_>
          <internalNodes>
            0 -1 240 1.7478932859376073e-03</internalNodes>
          <leafValues>
            -3.0846494436264038e-01 2.6850035786628723e-01</leafValues></_>
        <_>
          <internalNodes>
            0 -1 116 -4.4485196471214294e-02</internalNodes>
          <leafValues>
            -6.8026220798492432e-01 1.1728990823030472e-01</leafValues></_>
        <_>
          <internalNodes>
            0 -1 74 -9.4374686479568481e-02</internalNodes>
          <leafValues>
            -8.3799171447753906e-01 8.3395436406135559e-02</leafValues></_></weakClassifiers></_>
    <!-- stage 10 -->
    <_>
      <maxWeakCount>19</maxWeakCount>
      <stageThreshold>-1.0301700830459595e+00</stageThreshold>
      <weakClassifiers>
        <_>
          <internalNodes>
            0 -1 62 8.6002228272263892e-06</internalNodes>
          <leafValues>
            4.1154327988624573e-01 -5.0980395078659058e-01</leafValues></_>
        <_>
          <internalNodes>
            0 -1 137 3.8751475512981415e-03</internalNodes>
          <leafValues>
            -4.7583824396133423e-01 2.4652861058712006e-01</leafValues></_>
        <_>
          <internalNodes>
            0 -1 128 -4.3676054337993264e-04</internalNodes>
          <leafValues>
            4.7137278318405151e-01 -2.5460079312324524e-01</leafValues></_>
        <_>
          <internalNodes>
            0 -1 270 8.5244755609892309e-06</internalNodes>
          <leafValues>
            1.8540272116661072e-01 -5.3865408897399902e-01</leafValues></_>
        <_>
          <internalNodes>
            0 -1 230 3.6063268780708313e-03</internalNodes>
          <leafValues>
            -3.8731214404106140e-01 2.3082628846168518e-01</leafValues></_>
        <_>
          <internalNodes>
            0 -1 327 1.1339726916048676e-04</internalNodes>
          <leafValues>
            -2.3889110982418060e-01 3.6399450898170471e-01</leafValues></_>
        <_>
          <internalNodes>
            0 -1 17 1.8076013657264411e-04</internalNodes>
          <leafValues>
            -3.3189502358436584e-01 2.9884442687034607e-01</leafValues></_>
        <_>
          <internalNodes>
            0 -1 37 -5.0011388957500458e-02</internalNodes>
          <leafValues>
            -7.3967623710632324e-01 1.2426532059907913e-01</leafValues></_>
        <_>
          <internalNodes>
            0 -1 299 8.7033031377359293e-06</internalNodes>
          <leafValues>
            1.3025470077991486e-01 -6.1580693721771240e-01</leafValues></_>
        <_>
          <internalNodes>
            0 -1 54 1.9872775301337242e-03</internalNodes>
          <leafValues>
            -3.2641315460205078e-01 3.2003679871559143e-01</leafValues></_>
        <_>
          <internalNodes>
            0 -1 168 2.6309825479984283e-03</internalNodes>
          <leafValues>
            -1.9523940980434418e-01 5.2176100015640259e-01</leafValues></_>
        <_>
          <internalNodes>
            0 -1 68 -8.7327225628541782e-06</internalNodes>
          <leafValues>
            -5.1919776201248169e-01 1.6043220460414886e-01</leafValues></_>
        <_>
          <internalNodes>
            0 -1 200 -1.1811700463294983e-01</internalNodes>
          <leafValues>
            -7.7305692434310913e-01 1.0648687928915024e-01</leafValues></_>
        <_>
          <internalNodes>
            0 -1 103 -5.4345326498150826e-04</internalNodes>
          <leafValues>
            3.0236309766769409e-01 -3.0252689123153687e-01</leafValues></_>
        <_>
          <internalNodes>
            0 -1 228 -3.3496657852083445e-03</internalNodes>
          <leafValues>
            8.2565909624099731e-01 -1.1254853010177612e-01</leafValues></_>
        <_>
          <internalNodes>
            0 -1 213 -1.7057765944628045e-05</internalNodes>
          <leafValues>
            -5.5053603649139404e-01 1.6983568668365479e-01</leafValues></_>
        <_>
          <internalNodes>
            0 -1 76 1.0456563532352448e-01</internalNodes>
          <leafValues>
            9.9117010831832886e-02 -7.8532153367996216e-01</leafValues></_>
        <_>
          <internalNodes>
            0 -1 119 1.6049197874963284e-03</internalNodes>
          <leafValues>
            -2.5723752379417419e-01 3.5751730203628540e-01</leafValues></_>
        <_>
          <internalNodes>
            0 -1 317 3.5365956136956811e-04</internalNodes>
          <leafValues>
            -2.6416257023811340e-01 3.2581418752670288e-01</leafValues></_></weakClassifiers></_>
    <!-- stage 11 -->
    <_>
      <maxWeakCount>20</maxWeakCount>
      <stageThreshold>-9.9597722291946411e-01</stageThreshold>
      <weakClassifiers>
        <_>
          <internalNodes>
            0 -1 53 -6.4796046353876591e-04</internalNodes>
          <leafValues>
            4.6126511693000793e-01 -3.0223125219345093e-01</leafValues></_>
        <_>
          <internalNodes>
            0 -1 318 8.4525345300789922e-06</internalNodes>
          <leafValues>
            2.7506852149963379e-01 -4.6899929642677307e-01</leafValues></_>
        <_>
          <internalNodes>
            0 -1 126 -1.7800817659008317e-05</internalNodes>
          <leafValues>
            -5.2109289169311523e-01 2.2464354336261749e-01</leafValues></_>
        <_>
          <internalNodes>
            0 -1 146 1.7512863269075751e-04</internalNodes>
          <leafValues>
            -2.9514417052268982e-01 3.6860078573226929e-01</leafValues></_>
        <_>
          <internalNodes>
            0 -1 92 8.5942929217708297e-06</internalNodes>
          <leafValues>
            1.9734759628772736e-01 -4.8387962579727173e-01</leafValues></_>
        <_>
          <internalNodes>
            0 -1 177 3.2798498868942261e-03</internalNodes>
          <leafValues>
            -2.7240887284278870e-01 3.4372869133949280e-01</leafValues></_>
        <_>
          <internalNodes>
            0 -1 202 4.1678962297737598e-03</internalNodes>
          <leafValues>
            -6.1378702521324158e-02 8.7446016073226929e-01</leafValues></_>
        <_>
          <internalNodes>
            0 -1 85 3.8492167368531227e-04</internalNodes>
          <leafValues>
            -3.1404787302017212e-01 2.6564851403236389e-01</leafValues></_>
        <_>
          <internalNodes>
            0 -1 165 3.5931945312768221e-03</internalNodes>
          <leafValues>
            -2.0717145502567291e-01 4.0676599740982056e-01</leafValues></_>
        <_>
          <internalNodes>
            0 -1 47 1.8658768385648727e-02</internalNodes>
          <leafValues>
            9.0130232274532318e-02 -9.2587870359420776e-01</leafValues></_>
        <_>
          <internalNodes>
            0 -1 238 3.7419021828100085e-04</internalNodes>
          <leafValues>
            -3.1556555628776550e-01 2.3311898112297058e-01</leafValues></_>
        <_>
          <internalNodes>
            0 -1 12 -1.7971238493919373e-01</internalNodes>
          <leafValues>
            -4.7107419371604919e-01 1.6924825310707092e-01</leafValues></_>
        <_>
          <internalNodes>
            0 -1 217 1.9965193132520653e-05</internalNodes>
          <leafValues>
            1.5527527034282684e-01 -4.7053676843643188e-01</leafValues></_>
        <_>
          <internalNodes>
            0 -1 255 3.5334773361682892e-02</internalNodes>
          <leafValues>
            1.0653083771467209e-01 -7.9632455110549927e-01</leafValues></_>
        <_>
          <internalNodes>
            0 -1 127 -1.8402229761704803e-04</internalNodes>
          <leafValues>
            3.2167008519172668e-01 -2.5920233130455017e-01</leafValues></_>
        <_>
          <internalNodes>
            0 -1 232 2.1571996621787548e-03</internalNodes>
          <leafValues>
            -1.1724013835191727e-01 6.3987433910369873e-01</leafValues></_>
        <_>
          <internalNodes>
            0 -1 56 4.1450007120147347e-04</internalNodes>
          <leafValues>
            -2.6064816117286682e-01 3.0483588576316833e-01</leafValues></_>
        <_>
          <internalNodes>
            0 -1 99 -1.6502272337675095e-02</internalNodes>
          <leafValues>
            -5.8774548768997192e-01 1.4643587172031403e-01</leafValues></_>
        <_>
          <internalNodes>
            0 -1 248 3.6099767312407494e-03</internalNodes>
          <leafValues>
            -1.1374760419130325e-01 9.0673291683197021e-01</leafValues></_>
        <_>
          <internalNodes>
            0 -1 337 -1.1367765546310693e-04</internalNodes>
          <leafValues>
            3.6255559325218201e-01 -1.8250612914562225e-01</leafValues></_></weakClassifiers></_>
    <!-- stage 12 -->
    <_>
      <maxWeakCount>26</maxWeakCount>
      <stageThreshold>-9.4566053152084351e-01</stageThreshold>
      <weakClassifiers>
        <_>
          <internalNodes>
            0 -1 79 -1.4291973784565926e-03</internalNodes>
          <leafValues>
            4.2181339859962463e-01 -3.7566137313842773e-01</leafValues></_>
        <_>
          <internalNodes>
            0 -1 301 8.5088813648326322e-06</internalNodes>
          <leafValues>
            1.5650038421154022e-01 -6.3699638843536377e-01</leafValues></_>
        <_>
          <internalNodes>
            0 -1 75 -1.5805889852344990e-03</internalNodes>
          <leafValues>
            3.0465531349182129e-01 -3.0644512176513672e-01</leafValues></_>
        <_>
          <internalNodes>
            0 -1 107 -8.4631101344712079e-06</internalNodes>
          <leafValues>
            -5.4657465219497681e-01 1.3903938233852386e-01</leafValues></_>
        <_>
          <internalNodes>
            0 -1 150 8.6477864533662796e-04</internalNodes>
          <leafValues>
            -2.3397882282733917e-01 3.5399794578552246e-01</leafValues></_>
        <_>
          <internalNodes>
            0 -1 211 3.9340708404779434e-02</internalNodes>
          <leafValues>
            1.0048935562372208e-01 -7.3079681396484375e-01</leafValues></_>
        <_>
          <internalNodes>
            0 -1 229 -1.8197795376181602e-02</internalNodes>
          <leafValues>
            6.6743177175521851e-01 -1.2795120477676392e-01</leafValues></_>
        <_>
          <internalNodes>
            0 -1 231 3.6227975506335497e-03</internalNodes>
          <leafValues>
            -1.5256643295288086e-01 5.5848473310470581e-01</leafValues></_>
        <_>
          <internalNodes>
            0 -1 259 8.3319027908146381e-06</internalNodes>
          <leafValues>
            1.8206804990768433e-01 -4.6237587928771973e-01</leafValues></_>
        <_>
          <internalNodes>
            0 -1 182 -1.1807334609329700e-02</internalNodes>
          <leafValues>
            -6.3835173845291138e-01 1.0277261584997177e-01</leafValues></_>
        <_>
          <internalNodes>
            0 -1 26 -1.0006512457039207e-04</internalNodes>
          <leafValues>
            4.0976947546005249e-01 -2.1472597122192383e-01</leafValues></_>
        <_>
          <internalNodes>
            0 -1 48 8.8943146169185638e-02</internalNodes>
          <leafValues>
            1.2878344953060150e-01 -7.2878879308700562e-01</leafValues></_>
        <_>
          <internalNodes>
            0 -1 98 1.3040443882346153e-03</internalNodes>
          <leafValues>
            -2.8477203845977783e-01 2.8899604082107544e-01</leafValues></_>
        <_>
          <internalNodes>
            0 -1 215 1.2603429786395282e-04</internalNodes>
          <leafValues>
            -2.2014494240283966e-01 3.6160439252853394e-01</leafValues></_>
        <_>
          <internalNodes>
            0 -1 57 4.4013284146785736e-02</internalNodes>
          <leafValues>
            1.6647978127002716e-01 -5.6483113765716553e-01</leafValues></_>
        <_>
          <internalNodes>
            0 -1 239 2.3790170962456614e-04</internalNodes>
          <leafValues>
            -3.4498301148414612e-01 2.8922253847122192e-01</leafValues></_>
        <_>
          <internalNodes>
            0 -1 171 -1.6983602108666673e-05</internalNodes>
          <leafValues>
            -4.5830270648002625e-01 1.4839372038841248e-01</leafValues></_>
        <_>
          <internalNodes>
            0 -1 258 1.4016882050782442e-03</internalNodes>
          <leafValues>
            -3.0695417523384094e-01 2.2805872559547424e-01</leafValues></_>
        <_>
          <internalNodes>
            0 -1 330 -8.5641941041103564e-06</internalNodes>
          <leafValues>
            -5.3696346282958984e-01 1.4914068579673767e-01</leafValues></_>
        <_>
          <internalNodes>
            0 -1 331 -1.0124585242010653e-04</internalNodes>
          <leafValues>
            3.4155938029289246e-01 -2.8912863135337830e-01</leafValues></_>
        <_>
          <internalNodes>
            0 -1 250 -8.6446580098709092e-06</internalNodes>
          <leafValues>
            -6.1005544662475586e-01 1.2441717833280563e-01</leafValues></_>
        <_>
          <internalNodes>
            0 -1 285 2.0790161215700209e-04</internalNodes>
          <leafValues>
            -2.2433480620384216e-01 3.8562589883804321e-01</leafValues></_>
        <_>
          <internalNodes>
            0 -1 6 4.4826624798588455e-04</internalNodes>
          <leafValues>
            -2.6190745830535889e-01 2.9692417383193970e-01</leafValues></_>
        <_>
          <internalNodes>
            0 -1 10 1.7693962945486419e-05</internalNodes>
          <leafValues>
            1.0179256647825241e-01 -7.2100555896759033e-01</leafValues></_>
        <_>
          <internalNodes>
            0 -1 153 4.1919820010662079e-02</internalNodes>
          <leafValues>
            -2.4606876075267792e-01 3.7663719058036804e-01</leafValues></_>
        <_>
          <internalNodes>
            0 -1 175 -3.1956422608345747e-03</internalNodes>
          <leafValues>
            6.1343073844909668e-01 -1.2503209710121155e-01</leafValues></_></weakClassifiers></_>
    <!-- stage 13 -->
    <_>
      <maxWeakCount>24</maxWeakCount>
      <stageThreshold>-1.1410061120986938e+00</stageThreshold>
      <weakClassifiers>
        <_>
          <internalNodes>
            0 -1 64 -3.6086165346205235e-03</internalNodes>
          <leafValues>
            4.7415065765380859e-01 -2.6007327437400818e-01</leafValues></_>
        <_>
          <internalNodes>
            0 -1 208 5.2193701267242432e-03</internalNodes>
          <leafValues>
            -1.9830009341239929e-01 4.2712560296058655e-01</leafValues></_>
        <_>
          <internalNodes>
            0 -1 9 7.5276632560417056e-04</internalNodes>
          <leafValues>
            -2.3070815205574036e-01 3.7531459331512451e-01</leafValues></_>
        <_>
          <internalNodes>
            0 -1 214 8.4497387433657423e-06</internalNodes>
          <leafValues>
            1.6996890306472778e-01 -4.8940792679786682e-01</leafValues></_>
        <_>
          <internalNodes>
            0 -1 152 -1.2489832006394863e-03</internalNodes>
          <leafValues>
            2.3860301077365875e-01 -3.3250841498374939e-01</leafValues></_>
        <_>
          <internalNodes>
            0 -1 77 -8.5206756921252236e-06</internalNodes>
          <leafValues>
            -6.4191085100173950e-01 1.3340288400650024e-01</leafValues></_>
        <_>
          <internalNodes>
            0 -1 67 2.4397323431912810e-04</internalNodes>
          <leafValues>
            -2.4900117516517639e-01 3.2556876540184021e-01</leafValues></_>
        <_>
          <internalNodes>
            0 -1 205 2.6015131734311581e-03</internalNodes>
          <leafValues>
            -1.3637006282806396e-01 6.0141986608505249e-01</leafValues></_>
        <_>
          <internalNodes>
            0 -1 243 -9.4745442271232605e-02</internalNodes>
          <leafValues>
            -6.5888226032257080e-01 1.3112629950046539e-01</leafValues></_>
        <_>
          <internalNodes>
            0 -1 0 -1.2136245146393776e-02</internalNodes>
          <leafValues>
            -4.8183554410934448e-01 1.6039799153804779e-01</leafValues></_>
        <_>
          <internalNodes>
            0 -1 221 -2.1836228668689728e-02</internalNodes>
          <leafValues>
            -5.7139176130294800e-01 1.3266278803348541e-01</leafValues></_>
        <_>
          <internalNodes>
            0 -1 205 -4.9443109892308712e-03</internalNodes>
          <leafValues>
            7.7802705764770508e-01 -1.1699051409959793e-01</leafValues></_>
        <_>
          <internalNodes>
            0 -1 167 1.8895418179454282e-05</internalNodes>
          <leafValues>
            1.7968858778476715e-01 -4.7656181454658508e-01</leafValues></_>
        <_>
          <internalNodes>
            0 -1 42 -2.0719622261822224e-04</internalNodes>
          <leafValues>
            3.3556774258613586e-01 -2.3323307931423187e-01</leafValues></_>
        <_>
          <internalNodes>
            0 -1 45 -1.2748373672366142e-02</internalNodes>
          <leafValues>
            -7.6392394304275513e-01 1.1543023586273193e-01</leafValues></_>
        <_>
          <internalNodes>
            0 -1 109 -4.6165205538272858e-02</internalNodes>
          <leafValues>
            -7.6087063550949097e-01 8.0082148313522339e-02</leafValues></_>
        <_>
          <internalNodes>
            0 -1 43 -3.3376400824636221e-04</internalNodes>
          <leafValues>
            3.7292253971099854e-01 -2.4203090369701385e-01</leafValues></_>
        <_>
          <internalNodes>
            0 -1 148 8.0119783524423838e-04</internalNodes>
          <leafValues>
            -2.4102646112442017e-01 3.2606607675552368e-01</leafValues></_>
        <_>
          <internalNodes>
            0 -1 223 3.4608552232384682e-03</internalNodes>
          <leafValues>
            -1.2170638889074326e-01 6.7161273956298828e-01</leafValues></_>
        <_>
          <internalNodes>
            0 -1 245 2.4113822728395462e-03</internalNodes>
          <leafValues>
            -9.2475704848766327e-02 6.2619465589523315e-01</leafValues></_>
        <_>
          <internalNodes>
            0 -1 272 8.4989778770250268e-06</internalNodes>
          <leafValues>
            1.6040277481079102e-01 -4.5891740918159485e-01</leafValues></_>
        <_>
          <internalNodes>
            0 -1 227 -3.4838600549846888e-03</internalNodes>
          <leafValues>
            8.7080597877502441e-01 -9.1589018702507019e-02</leafValues></_>
        <_>
          <internalNodes>
            0 -1 267 6.5402383916079998e-04</internalNodes>
          <leafValues>
            -3.0700379610061646e-01 2.5578200817108154e-01</leafValues></_>
        <_>
          <internalNodes>
            0 -1 129 1.2947411742061377e-03</internalNodes>
          <leafValues>
            -2.8537562489509583e-01 2.9850330948829651e-01</leafValues></_></weakClassifiers></_>
    <!-- stage 14 -->
    <_>
      <maxWeakCount>23</maxWeakCount>
      <stageThreshold>-1.0248997211456299e+00</stageThreshold>
      <weakClassifiers>
        <_>
          <internalNodes>
            0 -1 319 -8.5108877101447433e-06</internalNodes>
          <leafValues>
            -3.9233037829399109e-01 4.0550929307937622e-01</leafValues></_>
        <_>
          <internalNodes>
            0 -1 276 4.4235234963707626e-04</internalNodes>
          <leafValues>
            -2.8783440589904785e-01 3.5779321193695068e-01</leafValues></_>
        <_>
          <internalNodes>
            0 -1 84 3.3764153718948364e-02</internalNodes>
          <leafValues>
            1.4669083058834076e-01 -6.5147626399993896e-01</leafValues></_>
        <_>
          <internalNodes>
            0 -1 323 9.2199712526053190e-05</internalNodes>
          <leafValues>
            -2.3976673185825348e-01 3.6051052808761597e-01</leafValues></_>
        <_>
          <internalNodes>
            0 -1 24 1.6104310634545982e-04</internalNodes>
          <leafValues>
            -2.5278663635253906e-01 3.0599245429039001e-01</leafValues></_>
        <_>
          <internalNodes>
            0 -1 251 8.4730691014556214e-06</internalNodes>
          <leafValues>
            1.3830365240573883e-01 -5.9064888954162598e-01</leafValues></_>
        <_>
          <internalNodes>
            0 -1 262 2.3224540054798126e-03</internalNodes>
          <leafValues>
            -2.9984831809997559e-01 2.6564124226570129e-01</leafValues></_>
        <_>
          <internalNodes>
            0 -1 236 8.2037667743861675e-04</internalNodes>
          <leafValues>
            -2.5128716230392456e-01 3.2700708508491516e-01</leafValues></_>
        <_>
          <internalNodes>
            0 -1 324 -1.6901125491131097e-05</internalNodes>
          <leafValues>
            -5.6140238046646118e-01 1.4789369702339172e-01</leafValues></_>
        <_>
          <internalNodes>
            0 -1 106 8.5336332631413825e-06</internalNodes>
          <leafValues>
            2.0822782814502716e-01 -3.9300885796546936e-01</leafValues></_>
        <_>
          <internalNodes>
            0 -1 29 2.4770093150436878e-03</internalNodes>
          <leafValues>
            -3.5174897313117981e-01 2.2302362322807312e-01</leafValues></_>
        <_>
          <internalNodes>
            0 -1 63 -2.2869342938065529e-03</internalNodes>
          <leafValues>
            1.8985952436923981e-01 -4.4447380304336548e-01</leafValues></_>
        <_>
          <internalNodes>
            0 -1 174 1.3790271477773786e-03</internalNodes>
          <leafValues>
            -2.1796728670597076e-01 4.0988355875015259e-01</leafValues></_>
        <_>
          <internalNodes>
            0 -1 176 2.8426202014088631e-02</internalNodes>
          <leafValues>
            1.3995148241519928e-01 -5.7276177406311035e-01</leafValues></_>
        <_>
          <internalNodes>
            0 -1 274 1.7711998225422576e-05</internalNodes>
          <leafValues>
            1.2422566115856171e-01 -5.8592379093170166e-01</leafValues></_>
        <_>
          <internalNodes>
            0 -1 252 5.4454681230708957e-04</internalNodes>
          <leafValues>
            -2.8152841329574585e-01 2.9422867298126221e-01</leafValues></_>
        <_>
          <internalNodes>
            0 -1 50 1.7147667676908895e-05</internalNodes>
          <leafValues>
            1.4278899133205414e-01 -5.7703989744186401e-01</leafValues></_>
        <_>
          <internalNodes>
            0 -1 40 1.4212843962013721e-04</internalNodes>
          <leafValues>
            -2.6129367947578430e-01 3.3860990405082703e-01</leafValues></_>
        <_>
          <internalNodes>
            0 -1 55 8.6954078142298386e-06</internalNodes>
          <leafValues>
            1.6188886761665344e-01 -4.5835644006729126e-01</leafValues></_>
        <_>
          <internalNodes>
            0 -1 114 -4.4427658431231976e-03</internalNodes>
          <leafValues>
            4.9812498688697815e-01 -1.4441438019275665e-01</leafValues></_>
        <_>
          <internalNodes>
            0 -1 298 8.4750681708101183e-06</internalNodes>
          <leafValues>
            1.8244622647762299e-01 -4.2410972714424133e-01</leafValues></_>
        <_>
          <internalNodes>
            0 -1 334 3.7011891254223883e-04</internalNodes>
          <leafValues>
            -1.6956713795661926e-01 4.2815721035003662e-01</leafValues></_>
        <_>
          <internalNodes>
            0 -1 305 -5.0152919720858335e-04</internalNodes>
          <leafValues>
            3.0161625146865845e-01 -2.5464260578155518e-01</leafValues></_></weakClassifiers></_>
    <!-- stage 15 -->
    <_>
      <maxWeakCount>18</maxWeakCount>
      <stageThreshold>-9.3117916584014893e-01</stageThreshold>
      <weakClassifiers>
        <_>
          <internalNodes>
            0 -1 288 -8.0193678149953485e-04</internalNodes>
          <leafValues>
            6.3636362552642822e-01 -5.8823529630899429e-02</leafValues></_>
        <_>
          <internalNodes>
            0 -1 28 2.7697358746081591e-04</internalNodes>
          <leafValues>
            -2.5224763154983521e-01 3.6480674147605896e-01</leafValues></_>
        <_>
          <internalNodes>
            0 -1 112 8.5457095337915234e-06</internalNodes>
          <leafValues>
            2.0543947815895081e-01 -5.4751312732696533e-01</leafValues></_>
        <_>
          <internalNodes>
            0 -1 207 3.6166901700198650e-03</internalNodes>
          <leafValues>
            -1.3286216557025909e-01 7.8583461046218872e-01</leafValues></_>
        <_>
          <internalNodes>
            0 -1 184 3.5119506064802408e-03</internalNodes>
          <leafValues>
            -1.1978910863399506e-01 8.7635070085525513e-01</leafValues></_>
        <_>
          <internalNodes>
            0 -1 194 1.7621703445911407e-03</internalNodes>
          <leafValues>
            -3.4096780419349670e-01 2.7337482571601868e-01</leafValues></_>
        <_>
          <internalNodes>
            0 -1 32 -8.5171504906611517e-06</internalNodes>
          <leafValues>
            -5.5340963602066040e-01 1.7492401599884033e-01</leafValues></_>
        <_>
          <internalNodes>
            0 -1 275 7.0878124097362161e-04</internalNodes>
          <leafValues>
            -2.6892018318176270e-01 3.2265037298202515e-01</leafValues></_>
        <_>
          <internalNodes>
            0 -1 309 1.4354176819324493e-02</internalNodes>
          <leafValues>
            1.5286508202552795e-01 -7.0607161521911621e-01</leafValues></_>
        <_>
          <internalNodes>
            0 -1 117 6.6589690744876862e-02</internalNodes>
          <leafValues>
            5.4928913712501526e-02 -8.5584110021591187e-01</leafValues></_>
        <_>
          <internalNodes>
            0 -1 332 8.3573768279165961e-06</internalNodes>
          <leafValues>
            1.6553121805191040e-01 -4.9430343508720398e-01</leafValues></_>
        <_>
          <internalNodes>
            0 -1 233 1.9485382363200188e-03</internalNodes>
          <leafValues>
            -3.0247154831886292e-01 2.4282884597778320e-01</leafValues></_>
        <_>
          <internalNodes>
            0 -1 110 3.8654483854770660e-02</internalNodes>
          <leafValues>
            1.4609234035015106e-01 -5.4227095842361450e-01</leafValues></_>
        <_>
          <internalNodes>
            0 -1 70 -4.4713600073009729e-04</internalNodes>
          <leafValues>
            4.0764617919921875e-01 -2.4245934188365936e-01</leafValues></_>
        <_>
          <internalNodes>
            0 -1 294 1.7678608855931088e-05</internalNodes>
          <leafValues>
            1.4309406280517578e-01 -5.8215516805648804e-01</leafValues></_>
        <_>
          <internalNodes>
            0 -1 311 8.9645292609930038e-04</internalNodes>
          <leafValues>
            -2.0136222243309021e-01 4.1158923506736755e-01</leafValues></_>
        <_>
          <internalNodes>
            0 -1 143 -1.7213802493643016e-05</internalNodes>
          <leafValues>
            -6.0372817516326904e-01 1.4929442107677460e-01</leafValues></_>
        <_>
          <internalNodes>
            0 -1 165 -1.1774010090448428e-05</internalNodes>
          <leafValues>
            -4.8023703694343567e-01 1.6565905511379242e-01</leafValues></_></weakClassifiers></_>
    <!-- stage 16 -->
    <_>
      <maxWeakCount>24</maxWeakCount>
      <stageThreshold>-9.7442597150802612e-01</stageThreshold>
      <weakClassifiers>
        <_>
          <internalNodes>
            0 -1 130 1.7487012883066200e-05</internalNodes>
          <leafValues>
            3.9480197429656982e-01 -4.8591548204421997e-01</leafValues></_>
        <_>
          <internalNodes>
            0 -1 226 -5.8282697573304176e-03</internalNodes>
          <leafValues>
            8.4543800354003906e-01 -1.0046266019344330e-01</leafValues></_>
        <_>
          <internalNodes>
            0 -1 206 3.2830866985023022e-03</internalNodes>
          <leafValues>
            -2.8014624118804932e-01 3.1702250242233276e-01</leafValues></_>
        <_>
          <internalNodes>
            0 -1 264 -4.8018922097980976e-04</internalNodes>
          <leafValues>
            5.0192296504974365e-01 -1.3538411259651184e-01</leafValues></_>
        <_>
          <internalNodes>
            0 -1 49 -7.0206388831138611e-02</internalNodes>
          <leafValues>
            -7.8669559955596924e-01 1.0496494174003601e-01</leafValues></_>
        <_>
          <internalNodes>
            0 -1 155 -1.3780877925455570e-03</internalNodes>
          <leafValues>
            1.9446347653865814e-01 -3.8185790181159973e-01</leafValues></_>
        <_>
          <internalNodes>
            0 -1 144 8.6415120676974766e-06</internalNodes>
          <leafValues>
            1.3038292527198792e-01 -5.5795586109161377e-01</leafValues></_>
        <_>
          <internalNodes>
            0 -1 44 -1.3308262825012207e-01</internalNodes>
          <leafValues>
            -6.3597172498703003e-01 1.3028866052627563e-01</leafValues></_>
        <_>
          <internalNodes>
            0 -1 61 -7.0947385393083096e-04</internalNodes>
          <leafValues>
            2.4908481538295746e-01 -3.1438472867012024e-01</leafValues></_>
        <_>
          <internalNodes>
            0 -1 25 8.8480810518376529e-05</internalNodes>
          <leafValues>
            -1.9242662191390991e-01 4.2771625518798828e-01</leafValues></_>
        <_>
          <internalNodes>
            0 -1 0 -1.0433359071612358e-02</internalNodes>
          <leafValues>
            -4.3265837430953979e-01 2.0567871630191803e-01</leafValues></_>
        <_>
          <internalNodes>
            0 -1 224 -4.2660444974899292e-02</internalNodes>
          <leafValues>
            -4.6284219622612000e-01 1.9038510322570801e-01</leafValues></_>
        <_>
          <internalNodes>
            0 -1 5 -4.8622518079355359e-04</internalNodes>
          <leafValues>
            3.0097740888595581e-01 -2.8870537877082825e-01</leafValues></_>
        <_>
          <internalNodes>
            0 -1 108 8.5976380432839505e-06</internalNodes>
          <leafValues>
            1.4845934510231018e-01 -4.7650426626205444e-01</leafValues></_>
        <_>
          <internalNodes>
            0 -1 295 -2.3885944392532110e-04</internalNodes>
          <leafValues>
            3.2529169321060181e-01 -2.3405164480209351e-01</leafValues></_>
        <_>
          <internalNodes>
            0 -1 333 1.7384372767992318e-05</internalNodes>
          <leafValues>
            1.9084051251411438e-01 -4.3017655611038208e-01</leafValues></_>
        <_>
          <internalNodes>
            0 -1 265 3.4675724804401398e-02</internalNodes>
          <leafValues>
            1.4086787402629852e-01 -6.2661355733871460e-01</leafValues></_>
        <_>
          <internalNodes>
            0 -1 257 5.9819988906383514e-02</internalNodes>
          <leafValues>
            1.5148539841175079e-01 -5.4187101125717163e-01</leafValues></_>
        <_>
          <internalNodes>
            0 -1 59 8.1027956912294030e-04</internalNodes>
          <leafValues>
            -2.7298983931541443e-01 2.6055112481117249e-01</leafValues></_>
        <_>
          <internalNodes>
            0 -1 287 3.3240864286199212e-04</internalNodes>
          <leafValues>
            -2.0755459368228912e-01 3.5178819298744202e-01</leafValues></_>
        <_>
          <internalNodes>
            0 -1 123 2.2656316868960857e-03</internalNodes>
          <leafValues>
            -2.6432800292968750e-01 2.7953839302062988e-01</leafValues></_>
        <_>
          <internalNodes>
            0 -1 273 -8.5017418314237148e-06</internalNodes>
          <leafValues>
            -6.7954981327056885e-01 1.1624484509229660e-01</leafValues></_>
        <_>
          <internalNodes>
            0 -1 282 4.9218712374567986e-03</internalNodes>
          <leafValues>
            -1.6147434711456299e-01 4.9684786796569824e-01</leafValues></_>
        <_>
          <internalNodes>
            0 -1 268 -4.2621787637472153e-02</internalNodes>
          <leafValues>
            -7.5227558612823486e-01 1.1508989334106445e-01</leafValues></_></weakClassifiers></_>
    <!-- stage 17 -->
    <_>
      <maxWeakCount>27</maxWeakCount>
      <stageThreshold>-9.3072056770324707e-01</stageThreshold>
      <weakClassifiers>
        <_>
          <internalNodes>
            0 -1 296 -4.9168179975822568e-04</internalNodes>
          <leafValues>
            5.9766083955764771e-01 -1.0526316240429878e-02</leafValues></_>
        <_>
          <internalNodes>
            0 -1 226 -5.0730137154459953e-03</internalNodes>
          <leafValues>
            7.4123841524124146e-01 -7.7461667358875275e-02</leafValues></_>
        <_>
          <internalNodes>
            0 -1 34 4.5165829942561686e-04</internalNodes>
          <leafValues>
            -2.5973966717720032e-01 3.0202174186706543e-01</leafValues></_>
        <_>
          <internalNodes>
            0 -1 226 4.9230498261749744e-03</internalNodes>
          <leafValues>
            -1.0735803842544556e-01 7.7527886629104614e-01</leafValues></_>
        <_>
          <internalNodes>
            0 -1 7 -1.7640466103330255e-04</internalNodes>
          <leafValues>
            3.4505167603492737e-01 -2.1284925937652588e-01</leafValues></_>
        <_>
          <internalNodes>
            0 -1 336 1.8351543694734573e-02</internalNodes>
          <leafValues>
            1.8575043976306915e-01 -3.8982066512107849e-01</leafValues></_>
        <_>
          <internalNodes>
            0 -1 234 3.4067095257341862e-03</internalNodes>
          <leafValues>
            -7.5016140937805176e-02 7.1607542037963867e-01</leafValues></_>
        <_>
          <internalNodes>
            0 -1 246 5.4371138103306293e-03</internalNodes>
          <leafValues>
            -7.5818203389644623e-02 8.4219336509704590e-01</leafValues></_>
        <_>
          <internalNodes>
            0 -1 41 1.2409668124746531e-04</internalNodes>
          <leafValues>
            -1.8211621046066284e-01 3.6582660675048828e-01</leafValues></_>
        <_>
          <internalNodes>
            0 -1 325 1.0654039215296507e-04</internalNodes>
          <leafValues>
            -2.4618832767009735e-01 2.7801400423049927e-01</leafValues></_>
        <_>
          <internalNodes>
            0 -1 335 -1.8330552848055959e-05</internalNodes>
          <leafValues>
            -6.0471349954605103e-01 1.1056093126535416e-01</leafValues></_>
        <_>
          <internalNodes>
            0 -1 38 -2.5364905013702810e-04</internalNodes>
          <leafValues>
            3.1387153267860413e-01 -2.1030732989311218e-01</leafValues></_>
        <_>
          <internalNodes>
            0 -1 266 3.6211900413036346e-02</internalNodes>
          <leafValues>
            1.4610891044139862e-01 -5.4424345493316650e-01</leafValues></_>
        <_>
          <internalNodes>
            0 -1 88 1.0014413297176361e-01</internalNodes>
          <leafValues>
            1.1186220496892929e-01 -6.0415762662887573e-01</leafValues></_>
        <_>
          <internalNodes>
            0 -1 121 2.4445692542940378e-04</internalNodes>
          <leafValues>
            -4.6223467588424683e-01 1.6882757842540741e-01</leafValues></_>
        <_>
          <internalNodes>
            0 -1 261 -1.7679070879239589e-05</internalNodes>
          <leafValues>
            -4.1872230172157288e-01 1.9324767589569092e-01</leafValues></_>
        <_>
          <internalNodes>
            0 -1 124 -8.4528128354577348e-06</internalNodes>
          <leafValues>
            -5.5821007490158081e-01 1.2732231616973877e-01</leafValues></_>
        <_>
          <internalNodes>
            0 -1 18 -3.9145513437688351e-04</internalNodes>
          <leafValues>
            4.5801869034767151e-01 -1.8246813118457794e-01</leafValues></_>
        <_>
          <internalNodes>
            0 -1 36 -5.5093585979193449e-04</internalNodes>
          <leafValues>
            3.5752102732658386e-01 -2.3009413480758667e-01</leafValues></_>
        <_>
          <internalNodes>
            0 -1 247 2.9182867147028446e-03</internalNodes>
          <leafValues>
            -1.0574898868799210e-01 6.9069850444793701e-01</leafValues></_>
        <_>
          <internalNodes>
            0 -1 321 2.3334132856689394e-04</internalNodes>
          <leafValues>
            -2.1771514415740967e-01 2.9753664135932922e-01</leafValues></_>
        <_>
          <internalNodes>
            0 -1 91 4.4677253812551498e-02</internalNodes>
          <leafValues>
            1.0207713395357132e-01 -6.9908857345581055e-01</leafValues></_>
        <_>
          <internalNodes>
            0 -1 72 6.1263312818482518e-04</internalNodes>
          <leafValues>
            -2.7378281950950623e-01 2.6292955875396729e-01</leafValues></_>
        <_>
          <internalNodes>
            0 -1 90 -8.4631101344712079e-06</internalNodes>
          <leafValues>
            -5.5395817756652832e-01 1.1833924800157547e-01</leafValues></_>
        <_>
          <internalNodes>
            0 -1 134 6.7614088766276836e-04</internalNodes>
          <leafValues>
            -2.3205243051052094e-01 2.7363038063049316e-01</leafValues></_>
        <_>
          <internalNodes>
            0 -1 185 2.7964396402239799e-02</internalNodes>
          <leafValues>
            1.1718043684959412e-01 -5.9303468465805054e-01</leafValues></_>
        <_>
          <internalNodes>
            0 -1 139 8.1303129263687879e-05</internalNodes>
          <leafValues>
            -2.2394473850727081e-01 3.4028780460357666e-01</leafValues></_></weakClassifiers></_>
    <!-- stage 18 -->
    <_>
      <maxWeakCount>23</maxWeakCount>
      <stageThreshold>-1.0953371524810791e+00</stageThreshold>
      <weakClassifiers>
        <_>
          <internalNodes>
            0 -1 39 -3.8598459213972092e-03</internalNodes>
          <leafValues>
            4.9369084835052490e-01 -1.9936709105968475e-01</leafValues></_>
        <_>
          <internalNodes>
            0 -1 69 2.7961580781266093e-04</internalNodes>
          <leafValues>
            -2.1814075112342834e-01 3.8768965005874634e-01</leafValues></_>
        <_>
          <internalNodes>
            0 -1 253 8.5550027506542392e-06</internalNodes>
          <leafValues>
            1.7011579871177673e-01 -5.0092619657516479e-01</leafValues></_>
        <_>
          <internalNodes>
            0 -1 249 8.4528128354577348e-06</internalNodes>
          <leafValues>
            1.5748500823974609e-01 -5.2704137563705444e-01</leafValues></_>
        <_>
          <internalNodes>
            0 -1 20 5.6063527154037729e-05</internalNodes>
          <leafValues>
            -2.2455309331417084e-01 4.1517511010169983e-01</leafValues></_>
        <_>
          <internalNodes>
            0 -1 11 4.1834020521491766e-04</internalNodes>
          <leafValues>
            -3.4676194190979004e-01 2.1886469423770905e-01</leafValues></_>
        <_>
          <internalNodes>
            0 -1 60 4.5638075098395348e-03</internalNodes>
          <leafValues>
            -2.5373888015747070e-01 3.4559917449951172e-01</leafValues></_>
        <_>
          <internalNodes>
            0 -1 320 2.7740953373722732e-04</internalNodes>
          <leafValues>
            -2.1767817437648773e-01 3.4585437178611755e-01</leafValues></_>
        <_>
          <internalNodes>
            0 -1 280 8.5550027506542392e-06</internalNodes>
          <leafValues>
            1.7353782057762146e-01 -4.6245369315147400e-01</leafValues></_>
        <_>
          <internalNodes>
            0 -1 101 -8.6903019109740853e-06</internalNodes>
          <leafValues>
            -3.9572280645370483e-01 2.0817846059799194e-01</leafValues></_>
        <_>
          <internalNodes>
            0 -1 329 -2.3851220612414181e-04</internalNodes>
          <leafValues>
            3.3676204085350037e-01 -2.3775881528854370e-01</leafValues></_>
        <_>
          <internalNodes>
            0 -1 186 1.7961878329515457e-02</internalNodes>
          <leafValues>
            2.2937969863414764e-01 -3.7493026256561279e-01</leafValues></_>
        <_>
          <internalNodes>
            0 -1 307 -6.6685533965937793e-05</internalNodes>
          <leafValues>
            3.3686742186546326e-01 -2.5246983766555786e-01</leafValues></_>
        <_>
          <internalNodes>
            0 -1 293 8.9704291895031929e-04</internalNodes>
          <leafValues>
            -2.3454757034778595e-01 3.5306960344314575e-01</leafValues></_>
        <_>
          <internalNodes>
            0 -1 188 1.8025572644546628e-03</internalNodes>
          <leafValues>
            -1.0986969619989395e-01 6.9056886434555054e-01</leafValues></_>
        <_>
          <internalNodes>
            0 -1 163 7.6424836879596114e-04</internalNodes>
          <leafValues>
            -2.4899680912494659e-01 3.2089141011238098e-01</leafValues></_>
        <_>
          <internalNodes>
            0 -1 89 4.2364280670881271e-02</internalNodes>
          <leafValues>
            1.0868985950946808e-01 -6.4829707145690918e-01</leafValues></_>
        <_>
          <internalNodes>
            0 -1 115 2.6305073499679565e-01</internalNodes>
          <leafValues>
            8.5752911865711212e-02 -8.4043884277343750e-01</leafValues></_>
        <_>
          <internalNodes>
            0 -1 314 -8.3888784050941467e-02</internalNodes>
          <leafValues>
            -7.8460252285003662e-01 7.9139269888401031e-02</leafValues></_>
        <_>
          <internalNodes>
            0 -1 65 -4.4239731505513191e-03</internalNodes>
          <leafValues>
            2.4780298769474030e-01 -2.8350543975830078e-01</leafValues></_>
        <_>
          <internalNodes>
            0 -1 96 1.9260629414930008e-05</internalNodes>
          <leafValues>
            1.3268163800239563e-01 -5.2348250150680542e-01</leafValues></_>
        <_>
          <internalNodes>
            0 -1 31 9.2669361038133502e-05</internalNodes>
          <leafValues>
            -2.4750243127346039e-01 2.9759234189987183e-01</leafValues></_>
        <_>
          <internalNodes>
            0 -1 237 3.0450284481048584e-02</internalNodes>
          <leafValues>
            1.3880497217178345e-01 -5.0738602876663208e-01</leafValues></_></weakClassifiers></_>
    <!-- stage 19 -->
    <_>
      <maxWeakCount>19</maxWeakCount>
      <stageThreshold>-1.0432251691818237e+00</stageThreshold>
      <weakClassifiers>
        <_>
          <internalNodes>
            0 -1 313 -1.7413602108717896e-05</internalNodes>
          <leafValues>
            -4.9458482861518860e-01 3.9248305559158325e-01</leafValues></_>
        <_>
          <internalNodes>
            0 -1 33 -8.4773582784691826e-06</internalNodes>
          <leafValues>
            -5.4031944274902344e-01 2.1920010447502136e-01</leafValues></_>
        <_>
          <internalNodes>
            0 -1 286 1.6090276767499745e-04</internalNodes>
          <leafValues>
            -2.9714730381965637e-01 3.5765072703361511e-01</leafValues></_>
        <_>
          <internalNodes>
            0 -1 23 5.8737352490425110e-02</internalNodes>
          <leafValues>
            1.5598258376121521e-01 -6.7946302890777588e-01</leafValues></_>
        <_>
          <internalNodes>
            0 -1 13 2.7979532023891807e-04</internalNodes>
          <leafValues>
            -3.1640970706939697e-01 3.6850723624229431e-01</leafValues></_>
        <_>
          <internalNodes>
            0 -1 83 -5.6095246691256762e-05</internalNodes>
          <leafValues>
            1.9075141847133636e-01 -5.1851314306259155e-01</leafValues></_>
        <_>
          <internalNodes>
            0 -1 220 -2.3828370496630669e-02</internalNodes>
          <leafValues>
            -7.0950424671173096e-01 1.3339231908321381e-01</leafValues></_>
        <_>
          <internalNodes>
            0 -1 204 2.3652976378798485e-03</internalNodes>
          <leafValues>
            -1.5374644100666046e-01 6.9538277387619019e-01</leafValues></_>
        <_>
          <internalNodes>
            0 -1 16 -5.6482304353266954e-04</internalNodes>
          <leafValues>
            6.0629487037658691e-01 -1.5239299833774567e-01</leafValues></_>
        <_>
          <internalNodes>
            0 -1 192 1.7871938325697556e-05</internalNodes>
          <leafValues>
            2.1935507655143738e-01 -5.0151675939559937e-01</leafValues></_>
        <_>
          <internalNodes>
            0 -1 151 4.6039835433475673e-04</internalNodes>
          <leafValues>
            -2.2475007176399231e-01 4.4012770056724548e-01</leafValues></_>
        <_>
          <internalNodes>
            0 -1 51 3.0926166800782084e-04</internalNodes>
          <leafValues>
            -4.4088080525398254e-01 2.5008526444435120e-01</leafValues></_>
        <_>
          <internalNodes>
            0 -1 158 1.7081936675822362e-05</internalNodes>
          <leafValues>
            2.6272302865982056e-01 -4.3185049295425415e-01</leafValues></_>
        <_>
          <internalNodes>
            0 -1 310 3.3971574157476425e-04</internalNodes>
          <leafValues>
            -2.5341445207595825e-01 4.2002201080322266e-01</leafValues></_>
        <_>
          <internalNodes>
            0 -1 104 1.6320421127602458e-04</internalNodes>
          <leafValues>
            -1.2785325944423676e-01 6.6416037082672119e-01</leafValues></_>
        <_>
          <internalNodes>
            0 -1 300 6.3600222347304225e-04</internalNodes>
          <leafValues>
            -1.9405028223991394e-01 4.5094716548919678e-01</leafValues></_>
        <_>
          <internalNodes>
            0 -1 131 1.4732984825968742e-02</internalNodes>
          <leafValues>
            -1.0936551541090012e-01 8.3406078815460205e-01</leafValues></_>
        <_>
          <internalNodes>
            0 -1 133 1.5861431602388620e-03</internalNodes>
          <leafValues>
            -2.7478373050689697e-01 3.5910770297050476e-01</leafValues></_>
        <_>
          <internalNodes>
            0 -1 242 -9.7285151481628418e-02</internalNodes>
          <leafValues>
            -7.1876895427703857e-01 1.3284341990947723e-01</leafValues></_></weakClassifiers></_></stages>
  <features>
    <_>
      <rects>
        <_>
          0 0 1 22 -1.</_>
        <_>
          0 11 1 11 2.</_></rects>
      <tilted>0</tilted></_>
    <_>
      <rects>
        <_>
          0 0 6 14 -1.</_>
        <_>
          0 7 6 7 2.</_></rects>
      <tilted>0</tilted></_>
    <_>
      <rects>
        <_>
          0 1 3 12 -1.</_>
        <_>
          0 7 3 6 2.</_></rects>
      <tilted>0</tilted></_>
    <_>
      <rects>
        <_>
          0 1 4 10 -1.</_>
        <_>
          0 6 4 5 2.</_></rects>
      <tilted>0</tilted></_>
    <_>
      <rects>
        <_>
          0 1 4 12 -1.</_>
        <_>
          0 7 4 6 2.</_></rects>
      <tilted>0</tilted></_>
    <_>
      <rects>
        <_>
          0 1 5 12 -1.</_>
        <_>
          0 7 5 6 2.</_></rects>
      <tilted>0</tilted></_>
    <_>
      <rects>
        <_>
          0 2 6 9 -1.</_>
        <_>
          2 5 2 3 9.</_></rects>
      <tilted>0</tilted></_>
    <_>
      <rects>
        <_>
          0 2 3 12 -1.</_>
        <_>
          0 5 3 6 2.</_></rects>
      <tilted>0</tilted></_>
    <_>
      <rects>
        <_>
          0 2 5 10 -1.</_>
        <_>
          0 7 5 5 2.</_></rects>
      <tilted>0</tilted></_>
    <_>
      <rects>
        <_>
          0 3 3 9 -1.</_>
        <_>
          1 6 1 3 9.</_></rects>
      <tilted>0</tilted></_>
    <_>
      <rects>
        <_>
          0 4 1 2 -1.</_>
        <_>
          0 5 1 1 2.</_></rects>
      <tilted>0</tilted></_>
    <_>
      <rects>
        <_>
          0 4 9 9 -1.</_>
        <_>
          3 4 3 9 3.</_></rects>
      <tilted>0</tilted></_>
    <_>
      <rects>
        <_>
          0 4 24 9 -1.</_>
        <_>
          8 7 8 3 9.</_></rects>
      <tilted>0</tilted></_>
    <_>
      <rects>
        <_>
          0 5 6 6 -1.</_>
        <_>
          2 7 2 2 9.</_></rects>
      <tilted>0</tilted></_>
    <_>
      <rects>
        <_>
          0 5 9 6 -1.</_>
        <_>
          3 7 3 2 9.</_></rects>
      <tilted>0</tilted></_>
    <_>
      <rects>
        <_>
          0 7 1 9 -1.</_>
        <_>
          0 10 1 3 3.</_></rects>
      <tilted>0</tilted></_>
    <_>
      <rects>
        <_>
          0 7 2 16 -1.</_>
        <_>
          1 7 1 16 2.</_></rects>
      <tilted>0</tilted></_>
    <_>
      <rects>
        <_>
          0 7 6 6 -1.</_>
        <_>
          2 9 2 2 9.</_></rects>
      <tilted>0</tilted></_>
    <_>
      <rects>
        <_>
          0 7 6 4 -1.</_>
        <_>
          0 8 6 2 2.</_></rects>
      <tilted>0</tilted></_>
    <_>
      <rects>
        <_>
          0 7 20 10 -1.</_>
        <_>
          10 7 10 10 2.</_></rects>
      <tilted>0</tilted></_>
    <_>
      <rects>
        <_>
          0 8 1 16 -1.</_>
        <_>
          0 16 1 8 2.</_></rects>
      <tilted>0</tilted></_>
    <_>
      <rects>
        <_>
          0 9 3 9 -1.</_>
        <_>
          1 9 1 9 3.</_></rects>
      <tilted>0</tilted></_>
    <_>
      <rects>
        <_>
          0 10 4 9 -1.</_>
        <_>
          1 10 2 9 2.</_></rects>
      <tilted>0</tilted></_>
    <_>
      <rects>
        <_>
          0 10 9 6 -1.</_>
        <_>
          3 12 3 2 9.</_></rects>
      <tilted>0</tilted></_>
    <_>
      <rects>
        <_>
          0 11 3 6 -1.</_>
        <_>
          1 13 1 2 9.</_></rects>
      <tilted>0</tilted></_>
    <_>
      <rects>
        <_>
          0 11 2 6 -1.</_>
        <_>
          0 11 1 3 2.</_>
        <_>
          1 14 1 3 2.</_></rects>
      <tilted>0</tilted></_>
    <_>
      <rects>
        <_>
          0 11 2 8 -1.</_>
        <_>
          0 13 2 4 2.</_></rects>
      <tilted>0</tilted></_>
    <_>
      <rects>
        <_>
          0 11 3 10 -1.</_>
        <_>
          0 16 3 5 2.</_></rects>
      <tilted>0</tilted></_>
    <_>
      <rects>
        <_>
          0 13 6 6 -1.</_>
        <_>
          2 15 2 2 9.</_></rects>
      <tilted>0</tilted></_>
    <_>
      <rects>
        <_>
          0 13 24 3 -1.</_>
        <_>
          8 14 8 1 9.</_></rects>
      <tilted>0</tilted></_>
    <_>
      <rects>
        <_>
          0 14 6 6 -1.</_>
        <_>
          2 16 2 2 9.</_></rects>
      <tilted>0</tilted></_>
    <_>
      <rects>
        <_>
          0 14 6 4 -1.</_>
        <_>
          2 14 2 4 3.</_></rects>
      <tilted>0</tilted></_>
    <_>
      <rects>
        <_>
          0 17 1 4 -1.</_>
        <_>
          0 19 1 2 2.</_></rects>
      <tilted>0</tilted></_>
    <_>
      <rects>
        <_>
          0 22 6 2 -1.</_>
        <_>
          0 23 6 1 2.</_></rects>
      <tilted>0</tilted></_>
    <_>
      <rects>
        <_>
          1 0 3 15 -1.</_>
        <_>
          2 5 1 5 9.</_></rects>
      <tilted>0</tilted></_>
    <_>
      <rects>
        <_>
          1 0 14 1 -1.</_>
        <_>
          1 0 7 1 2.</_></rects>
      <tilted>1</tilted></_>
    <_>
      <rects>
        <_>
          1 7 8 9 -1.</_>
        <_>
          5 7 4 9 2.</_></rects>
      <tilted>0</tilted></_>
    <_>
      <rects>
        <_>
          1 8 23 6 -1.</_>
        <_>
          1 11 23 3 2.</_></rects>
      <tilted>0</tilted></_>
    <_>
      <rects>
        <_>
          1 9 3 12 -1.</_>
        <_>
          1 12 3 6 2.</_></rects>
      <tilted>0</tilted></_>
    <_>
      <rects>
        <_>
          1 11 16 2 -1.</_>
        <_>
          9 11 8 2 2.</_></rects>
      <tilted>0</tilted></_>
    <_>
      <rects>
        <_>
          1 13 3 6 -1.</_>
        <_>
          2 15 1 2 9.</_></rects>
      <tilted>0</tilted></_>
    <_>
      <rects>
        <_>
          1 14 3 6 -1.</_>
        <_>
          1 16 3 2 3.</_></rects>
      <tilted>0</tilted></_>
    <_>
      <rects>
        <_>
          2 1 5 8 -1.</_>
        <_>
          2 5 5 4 2.</_></rects>
      <tilted>0</tilted></_>
    <_>
      <rects>
        <_>
          2 4 3 12 -1.</_>
        <_>
          2 10 3 6 2.</_></rects>
      <tilted>0</tilted></_>
    <_>
      <rects>
        <_>
          2 4 14 16 -1.</_>
        <_>
          9 4 7 16 2.</_></rects>
      <tilted>0</tilted></_>
    <_>
      <rects>
        <_>
          2 6 9 1 -1.</_>
        <_>
          5 9 3 1 3.</_></rects>
      <tilted>1</tilted></_>
    <_>
      <rects>
        <_>
          2 6 20 12 -1.</_>
        <_>
          2 12 20 6 2.</_></rects>
      <tilted>0</tilted></_>
    <_>
      <rects>
        <_>
          2 7 8 1 -1.</_>
        <_>
          2 7 4 1 2.</_></rects>
      <tilted>1</tilted></_>
    <_>
      <rects>
        <_>
          2 8 9 9 -1.</_>
        <_>
          5 11 3 3 9.</_></rects>
      <tilted>0</tilted></_>
    <_>
      <rects>
        <_>
          2 8 22 6 -1.</_>
        <_>
          2 11 22 3 2.</_></rects>
      <tilted>0</tilted></_>
    <_>
      <rects>
        <_>
          2 9 2 1 -1.</_>
        <_>
          3 9 1 1 2.</_></rects>
      <tilted>0</tilted></_>
    <_>
      <rects>
        <_>
          2 9 9 5 -1.</_>
        <_>
          5 9 3 5 3.</_></rects>
      <tilted>0</tilted></_>
    <_>
      <rects>
        <_>
          2 10 12 3 -1.</_>
        <_>
          8 10 6 3 2.</_></rects>
      <tilted>0</tilted></_>
    <_>
      <rects>
        <_>
          2 11 14 3 -1.</_>
        <_>
          9 11 7 3 2.</_></rects>
      <tilted>0</tilted></_>
    <_>
      <rects>
        <_>
          2 13 15 3 -1.</_>
        <_>
          7 14 5 1 9.</_></rects>
      <tilted>0</tilted></_>
    <_>
      <rects>
        <_>
          2 16 3 1 -1.</_>
        <_>
          3 16 1 1 3.</_></rects>
      <tilted>0</tilted></_>
    <_>
      <rects>
        <_>
          3 0 6 9 -1.</_>
        <_>
          5 3 2 3 9.</_></rects>
      <tilted>0</tilted></_>
    <_>
      <rects>
        <_>
          3 1 15 9 -1.</_>
        <_>
          3 4 15 3 3.</_></rects>
      <tilted>0</tilted></_>
    <_>
      <rects>
        <_>
          3 1 18 20 -1.</_>
        <_>
          3 11 18 10 2.</_></rects>
      <tilted>0</tilted></_>
    <_>
      <rects>
        <_>
          3 6 3 12 -1.</_>
        <_>
          4 10 1 4 9.</_></rects>
      <tilted>0</tilted></_>
    <_>
      <rects>
        <_>
          3 8 12 3 -1.</_>
        <_>
          7 9 4 1 9.</_></rects>
      <tilted>0</tilted></_>
    <_>
      <rects>
        <_>
          3 10 8 5 -1.</_>
        <_>
          7 10 4 5 2.</_></rects>
      <tilted>0</tilted></_>
    <_>
      <rects>
        <_>
          3 11 3 1 -1.</_>
        <_>
          4 11 1 1 3.</_></rects>
      <tilted>0</tilted></_>
    <_>
      <rects>
        <_>
          3 11 16 3 -1.</_>
        <_>
          7 11 8 3 2.</_></rects>
      <tilted>0</tilted></_>
    <_>
      <rects>
        <_>
          3 11 20 2 -1.</_>
        <_>
          8 11 10 2 2.</_></rects>
      <tilted>0</tilted></_>
    <_>
      <rects>
        <_>
          3 11 20 13 -1.</_>
        <_>
          8 11 10 13 2.</_></rects>
      <tilted>0</tilted></_>
    <_>
      <rects>
        <_>
          3 12 4 1 -1.</_>
        <_>
          5 12 2 1 2.</_></rects>
      <tilted>0</tilted></_>
    <_>
      <rects>
        <_>
          3 14 3 9 -1.</_>
        <_>
          4 17 1 3 9.</_></rects>
      <tilted>0</tilted></_>
    <_>
      <rects>
        <_>
          3 15 1 2 -1.</_>
        <_>
          3 16 1 1 2.</_></rects>
      <tilted>0</tilted></_>
    <_>
      <rects>
        <_>
          3 16 9 3 -1.</_>
        <_>
          6 17 3 1 9.</_></rects>
      <tilted>0</tilted></_>
    <_>
      <rects>
        <_>
          4 1 3 10 -1.</_>
        <_>
          4 6 3 5 2.</_></rects>
      <tilted>0</tilted></_>
    <_>
      <rects>
        <_>
          4 6 9 6 -1.</_>
        <_>
          7 8 3 2 9.</_></rects>
      <tilted>0</tilted></_>
    <_>
      <rects>
        <_>
          4 6 12 3 -1.</_>
        <_>
          8 7 4 1 9.</_></rects>
      <tilted>0</tilted></_>
    <_>
      <rects>
        <_>
          4 6 10 3 -1.</_>
        <_>
          4 6 5 3 2.</_></rects>
      <tilted>1</tilted></_>
    <_>
      <rects>
        <_>
          4 7 16 10 -1.</_>
        <_>
          12 7 8 10 2.</_></rects>
      <tilted>0</tilted></_>
    <_>
      <rects>
        <_>
          4 7 13 4 -1.</_>
        <_>
          4 9 13 2 2.</_></rects>
      <tilted>0</tilted></_>
    <_>
      <rects>
        <_>
          4 7 18 10 -1.</_>
        <_>
          4 12 18 5 2.</_></rects>
      <tilted>0</tilted></_>
    <_>
      <rects>
        <_>
          4 8 2 1 -1.</_>
        <_>
          5 8 1 1 2.</_></rects>
      <tilted>0</tilted></_>
    <_>
      <rects>
        <_>
          4 9 10 4 -1.</_>
        <_>
          9 9 5 4 2.</_></rects>
      <tilted>0</tilted></_>
    <_>
      <rects>
        <_>
          4 9 10 5 -1.</_>
        <_>
          9 9 5 5 2.</_></rects>
      <tilted>0</tilted></_>
    <_>
      <rects>
        <_>
          4 10 16 3 -1.</_>
        <_>
          8 10 8 3 2.</_></rects>
      <tilted>0</tilted></_>
    <_>
      <rects>
        <_>
          4 11 3 3 -1.</_>
        <_>
          5 12 1 1 9.</_></rects>
      <tilted>0</tilted></_>
    <_>
      <rects>
        <_>
          4 11 3 2 -1.</_>
        <_>
          5 11 1 2 3.</_></rects>
      <tilted>0</tilted></_>
    <_>
      <rects>
        <_>
          4 11 10 3 -1.</_>
        <_>
          9 11 5 3 2.</_></rects>
      <tilted>0</tilted></_>
    <_>
      <rects>
        <_>
          4 11 15 7 -1.</_>
        <_>
          9 11 5 7 3.</_></rects>
      <tilted>0</tilted></_>
    <_>
      <rects>
        <_>
          4 15 12 3 -1.</_>
        <_>
          8 16 4 1 9.</_></rects>
      <tilted>0</tilted></_>
    <_>
      <rects>
        <_>
          5 1 14 5 -1.</_>
        <_>
          5 1 7 5 2.</_></rects>
      <tilted>1</tilted></_>
    <_>
      <rects>
        <_>
          5 5 12 14 -1.</_>
        <_>
          11 5 6 14 2.</_></rects>
      <tilted>0</tilted></_>
    <_>
      <rects>
        <_>
          5 5 16 14 -1.</_>
        <_>
          5 12 16 7 2.</_></rects>
      <tilted>0</tilted></_>
    <_>
      <rects>
        <_>
          5 6 10 3 -1.</_>
        <_>
          5 6 5 3 2.</_></rects>
      <tilted>1</tilted></_>
    <_>
      <rects>
        <_>
          5 8 2 1 -1.</_>
        <_>
          6 8 1 1 2.</_></rects>
      <tilted>0</tilted></_>
    <_>
      <rects>
        <_>
          5 8 9 9 -1.</_>
        <_>
          8 8 3 9 3.</_></rects>
      <tilted>0</tilted></_>
    <_>
      <rects>
        <_>
          5 10 3 1 -1.</_>
        <_>
          6 11 1 1 3.</_></rects>
      <tilted>1</tilted></_>
    <_>
      <rects>
        <_>
          5 10 2 2 -1.</_>
        <_>
          6 10 1 2 2.</_></rects>
      <tilted>0</tilted></_>
    <_>
      <rects>
        <_>
          5 10 16 4 -1.</_>
        <_>
          9 10 8 4 2.</_></rects>
      <tilted>0</tilted></_>
    <_>
      <rects>
        <_>
          5 11 2 1 -1.</_>
        <_>
          6 11 1 1 2.</_></rects>
      <tilted>0</tilted></_>
    <_>
      <rects>
        <_>
          5 11 3 1 -1.</_>
        <_>
          6 11 1 1 3.</_></rects>
      <tilted>0</tilted></_>
    <_>
      <rects>
        <_>
          5 11 3 3 -1.</_>
        <_>
          6 12 1 1 9.</_></rects>
      <tilted>0</tilted></_>
    <_>
      <rects>
        <_>
          5 12 12 3 -1.</_>
        <_>
          9 13 4 1 9.</_></rects>
      <tilted>0</tilted></_>
    <_>
      <rects>
        <_>
          5 12 8 3 -1.</_>
        <_>
          9 12 4 3 2.</_></rects>
      <tilted>0</tilted></_>
    <_>
      <rects>
        <_>
          5 13 6 3 -1.</_>
        <_>
          7 14 2 1 9.</_></rects>
      <tilted>0</tilted></_>
    <_>
      <rects>
        <_>
          5 18 6 3 -1.</_>
        <_>
          7 19 2 1 9.</_></rects>
      <tilted>0</tilted></_>
    <_>
      <rects>
        <_>
          6 0 14 5 -1.</_>
        <_>
          6 0 7 5 2.</_></rects>
      <tilted>1</tilted></_>
    <_>
      <rects>
        <_>
          6 1 4 8 -1.</_>
        <_>
          6 5 4 4 2.</_></rects>
      <tilted>0</tilted></_>
    <_>
      <rects>
        <_>
          6 2 2 3 -1.</_>
        <_>
          5 3 2 1 3.</_></rects>
      <tilted>1</tilted></_>
    <_>
      <rects>
        <_>
          6 6 18 11 -1.</_>
        <_>
          15 6 9 11 2.</_></rects>
      <tilted>0</tilted></_>
    <_>
      <rects>
        <_>
          6 8 2 4 -1.</_>
        <_>
          6 9 2 2 2.</_></rects>
      <tilted>0</tilted></_>
    <_>
      <rects>
        <_>
          6 9 2 1 -1.</_>
        <_>
          7 9 1 1 2.</_></rects>
      <tilted>0</tilted></_>
    <_>
      <rects>
        <_>
          6 9 1 4 -1.</_>
        <_>
          6 10 1 2 2.</_></rects>
      <tilted>0</tilted></_>
    <_>
      <rects>
        <_>
          6 9 9 3 -1.</_>
        <_>
          9 12 3 3 3.</_></rects>
      <tilted>1</tilted></_>
    <_>
      <rects>
        <_>
          6 9 11 6 -1.</_>
        <_>
          6 12 11 3 2.</_></rects>
      <tilted>0</tilted></_>
    <_>
      <rects>
        <_>
          6 11 2 1 -1.</_>
        <_>
          6 11 1 1 2.</_></rects>
      <tilted>1</tilted></_>
    <_>
      <rects>
        <_>
          6 12 1 3 -1.</_>
        <_>
          6 13 1 1 3.</_></rects>
      <tilted>0</tilted></_>
    <_>
      <rects>
        <_>
          6 13 16 2 -1.</_>
        <_>
          14 13 8 2 2.</_></rects>
      <tilted>0</tilted></_>
    <_>
      <rects>
        <_>
          6 17 8 2 -1.</_>
        <_>
          6 17 4 1 2.</_>
        <_>
          10 18 4 1 2.</_></rects>
      <tilted>0</tilted></_>
    <_>
      <rects>
        <_>
          7 6 9 18 -1.</_>
        <_>
          10 12 3 6 9.</_></rects>
      <tilted>0</tilted></_>
    <_>
      <rects>
        <_>
          7 7 8 6 -1.</_>
        <_>
          7 7 4 6 2.</_></rects>
      <tilted>1</tilted></_>
    <_>
      <rects>
        <_>
          7 8 10 7 -1.</_>
        <_>
          12 8 5 7 2.</_></rects>
      <tilted>0</tilted></_>
    <_>
      <rects>
        <_>
          7 9 6 2 -1.</_>
        <_>
          7 9 3 2 2.</_></rects>
      <tilted>1</tilted></_>
    <_>
      <rects>
        <_>
          7 9 6 3 -1.</_>
        <_>
          7 10 6 1 3.</_></rects>
      <tilted>0</tilted></_>
    <_>
      <rects>
        <_>
          7 10 8 9 -1.</_>
        <_>
          7 13 8 3 3.</_></rects>
      <tilted>0</tilted></_>
    <_>
      <rects>
        <_>
          7 10 9 6 -1.</_>
        <_>
          7 13 9 3 2.</_></rects>
      <tilted>0</tilted></_>
    <_>
      <rects>
        <_>
          7 10 10 6 -1.</_>
        <_>
          7 13 10 3 2.</_></rects>
      <tilted>0</tilted></_>
    <_>
      <rects>
        <_>
          7 12 14 4 -1.</_>
        <_>
          7 14 14 2 2.</_></rects>
      <tilted>0</tilted></_>
    <_>
      <rects>
        <_>
          7 13 3 1 -1.</_>
        <_>
          8 13 1 1 3.</_></rects>
      <tilted>0</tilted></_>
    <_>
      <rects>
        <_>
          7 13 9 3 -1.</_>
        <_>
          10 14 3 1 9.</_></rects>
      <tilted>0</tilted></_>
    <_>
      <rects>
        <_>
          7 14 4 1 -1.</_>
        <_>
          9 14 2 1 2.</_></rects>
      <tilted>0</tilted></_>
    <_>
      <rects>
        <_>
          7 14 8 6 -1.</_>
        <_>
          9 14 4 6 2.</_></rects>
      <tilted>0</tilted></_>
    <_>
      <rects>
        <_>
          7 14 3 6 -1.</_>
        <_>
          7 14 3 3 2.</_></rects>
      <tilted>1</tilted></_>
    <_>
      <rects>
        <_>
          7 15 16 7 -1.</_>
        <_>
          15 15 8 7 2.</_></rects>
      <tilted>0</tilted></_>
    <_>
      <rects>
        <_>
          8 1 2 2 -1.</_>
        <_>
          8 2 2 1 2.</_></rects>
      <tilted>0</tilted></_>
    <_>
      <rects>
        <_>
          8 5 8 3 -1.</_>
        <_>
          7 6 8 1 3.</_></rects>
      <tilted>1</tilted></_>
    <_>
      <rects>
        <_>
          8 6 12 3 -1.</_>
        <_>
          12 7 4 1 9.</_></rects>
      <tilted>0</tilted></_>
    <_>
      <rects>
        <_>
          8 7 12 3 -1.</_>
        <_>
          12 8 4 1 9.</_></rects>
      <tilted>0</tilted></_>
    <_>
      <rects>
        <_>
          8 8 3 6 -1.</_>
        <_>
          9 10 1 2 9.</_></rects>
      <tilted>0</tilted></_>
    <_>
      <rects>
        <_>
          8 10 6 3 -1.</_>
        <_>
          7 11 6 1 3.</_></rects>
      <tilted>1</tilted></_>
    <_>
      <rects>
        <_>
          8 10 8 6 -1.</_>
        <_>
          8 13 8 3 2.</_></rects>
      <tilted>0</tilted></_>
    <_>
      <rects>
        <_>
          8 10 9 6 -1.</_>
        <_>
          8 13 9 3 2.</_></rects>
      <tilted>0</tilted></_>
    <_>
      <rects>
        <_>
          8 11 3 3 -1.</_>
        <_>
          9 12 1 1 9.</_></rects>
      <tilted>0</tilted></_>
    <_>
      <rects>
        <_>
          8 11 12 1 -1.</_>
        <_>
          12 11 4 1 3.</_></rects>
      <tilted>0</tilted></_>
    <_>
      <rects>
        <_>
          8 11 12 2 -1.</_>
        <_>
          14 11 6 2 2.</_></rects>
      <tilted>0</tilted></_>
    <_>
      <rects>
        <_>
          8 12 3 3 -1.</_>
        <_>
          9 13 1 1 9.</_></rects>
      <tilted>0</tilted></_>
    <_>
      <rects>
        <_>
          8 12 6 6 -1.</_>
        <_>
          10 14 2 2 9.</_></rects>
      <tilted>0</tilted></_>
    <_>
      <rects>
        <_>
          8 13 2 2 -1.</_>
        <_>
          8 14 2 1 2.</_></rects>
      <tilted>0</tilted></_>
    <_>
      <rects>
        <_>
          8 14 3 1 -1.</_>
        <_>
          9 14 1 1 3.</_></rects>
      <tilted>0</tilted></_>
    <_>
      <rects>
        <_>
          8 14 4 1 -1.</_>
        <_>
          9 14 2 1 2.</_></rects>
      <tilted>0</tilted></_>
    <_>
      <rects>
        <_>
          8 14 2 8 -1.</_>
        <_>
          8 18 2 4 2.</_></rects>
      <tilted>0</tilted></_>
    <_>
      <rects>
        <_>
          8 15 3 3 -1.</_>
        <_>
          9 16 1 1 9.</_></rects>
      <tilted>0</tilted></_>
    <_>
      <rects>
        <_>
          8 16 6 3 -1.</_>
        <_>
          10 17 2 1 9.</_></rects>
      <tilted>0</tilted></_>
    <_>
      <rects>
        <_>
          8 16 5 6 -1.</_>
        <_>
          8 19 5 3 2.</_></rects>
      <tilted>0</tilted></_>
    <_>
      <rects>
        <_>
          8 16 5 8 -1.</_>
        <_>
          8 20 5 4 2.</_></rects>
      <tilted>0</tilted></_>
    <_>
      <rects>
        <_>
          9 0 5 3 -1.</_>
        <_>
          8 1 5 1 3.</_></rects>
      <tilted>1</tilted></_>
    <_>
      <rects>
        <_>
          9 1 5 8 -1.</_>
        <_>
          9 5 5 4 2.</_></rects>
      <tilted>0</tilted></_>
    <_>
      <rects>
        <_>
          9 1 6 21 -1.</_>
        <_>
          9 8 6 7 3.</_></rects>
      <tilted>0</tilted></_>
    <_>
      <rects>
        <_>
          9 6 3 6 -1.</_>
        <_>
          10 8 1 2 9.</_></rects>
      <tilted>0</tilted></_>
    <_>
      <rects>
        <_>
          9 7 8 2 -1.</_>
        <_>
          11 9 4 2 2.</_></rects>
      <tilted>1</tilted></_>
    <_>
      <rects>
        <_>
          9 9 2 2 -1.</_>
        <_>
          9 9 1 1 2.</_>
        <_>
          10 10 1 1 2.</_></rects>
      <tilted>0</tilted></_>
    <_>
      <rects>
        <_>
          9 9 3 3 -1.</_>
        <_>
          10 10 1 1 9.</_></rects>
      <tilted>0</tilted></_>
    <_>
      <rects>
        <_>
          9 9 1 4 -1.</_>
        <_>
          8 10 1 2 2.</_></rects>
      <tilted>1</tilted></_>
    <_>
      <rects>
        <_>
          9 9 3 3 -1.</_>
        <_>
          9 10 3 1 3.</_></rects>
      <tilted>0</tilted></_>
    <_>
      <rects>
        <_>
          9 9 5 3 -1.</_>
        <_>
          9 10 5 1 3.</_></rects>
      <tilted>0</tilted></_>
    <_>
      <rects>
        <_>
          9 10 1 3 -1.</_>
        <_>
          9 11 1 1 3.</_></rects>
      <tilted>0</tilted></_>
    <_>
      <rects>
        <_>
          9 10 2 3 -1.</_>
        <_>
          9 11 2 1 3.</_></rects>
      <tilted>0</tilted></_>
    <_>
      <rects>
        <_>
          9 10 6 3 -1.</_>
        <_>
          11 11 2 1 9.</_></rects>
      <tilted>0</tilted></_>
    <_>
      <rects>
        <_>
          9 10 3 3 -1.</_>
        <_>
          9 11 3 1 3.</_></rects>
      <tilted>0</tilted></_>
    <_>
      <rects>
        <_>
          9 11 3 3 -1.</_>
        <_>
          10 12 1 1 9.</_></rects>
      <tilted>0</tilted></_>
    <_>
      <rects>
        <_>
          9 13 3 3 -1.</_>
        <_>
          10 14 1 1 9.</_></rects>
      <tilted>0</tilted></_>
    <_>
      <rects>
        <_>
          9 14 4 1 -1.</_>
        <_>
          10 14 2 1 2.</_></rects>
      <tilted>0</tilted></_>
    <_>
      <rects>
        <_>
          9 15 6 3 -1.</_>
        <_>
          9 16 6 1 3.</_></rects>
      <tilted>0</tilted></_>
    <_>
      <rects>
        <_>
          9 15 14 4 -1.</_>
        <_>
          9 16 14 2 2.</_></rects>
      <tilted>0</tilted></_>
    <_>
      <rects>
        <_>
          9 16 6 6 -1.</_>
        <_>
          9 19 6 3 2.</_></rects>
      <tilted>0</tilted></_>
    <_>
      <rects>
        <_>
          9 22 15 2 -1.</_>
        <_>
          9 23 15 1 2.</_></rects>
      <tilted>0</tilted></_>
    <_>
      <rects>
        <_>
          10 1 12 10 -1.</_>
        <_>
          10 1 6 10 2.</_></rects>
      <tilted>1</tilted></_>
    <_>
      <rects>
        <_>
          10 5 3 6 -1.</_>
        <_>
          11 7 1 2 9.</_></rects>
      <tilted>0</tilted></_>
    <_>
      <rects>
        <_>
          10 6 5 3 -1.</_>
        <_>
          10 7 5 1 3.</_></rects>
      <tilted>0</tilted></_>
    <_>
      <rects>
        <_>
          10 7 2 4 -1.</_>
        <_>
          10 7 1 2 2.</_>
        <_>
          11 9 1 2 2.</_></rects>
      <tilted>0</tilted></_>
    <_>
      <rects>
        <_>
          10 7 9 8 -1.</_>
        <_>
          13 7 3 8 3.</_></rects>
      <tilted>0</tilted></_>
    <_>
      <rects>
        <_>
          10 8 3 3 -1.</_>
        <_>
          11 9 1 1 9.</_></rects>
      <tilted>0</tilted></_>
    <_>
      <rects>
        <_>
          10 8 9 3 -1.</_>
        <_>
          13 9 3 1 9.</_></rects>
      <tilted>0</tilted></_>
    <_>
      <rects>
        <_>
          10 8 12 3 -1.</_>
        <_>
          14 9 4 1 9.</_></rects>
      <tilted>0</tilted></_>
    <_>
      <rects>
        <_>
          10 8 7 3 -1.</_>
        <_>
          10 9 7 1 3.</_></rects>
      <tilted>0</tilted></_>
    <_>
      <rects>
        <_>
          10 9 3 3 -1.</_>
        <_>
          11 10 1 1 9.</_></rects>
      <tilted>0</tilted></_>
    <_>
      <rects>
        <_>
          10 9 12 1 -1.</_>
        <_>
          14 13 4 1 3.</_></rects>
      <tilted>1</tilted></_>
    <_>
      <rects>
        <_>
          10 9 12 4 -1.</_>
        <_>
          16 9 6 4 2.</_></rects>
      <tilted>0</tilted></_>
    <_>
      <rects>
        <_>
          10 10 2 2 -1.</_>
        <_>
          10 10 1 1 2.</_>
        <_>
          11 11 1 1 2.</_></rects>
      <tilted>0</tilted></_>
    <_>
      <rects>
        <_>
          10 10 9 8 -1.</_>
        <_>
          13 10 3 8 3.</_></rects>
      <tilted>0</tilted></_>
    <_>
      <rects>
        <_>
          10 10 12 1 -1.</_>
        <_>
          14 14 4 1 3.</_></rects>
      <tilted>1</tilted></_>
    <_>
      <rects>
        <_>
          10 10 12 3 -1.</_>
        <_>
