<?xml version="1.0"?>
<opencv_storage>
<cascade>
  <stageType>BOOST</stageType>
  <featureType>HAAR</featureType>
  <height>24</height>
  <width>24</width>
  <stageParams>
    <boostType>GAB</boostType>
    <minHitRate>9.9900001287460327e-01</minHitRate>
    <maxFalseAlarm>5.0000000000000000e-01</maxFalseAlarm>
    <weightTrimRate>9.4999999999999996e-01</weightTrimRate>
    <maxDepth>1</maxDepth>
    <maxWeakCount>100</maxWeakCount></stageParams>
  <featureParams>
    <maxCatCount>0</maxCatCount>
    <featSize>1</featSize>
    <mode>ALL</mode></featureParams>
  <stageNum>20</stageNum>
  <stages>
    <!-- stage 0 -->
    <_>
      <maxWeakCount>7</maxWeakCount>
      <stageThreshold>-1.0125041007995605e+00</stageThreshold>
      <weakClassifiers>
        <_>
          <internalNodes>
            0 -1 113 -4.2927917093038559e-04</internalNodes>
          <leafValues>
            7.7038794755935669e-01 -7.4254316091537476e-01</leafValues></_>
        <_>
          <internalNodes>
            0 -1 223 3.7134080776013434e-04</internalNodes>
          <leafValues>
            -4.6275374293327332e-01 5.7945537567138672e-01</leafValues></_>
        <_>
          <internalNodes>
            0 -1 273 2.3441191297024488e-03</internalNodes>
          <leafValues>
            -2.5008201599121094e-01 7.2274506092071533e-01</leafValues></_>
        <_>
          <internalNodes>
            0 -1 244 2.4915686808526516e-03</internalNodes>
          <leafValues>
            -1.9324028491973877e-01 8.7630993127822876e-01</leafValues></_>
        <_>
          <internalNodes>
            0 -1 346 5.7014678604900837e-03</internalNodes>
          <leafValues>
            -2.1379339694976807e-01 8.7175089120864868e-01</leafValues></_>
        <_>
          <internalNodes>
            0 -1 17 -1.5184000134468079e-01</internalNodes>
          <leafValues>
            -8.9714437723159790e-01 2.6687929034233093e-01</leafValues></_>
        <_>
          <internalNodes>
            0 -1 270 1.0266769677400589e-03</internalNodes>
          <leafValues>
            -3.7658107280731201e-01 5.8302921056747437e-01</leafValues></_></weakClassifiers></_>
    <!-- stage 1 -->
    <_>
      <maxWeakCount>8</maxWeakCount>
      <stageThreshold>-1.2604261636734009e+00</stageThreshold>
      <weakClassifiers>
        <_>
          <internalNodes>
            0 -1 109 -9.3857978936284781e-04</internalNodes>
          <leafValues>
            7.2430276870727539e-01 -6.3410854339599609e-01</leafValues></_>
        <_>
          <internalNodes>
            0 -1 344 1.1624133912846446e-03</internalNodes>
          <leafValues>
            -5.2003651857376099e-01 4.4613757729530334e-01</leafValues></_>
        <_>
          <internalNodes>
            0 -1 272 4.2182039469480515e-03</internalNodes>
          <leafValues>
            -2.4595269560813904e-01 7.2471702098846436e-01</leafValues></_>
        <_>
          <internalNodes>
            0 -1 197 5.8825016021728516e-03</internalNodes>
          <leafValues>
            -3.1776556372642517e-01 5.3902643918991089e-01</leafValues></_>
        <_>
          <internalNodes>
            0 -1 363 -1.4015457034111023e-01</internalNodes>
          <leafValues>
            -9.1021984815597534e-01 1.9770571589469910e-01</leafValues></_>
        <_>
          <internalNodes>
            0 -1 164 -1.2055106461048126e-01</internalNodes>
          <leafValues>
            -6.7209142446517944e-01 2.4431206285953522e-01</leafValues></_>
        <_>
          <internalNodes>
            0 -1 282 3.3752901945263147e-03</internalNodes>
          <leafValues>
            -2.6856702566146851e-01 6.0652095079421997e-01</leafValues></_>
        <_>
          <internalNodes>
            0 -1 456 4.5124883763492107e-04</internalNodes>
          <leafValues>
            -4.0502399206161499e-01 4.2124220728874207e-01</leafValues></_></weakClassifiers></_>
    <!-- stage 2 -->
    <_>
      <maxWeakCount>11</maxWeakCount>
      <stageThreshold>-1.3344125747680664e+00</stageThreshold>
      <weakClassifiers>
        <_>
          <internalNodes>
            0 -1 339 -8.5465860320255160e-04</internalNodes>
          <leafValues>
            6.1616164445877075e-01 -4.7797715663909912e-01</leafValues></_>
        <_>
          <internalNodes>
            0 -1 277 7.0562877226620913e-04</internalNodes>
          <leafValues>
            -6.5136104822158813e-01 3.7340208888053894e-01</leafValues></_>
        <_>
          <internalNodes>
            0 -1 117 -8.6056779764476232e-06</internalNodes>
          <leafValues>
            -7.9561722278594971e-01 2.2077955305576324e-01</leafValues></_>
        <_>
          <internalNodes>
            0 -1 189 9.5988929271697998e-02</internalNodes>
          <leafValues>
            1.7935851216316223e-01 -8.2328528165817261e-01</leafValues></_>
        <_>
          <internalNodes>
            0 -1 218 1.6774839605204761e-04</internalNodes>
          <leafValues>
            -5.1807671785354614e-01 3.1823906302452087e-01</leafValues></_>
        <_>
          <internalNodes>
            0 -1 371 -8.2870010373881087e-06</internalNodes>
          <leafValues>
            -5.9645932912826538e-01 2.6415139436721802e-01</leafValues></_>
        <_>
          <internalNodes>
            0 -1 237 9.4193854602053761e-04</internalNodes>
          <leafValues>
            -4.0600007772445679e-01 4.0032020211219788e-01</leafValues></_>
        <_>
          <internalNodes>
            0 -1 262 -6.4320524688810110e-04</internalNodes>
          <leafValues>
            3.5717391967773438e-01 -4.5533069968223572e-01</leafValues></_>
        <_>
          <internalNodes>
            0 -1 182 1.3001976907253265e-01</internalNodes>
          <leafValues>
            2.2170138359069824e-01 -8.7519192695617676e-01</leafValues></_>
        <_>
          <internalNodes>
            0 -1 376 3.5133298952132463e-03</internalNodes>
          <leafValues>
            -2.8515848517417908e-01 6.3635653257369995e-01</leafValues></_>
        <_>
          <internalNodes>
            0 -1 283 2.8259400278329849e-03</internalNodes>
          <leafValues>
            -1.8471333384513855e-01 8.0472004413604736e-01</leafValues></_></weakClassifiers></_>
    <!-- stage 3 -->
    <_>
      <maxWeakCount>9</maxWeakCount>
      <stageThreshold>-1.2620995044708252e+00</stageThreshold>
      <weakClassifiers>
        <_>
          <internalNodes>
            0 -1 90 -3.2784079667180777e-03</internalNodes>
          <leafValues>
            5.8725339174270630e-01 -4.7079038619995117e-01</leafValues></_>
        <_>
          <internalNodes>
            0 -1 471 -8.5226847659214400e-06</internalNodes>
          <leafValues>
            -7.6543521881103516e-01 2.8057247400283813e-01</leafValues></_>
        <_>
          <internalNodes>
            0 -1 402 -8.8680553744779900e-06</internalNodes>
          <leafValues>
            -7.8264862298965454e-01 2.8301426768302917e-01</leafValues></_>
        <_>
          <internalNodes>
            0 -1 319 6.8791969679296017e-03</internalNodes>
          <leafValues>
            -3.0604854226112366e-01 8.1159573793411255e-01</leafValues></_>
        <_>
          <internalNodes>
            0 -1 464 9.6261449158191681e-02</internalNodes>
          <leafValues>
            1.7795507609844208e-01 -8.9001470804214478e-01</leafValues></_>
        <_>
          <internalNodes>
            0 -1 396 -9.7256429493427277e-02</internalNodes>
          <leafValues>
            -7.8700590133666992e-01 1.9366347789764404e-01</leafValues></_>
        <_>
          <internalNodes>
            0 -1 216 5.2721956744790077e-03</internalNodes>
          <leafValues>
            -2.7442327141761780e-01 7.0454603433609009e-01</leafValues></_>
        <_>
          <internalNodes>
            0 -1 169 -8.4862958829035051e-06</internalNodes>
          <leafValues>
            -6.3586401939392090e-01 2.9593271017074585e-01</leafValues></_>
        <_>
          <internalNodes>
            0 -1 291 7.3532975511625409e-04</internalNodes>
          <leafValues>
            -3.8834851980209351e-01 3.6246854066848755e-01</leafValues></_></weakClassifiers></_>
    <!-- stage 4 -->
    <_>
      <maxWeakCount>13</maxWeakCount>
      <stageThreshold>-1.0293411016464233e+00</stageThreshold>
      <weakClassifiers>
        <_>
          <internalNodes>
            0 -1 319 6.4316792413592339e-03</internalNodes>
          <leafValues>
            7.7339517883956432e-04 8.2207578420639038e-01</leafValues></_>
        <_>
          <internalNodes>
            0 -1 301 -1.4157524704933167e-01</internalNodes>
          <leafValues>
            -8.7143802642822266e-01 2.1731358766555786e-01</leafValues></_>
        <_>
          <internalNodes>
            0 -1 275 7.7733108773827553e-03</internalNodes>
          <leafValues>
            -2.3035027086734772e-01 6.5714901685714722e-01</leafValues></_>
        <_>
          <internalNodes>
            0 -1 318 -1.4100668486207724e-03</internalNodes>
          <leafValues>
            7.1371656656265259e-01 -1.7753706872463226e-01</leafValues></_>
        <_>
          <internalNodes>
            0 -1 202 -3.1674627214670181e-02</internalNodes>
          <leafValues>
            -9.0291291475296021e-01 1.6351678967475891e-01</leafValues></_>
        <_>
          <internalNodes>
            0 -1 91 5.9473700821399689e-02</internalNodes>
          <leafValues>
            9.1457664966583252e-02 -7.2764801979064941e-01</leafValues></_>
        <_>
          <internalNodes>
            0 -1 398 -8.3621853264048696e-06</internalNodes>
          <leafValues>
            -6.4977759122848511e-01 2.2179269790649414e-01</leafValues></_>
        <_>
          <internalNodes>
            0 -1 27 -1.6195361968129873e-04</internalNodes>
          <leafValues>
            4.5008638501167297e-01 -2.7883666753768921e-01</leafValues></_>
        <_>
          <internalNodes>
            0 -1 27 2.0508866873569787e-04</internalNodes>
          <leafValues>
            -2.4677133560180664e-01 4.3582370877265930e-01</leafValues></_>
        <_>
          <internalNodes>
            0 -1 93 8.4059438449912705e-06</internalNodes>
          <leafValues>
            1.4426694810390472e-01 -6.2544536590576172e-01</leafValues></_>
        <_>
          <internalNodes>
            0 -1 489 3.5264156758785248e-02</internalNodes>
          <leafValues>
            1.2050305306911469e-01 -7.0686298608779907e-01</leafValues></_>
        <_>
          <internalNodes>
            0 -1 286 5.5171991698443890e-04</internalNodes>
          <leafValues>
            -4.8526912927627563e-01 2.3651467263698578e-01</leafValues></_>
        <_>
          <internalNodes>
            0 -1 478 -7.8921031672507524e-05</internalNodes>
          <leafValues>
            3.0136954784393311e-01 -3.7638917565345764e-01</leafValues></_></weakClassifiers></_>
    <!-- stage 5 -->
    <_>
      <maxWeakCount>21</maxWeakCount>
      <stageThreshold>-1.2560727596282959e+00</stageThreshold>
      <weakClassifiers>
        <_>
          <internalNodes>
            0 -1 108 -5.0537642091512680e-03</internalNodes>
          <leafValues>
            4.9346181750297546e-01 -4.8545861244201660e-01</leafValues></_>
        <_>
          <internalNodes>
            0 -1 481 -8.7031785369617864e-06</internalNodes>
          <leafValues>
            -6.5302735567092896e-01 2.0137469470500946e-01</leafValues></_>
        <_>
          <internalNodes>
            0 -1 481 1.8233420632896014e-05</internalNodes>
          <leafValues>
            1.8216326832771301e-01 -6.2706959247589111e-01</leafValues></_>
        <_>
          <internalNodes>
            0 -1 58 4.4866331154480577e-04</internalNodes>
          <leafValues>
            -2.4793371558189392e-01 4.3533575534820557e-01</leafValues></_>
        <_>
          <internalNodes>
            0 -1 231 2.0697517320513725e-03</internalNodes>
          <leafValues>
            -2.2823826968669891e-01 5.0038105249404907e-01</leafValues></_>
        <_>
          <internalNodes>
            0 -1 221 -8.4277817222755402e-06</internalNodes>
          <leafValues>
            -5.7967007160186768e-01 1.9748774170875549e-01</leafValues></_>
        <_>
          <internalNodes>
            0 -1 5 -2.9264687327668071e-04</internalNodes>
          <leafValues>
            3.4007379412651062e-01 -3.1304728984832764e-01</leafValues></_>
        <_>
          <internalNodes>
            0 -1 350 1.2397051323205233e-03</internalNodes>
          <leafValues>
            -1.6889198124408722e-01 6.2637412548065186e-01</leafValues></_>
        <_>
          <internalNodes>
            0 -1 365 -1.1086875945329666e-01</internalNodes>
          <leafValues>
            -7.4748551845550537e-01 1.7026837170124054e-01</leafValues></_>
        <_>
          <internalNodes>
            0 -1 300 3.3841699361801147e-02</internalNodes>
          <leafValues>
            8.8500522077083588e-02 -7.7437311410903931e-01</leafValues></_>
        <_>
          <internalNodes>
            0 -1 435 3.6184000782668591e-04</internalNodes>
          <leafValues>
            -3.2660889625549316e-01 2.8329324722290039e-01</leafValues></_>
        <_>
          <internalNodes>
            0 -1 284 -3.9146612398326397e-03</internalNodes>
          <leafValues>
            6.9812583923339844e-01 -1.4659722149372101e-01</leafValues></_>
        <_>
          <internalNodes>
            0 -1 329 8.9175418906961568e-06</internalNodes>
          <leafValues>
            2.3039941489696503e-01 -4.2322152853012085e-01</leafValues></_>
        <_>
          <internalNodes>
            0 -1 310 2.5390232913196087e-03</internalNodes>
          <leafValues>
            -1.6031421720981598e-01 6.4499050378799438e-01</leafValues></_>
        <_>
          <internalNodes>
            0 -1 415 8.5226847659214400e-06</internalNodes>
          <leafValues>
            2.0710586011409760e-01 -4.4069632887840271e-01</leafValues></_>
        <_>
          <internalNodes>
            0 -1 265 -4.8215910792350769e-02</internalNodes>
          <leafValues>
            -5.9107440710067749e-01 1.5021643042564392e-01</leafValues></_>
        <_>
          <internalNodes>
            0 -1 141 1.2578368186950684e-03</internalNodes>
          <leafValues>
            -2.7220448851585388e-01 3.5143008828163147e-01</leafValues></_>
        <_>
          <internalNodes>
            0 -1 11 3.5241479054093361e-04</internalNodes>
          <leafValues>
            -2.4507682025432587e-01 3.6128559708595276e-01</leafValues></_>
        <_>
          <internalNodes>
            0 -1 314 2.9986137524247169e-03</internalNodes>
          <leafValues>
            -1.1403534561395645e-01 7.3230487108230591e-01</leafValues></_>
        <_>
          <internalNodes>
            0 -1 129 6.7537114024162292e-02</internalNodes>
          <leafValues>
            1.1126577109098434e-01 -8.0309277772903442e-01</leafValues></_>
        <_>
          <internalNodes>
            0 -1 144 -2.4407485499978065e-02</internalNodes>
          <leafValues>
            -6.7605739831924438e-01 1.2467402219772339e-01</leafValues></_></weakClassifiers></_>
    <!-- stage 6 -->
    <_>
      <maxWeakCount>19</maxWeakCount>
      <stageThreshold>-1.2599352598190308e+00</stageThreshold>
      <weakClassifiers>
        <_>
          <internalNodes>
            0 -1 280 1.0513891465961933e-03</internalNodes>
          <leafValues>
            -3.4488734602928162e-01 5.2834469079971313e-01</leafValues></_>
        <_>
          <internalNodes>
            0 -1 257 1.4123318251222372e-03</internalNodes>
          <leafValues>
            -2.5415459275245667e-01 4.3393251299858093e-01</leafValues></_>
        <_>
          <internalNodes>
            0 -1 135 -8.5796664279769175e-06</internalNodes>
          <leafValues>
            -6.7941927909851074e-01 1.7089006304740906e-01</leafValues></_>
        <_>
          <internalNodes>
            0 -1 167 8.5226083683664910e-06</internalNodes>
          <leafValues>
            1.7622616887092590e-01 -5.1278698444366455e-01</leafValues></_>
        <_>
          <internalNodes>
            0 -1 3 -5.4998823907226324e-04</internalNodes>
          <leafValues>
            3.6864843964576721e-01 -3.0468335747718811e-01</leafValues></_>
        <_>
          <internalNodes>
            0 -1 35 -1.8503385945223272e-04</internalNodes>
          <leafValues>
            2.9900610446929932e-01 -3.3445385098457336e-01</leafValues></_>
        <_>
          <internalNodes>
            0 -1 432 -8.5464052972383797e-06</internalNodes>
          <leafValues>
            -7.1983796358108521e-01 1.7263713479042053e-01</leafValues></_>
        <_>
          <internalNodes>
            0 -1 379 1.5484523028135300e-03</internalNodes>
          <leafValues>
            -1.2825191020965576e-01 7.7670538425445557e-01</leafValues></_>
        <_>
          <internalNodes>
            0 -1 490 1.0120724327862263e-03</internalNodes>
          <leafValues>
            -1.9643205404281616e-01 4.8203915357589722e-01</leafValues></_>
        <_>
          <internalNodes>
            0 -1 243 -3.6881202831864357e-03</internalNodes>
          <leafValues>
            6.6910642385482788e-01 -1.3776735961437225e-01</leafValues></_>
        <_>
          <internalNodes>
            0 -1 399 8.5796664279769175e-06</internalNodes>
          <leafValues>
            1.9486577808856964e-01 -4.5545789599418640e-01</leafValues></_>
        <_>
          <internalNodes>
            0 -1 190 -1.9351448863744736e-03</internalNodes>
          <leafValues>
            2.6274442672729492e-01 -3.4807595610618591e-01</leafValues></_>
        <_>
          <internalNodes>
            0 -1 276 -4.0417663753032684e-02</internalNodes>
          <leafValues>
            -7.0479953289031982e-01 1.2736983597278595e-01</leafValues></_>
        <_>
          <internalNodes>
            0 -1 500 3.6413141060620546e-04</internalNodes>
          <leafValues>
            -2.2402451932430267e-01 4.4328591227531433e-01</leafValues></_>
        <_>
          <internalNodes>
            0 -1 297 1.0987380519509315e-03</internalNodes>
          <leafValues>
            -2.0345070958137512e-01 4.4536596536636353e-01</leafValues></_>
        <_>
          <internalNodes>
            0 -1 199 -1.7755202861735597e-05</internalNodes>
          <leafValues>
            -5.0691896677017212e-01 1.5354621410369873e-01</leafValues></_>
        <_>
          <internalNodes>
            0 -1 220 7.8192754881456494e-04</internalNodes>
          <leafValues>
            -4.2044624686241150e-01 2.0489594340324402e-01</leafValues></_>
        <_>
          <internalNodes>
            0 -1 282 -9.4783426902722567e-06</internalNodes>
          <leafValues>
            -4.4513770937919617e-01 1.8480704724788666e-01</leafValues></_>
        <_>
          <internalNodes>
            0 -1 225 3.2593868672847748e-03</internalNodes>
          <leafValues>
            -2.4737168848514557e-01 3.1802612543106079e-01</leafValues></_></weakClassifiers></_>
    <!-- stage 7 -->
    <_>
      <maxWeakCount>25</maxWeakCount>
      <stageThreshold>-1.1631907224655151e+00</stageThreshold>
      <weakClassifiers>
        <_>
          <internalNodes>
            0 -1 321 3.0698301270604134e-03</internalNodes>
          <leafValues>
            -3.2007953524589539e-01 4.7315675020217896e-01</leafValues></_>
        <_>
          <internalNodes>
            0 -1 136 -8.7247790361288935e-06</internalNodes>
          <leafValues>
            -6.2222373485565186e-01 1.6411681473255157e-01</leafValues></_>
        <_>
          <internalNodes>
            0 -1 486 -2.7182092890143394e-04</internalNodes>
          <leafValues>
            3.5631966590881348e-01 -2.5484502315521240e-01</leafValues></_>
        <_>
          <internalNodes>
            0 -1 318 2.7831152547150850e-03</internalNodes>
          <leafValues>
            -1.2475797533988953e-01 7.1302038431167603e-01</leafValues></_>
        <_>
          <internalNodes>
            0 -1 32 9.7645461210049689e-05</internalNodes>
          <leafValues>
            -1.9609467685222626e-01 3.8181838393211365e-01</leafValues></_>
        <_>
          <internalNodes>
            0 -1 29 -6.7992327967658639e-04</internalNodes>
          <leafValues>
            2.9039815068244934e-01 -2.7586570382118225e-01</leafValues></_>
        <_>
          <internalNodes>
            0 -1 200 -8.8345013864454813e-06</internalNodes>
          <leafValues>
            -6.2228935956954956e-01 1.2075826525688171e-01</leafValues></_>
        <_>
          <internalNodes>
            0 -1 131 1.1077165603637695e-01</internalNodes>
          <leafValues>
            7.6435826718807220e-02 -8.2043045759201050e-01</leafValues></_>
        <_>
          <internalNodes>
            0 -1 241 2.3593895602971315e-03</internalNodes>
          <leafValues>
            -1.3042485713958740e-01 6.2167185544967651e-01</leafValues></_>
        <_>
          <internalNodes>
            0 -1 196 1.9972831942141056e-03</internalNodes>
          <leafValues>
            -2.9707342386245728e-01 2.2762410342693329e-01</leafValues></_>
        <_>
          <internalNodes>
            0 -1 418 8.8693177531240508e-06</internalNodes>
          <leafValues>
            1.4823870360851288e-01 -4.7097811102867126e-01</leafValues></_>
        <_>
          <internalNodes>
            0 -1 370 6.4756749197840691e-03</internalNodes>
          <leafValues>
            -1.4475534856319427e-01 5.8864074945449829e-01</leafValues></_>
        <_>
          <internalNodes>
            0 -1 235 -5.9606291353702545e-02</internalNodes>
          <leafValues>
            -6.1359345912933350e-01 1.2116572260856628e-01</leafValues></_>
        <_>
          <internalNodes>
            0 -1 55 3.8567825686186552e-04</internalNodes>
          <leafValues>
            -2.1657891571521759e-01 3.0971580743789673e-01</leafValues></_>
        <_>
          <internalNodes>
            0 -1 78 -4.0996461757458746e-04</internalNodes>
          <leafValues>
            2.8427484631538391e-01 -2.5225052237510681e-01</leafValues></_>
        <_>
          <internalNodes>
            0 -1 369 -2.5487262755632401e-03</internalNodes>
          <leafValues>
            2.5955435633659363e-01 -2.6072356104850769e-01</leafValues></_>
        <_>
          <internalNodes>
            0 -1 88 6.3703767955303192e-04</internalNodes>
          <leafValues>
            -2.6894834637641907e-01 2.6294052600860596e-01</leafValues></_>
        <_>
          <internalNodes>
            0 -1 375 2.9490655288100243e-03</internalNodes>
          <leafValues>
            -8.7041929364204407e-02 7.4600249528884888e-01</leafValues></_>
        <_>
          <internalNodes>
            0 -1 488 4.8818712821230292e-04</internalNodes>
          <leafValues>
            -1.8509729206562042e-01 3.4852555394172668e-01</leafValues></_>
        <_>
          <internalNodes>
            0 -1 354 -8.9007280621444806e-06</internalNodes>
          <leafValues>
            -5.0890070199966431e-01 1.3593141734600067e-01</leafValues></_>
        <_>
          <internalNodes>
            0 -1 56 3.8374103605747223e-03</internalNodes>
          <leafValues>
            -3.1265041232109070e-01 2.0914290845394135e-01</leafValues></_>
        <_>
          <internalNodes>
            0 -1 217 4.8002682160586119e-04</internalNodes>
          <leafValues>
            -2.3644927144050598e-01 3.3243885636329651e-01</leafValues></_>
        <_>
          <internalNodes>
            0 -1 462 1.2337677180767059e-03</internalNodes>
          <leafValues>
            -2.0224127173423767e-01 3.5965245962142944e-01</leafValues></_>
        <_>
          <internalNodes>
            0 -1 449 1.8124599591828883e-05</internalNodes>
          <leafValues>
            1.6670501232147217e-01 -4.6062618494033813e-01</leafValues></_>
        <_>
          <internalNodes>
            0 -1 441 3.3872609492391348e-04</internalNodes>
          <leafValues>
            -2.0066255331039429e-01 3.7508147954940796e-01</leafValues></_></weakClassifiers></_>
    <!-- stage 8 -->
    <_>
      <maxWeakCount>24</maxWeakCount>
      <stageThreshold>-1.0102956295013428e+00</stageThreshold>
      <weakClassifiers>
        <_>
          <internalNodes>
            0 -1 114 -8.6489478126168251e-03</internalNodes>
          <leafValues>
            4.3972125649452209e-01 -2.8172042965888977e-01</leafValues></_>
        <_>
          <internalNodes>
            0 -1 289 -1.6802747268229723e-05</internalNodes>
          <leafValues>
            -5.4554420709609985e-01 1.8353609740734100e-01</leafValues></_>
        <_>
          <internalNodes>
            0 -1 500 2.9854307649657130e-04</internalNodes>
          <leafValues>
            -1.9830861687660217e-01 4.0254360437393188e-01</leafValues></_>
        <_>
          <internalNodes>
            0 -1 132 1.7170956198242493e-05</internalNodes>
          <leafValues>
            1.4635564386844635e-01 -5.5287319421768188e-01</leafValues></_>
        <_>
          <internalNodes>
            0 -1 107 -9.8623186349868774e-02</internalNodes>
          <leafValues>
            -8.0836212635040283e-01 8.0625317990779877e-02</leafValues></_>
        <_>
          <internalNodes>
            0 -1 323 4.0709991008043289e-03</internalNodes>
          <leafValues>
            -1.0705955326557159e-01 7.3997783660888672e-01</leafValues></_>
        <_>
          <internalNodes>
            0 -1 353 2.0876352209597826e-04</internalNodes>
          <leafValues>
            -2.3293107748031616e-01 3.0691578984260559e-01</leafValues></_>
        <_>
          <internalNodes>
            0 -1 215 -5.8739356696605682e-02</internalNodes>
          <leafValues>
            -7.2217869758605957e-01 9.3051351606845856e-02</leafValues></_>
        <_>
          <internalNodes>
            0 -1 176 1.4009235892444849e-03</internalNodes>
          <leafValues>
            -2.3038019239902496e-01 3.2179078459739685e-01</leafValues></_>
        <_>
          <internalNodes>
            0 -1 132 -8.5488118202192709e-06</internalNodes>
          <leafValues>
            -6.4040243625640869e-01 1.1301418393850327e-01</leafValues></_>
        <_>
          <internalNodes>
            0 -1 438 -2.5819995789788663e-04</internalNodes>
          <leafValues>
            3.2588583230972290e-01 -2.0853541791439056e-01</leafValues></_>
        <_>
          <internalNodes>
            0 -1 422 -8.6470272435690276e-06</internalNodes>
          <leafValues>
            -5.5194181203842163e-01 1.2045145034790039e-01</leafValues></_>
        <_>
          <internalNodes>
            0 -1 341 2.5889212265610695e-03</internalNodes>
          <leafValues>
            -1.2442653626203537e-01 5.6377446651458740e-01</leafValues></_>
        <_>
          <internalNodes>
            0 -1 19 2.6366597739979625e-04</internalNodes>
          <leafValues>
            -1.9753859937191010e-01 3.4906116127967834e-01</leafValues></_>
        <_>
          <internalNodes>
            0 -1 256 2.2084878291934729e-03</internalNodes>
          <leafValues>
            -1.6538308560848236e-01 3.8755670189857483e-01</leafValues></_>
        <_>
          <internalNodes>
            0 -1 4 -1.5580262697767466e-04</internalNodes>
          <leafValues>
            2.7100577950477600e-01 -2.5013378262519836e-01</leafValues></_>
        <_>
          <internalNodes>
            0 -1 93 8.6129257397260517e-06</internalNodes>
          <leafValues>
            1.2499444931745529e-01 -6.5171706676483154e-01</leafValues></_>
        <_>
          <internalNodes>
            0 -1 340 3.3458184450864792e-02</internalNodes>
          <leafValues>
            7.7317252755165100e-02 -7.9190021753311157e-01</leafValues></_>
        <_>
          <internalNodes>
            0 -1 335 -3.3551372587680817e-02</internalNodes>
          <leafValues>
            -6.8864452838897705e-01 8.7773941457271576e-02</leafValues></_>
        <_>
          <internalNodes>
            0 -1 2 8.3354943853919394e-06</internalNodes>
          <leafValues>
            1.4883297681808472e-01 -4.3932291865348816e-01</leafValues></_>
        <_>
          <internalNodes>
            0 -1 104 2.0517474040389061e-03</internalNodes>
          <leafValues>
            -1.7909042537212372e-01 4.0784728527069092e-01</leafValues></_>
        <_>
          <internalNodes>
            0 -1 378 -4.2404769919812679e-03</internalNodes>
          <leafValues>
            6.8071311712265015e-01 -8.6897917091846466e-02</leafValues></_>
        <_>
          <internalNodes>
            0 -1 419 1.9811981474049389e-05</internalNodes>
          <leafValues>
            1.4448231458663940e-01 -4.8712319135665894e-01</leafValues></_>
        <_>
          <internalNodes>
            0 -1 429 6.6149048507213593e-04</internalNodes>
          <leafValues>
            -2.3055277764797211e-01 2.8995436429977417e-01</leafValues></_></weakClassifiers></_>
    <!-- stage 9 -->
    <_>
      <maxWeakCount>28</maxWeakCount>
      <stageThreshold>-1.0184270143508911e+00</stageThreshold>
      <weakClassifiers>
        <_>
          <internalNodes>
            0 -1 110 -3.6771283484995365e-03</internalNodes>
          <leafValues>
            4.4075828790664673e-01 -3.5697400569915771e-01</leafValues></_>
        <_>
          <internalNodes>
            0 -1 417 -8.8062088252627291e-06</internalNodes>
          <leafValues>
            -6.1538779735565186e-01 1.3588684797286987e-01</leafValues></_>
        <_>
          <internalNodes>
            0 -1 428 -4.8436314682476223e-04</internalNodes>
          <leafValues>
            2.9826164245605469e-01 -2.4981340765953064e-01</leafValues></_>
        <_>
          <internalNodes>
            0 -1 348 -2.1681229118257761e-03</internalNodes>
          <leafValues>
            5.6438565254211426e-01 -1.2588097155094147e-01</leafValues></_>
        <_>
          <internalNodes>
            0 -1 345 2.4016639217734337e-03</internalNodes>
          <leafValues>
            -1.3507950305938721e-01 5.6412535905838013e-01</leafValues></_>
        <_>
          <internalNodes>
            0 -1 501 -1.9415547285461798e-05</internalNodes>
          <leafValues>
            -6.4210993051528931e-01 1.1018313467502594e-01</leafValues></_>
        <_>
          <internalNodes>
            0 -1 408 6.8813050165772438e-04</internalNodes>
          <leafValues>
            -2.1705679595470428e-01 2.9380202293395996e-01</leafValues></_>
        <_>
          <internalNodes>
            0 -1 45 5.8145890943706036e-04</internalNodes>
          <leafValues>
            -1.6621670126914978e-01 3.8484185934066772e-01</leafValues></_>
        <_>
          <internalNodes>
            0 -1 460 -7.0839792897459120e-05</internalNodes>
          <leafValues>
            3.0838814377784729e-01 -1.9349631667137146e-01</leafValues></_>
        <_>
          <internalNodes>
            0 -1 491 -8.7212565631489269e-06</internalNodes>
          <leafValues>
            -4.9596339464187622e-01 1.3632613420486450e-01</leafValues></_>
        <_>
          <internalNodes>
            0 -1 13 -1.1552125215530396e-04</internalNodes>
          <leafValues>
            2.5803261995315552e-01 -2.3847571015357971e-01</leafValues></_>
        <_>
          <internalNodes>
            0 -1 6 -1.8647294200491160e-04</internalNodes>
          <leafValues>
            3.4657430648803711e-01 -2.5123280286788940e-01</leafValues></_>
        <_>
          <internalNodes>
            0 -1 420 6.2297354452311993e-04</internalNodes>
          <leafValues>
            -2.9291343688964844e-01 2.4036246538162231e-01</leafValues></_>
        <_>
          <internalNodes>
            0 -1 318 3.4468625672161579e-03</internalNodes>
          <leafValues>
            -9.9903643131256104e-02 6.4287871122360229e-01</leafValues></_>
        <_>
          <internalNodes>
            0 -1 85 1.7796412110328674e-02</internalNodes>
          <leafValues>
            1.0763671994209290e-01 -5.8040738105773926e-01</leafValues></_>
        <_>
          <internalNodes>
            0 -1 188 3.6591991782188416e-02</internalNodes>
          <leafValues>
            1.1712133139371872e-01 -5.1908576488494873e-01</leafValues></_>
        <_>
          <internalNodes>
            0 -1 143 3.5053983447141945e-04</internalNodes>
          <leafValues>
            -1.9756886363029480e-01 3.3601188659667969e-01</leafValues></_>
        <_>
          <internalNodes>
            0 -1 172 2.0069584716111422e-03</internalNodes>
          <leafValues>
            -1.5306869149208069e-01 4.2222005128860474e-01</leafValues></_>
        <_>
          <internalNodes>
            0 -1 116 -8.6560139607172459e-06</internalNodes>
          <leafValues>
            -6.1523461341857910e-01 1.2146157026290894e-01</leafValues></_>
        <_>
          <internalNodes>
            0 -1 494 1.7165886674774811e-05</internalNodes>
          <leafValues>
            1.3217304646968842e-01 -4.2799884080886841e-01</leafValues></_>
        <_>
          <internalNodes>
            0 -1 498 -1.2853313237428665e-03</internalNodes>
          <leafValues>
            3.9631491899490356e-01 -1.5340963006019592e-01</leafValues></_>
        <_>
          <internalNodes>
            0 -1 298 -7.5844564707949758e-04</internalNodes>
          <leafValues>
            2.3410965502262115e-01 -2.5238206982612610e-01</leafValues></_>
        <_>
          <internalNodes>
            0 -1 397 -1.9694771617650986e-02</internalNodes>
          <leafValues>
            -4.9094218015670776e-01 1.2206573039293289e-01</leafValues></_>
        <_>
          <internalNodes>
            0 -1 285 3.0932342633605003e-03</internalNodes>
          <leafValues>
            -1.4538240432739258e-01 4.4047001004219055e-01</leafValues></_>
        <_>
          <internalNodes>
            0 -1 198 2.6124361902475357e-03</internalNodes>
          <leafValues>
            -1.6456943750381470e-01 3.5770580172538757e-01</leafValues></_>
        <_>
          <internalNodes>
            0 -1 77 7.6904699206352234e-02</internalNodes>
          <leafValues>
            7.3255106806755066e-02 -8.5337907075881958e-01</leafValues></_>
        <_>
          <internalNodes>
            0 -1 71 -1.3861518818885088e-03</internalNodes>
          <leafValues>
            3.5324904322624207e-01 -1.9660079479217529e-01</leafValues></_>
        <_>
          <internalNodes>
            0 -1 25 1.6103421803563833e-03</internalNodes>
          <leafValues>
            -4.3717718124389648e-01 1.5176768600940704e-01</leafValues></_></weakClassifiers></_>
    <!-- stage 10 -->
    <_>
      <maxWeakCount>34</maxWeakCount>
      <stageThreshold>-1.2415974140167236e+00</stageThreshold>
      <weakClassifiers>
        <_>
          <internalNodes>
            0 -1 372 -3.5326753277331591e-04</internalNodes>
          <leafValues>
            4.0936863422393799e-01 -2.4121779203414917e-01</leafValues></_>
        <_>
          <internalNodes>
            0 -1 483 3.2063119579106569e-04</internalNodes>
          <leafValues>
            -1.9538280367851257e-01 3.7107565999031067e-01</leafValues></_>
        <_>
          <internalNodes>
            0 -1 92 8.3763070506392978e-06</internalNodes>
          <leafValues>
            1.5314958989620209e-01 -4.4896802306175232e-01</leafValues></_>
        <_>
          <internalNodes>
            0 -1 236 1.2738483492285013e-03</internalNodes>
          <leafValues>
            -2.3624703288078308e-01 2.7137970924377441e-01</leafValues></_>
        <_>
          <internalNodes>
            0 -1 70 9.4580536824651062e-05</internalNodes>
          <leafValues>
            -2.1724303066730499e-01 3.0919831991195679e-01</leafValues></_>
        <_>
          <internalNodes>
            0 -1 382 -3.3438840182498097e-04</internalNodes>
          <leafValues>
            2.6000392436981201e-01 -2.6391419768333435e-01</leafValues></_>
        <_>
          <internalNodes>
            0 -1 359 -8.7774442363297567e-06</internalNodes>
          <leafValues>
            -5.0060546398162842e-01 1.3033328950405121e-01</leafValues></_>
        <_>
          <internalNodes>
            0 -1 120 9.5133055001497269e-03</internalNodes>
          <leafValues>
            1.4638791978359222e-01 -4.1326722502708435e-01</leafValues></_>
        <_>
          <internalNodes>
            0 -1 210 1.1609247885644436e-03</internalNodes>
          <leafValues>
            -2.6945367455482483e-01 2.0925153791904449e-01</leafValues></_>
        <_>
          <internalNodes>
            0 -1 274 3.0038473196327686e-03</internalNodes>
          <leafValues>
            -9.9206149578094482e-02 5.6771326065063477e-01</leafValues></_>
        <_>
          <internalNodes>
            0 -1 247 2.2806050255894661e-03</internalNodes>
          <leafValues>
            -2.0325025916099548e-01 3.3755397796630859e-01</leafValues></_>
        <_>
          <internalNodes>
            0 -1 434 -2.9328631353564560e-04</internalNodes>
          <leafValues>
            3.2149946689605713e-01 -1.9262570142745972e-01</leafValues></_>
        <_>
          <internalNodes>
            0 -1 0 1.1934908106923103e-02</internalNodes>
          <leafValues>
            1.3349813222885132e-01 -5.4071092605590820e-01</leafValues></_>
        <_>
          <internalNodes>
            0 -1 264 8.8380217552185059e-02</internalNodes>
          <leafValues>
            6.6726267337799072e-02 -6.9622021913528442e-01</leafValues></_>
        <_>
          <internalNodes>
            0 -1 421 -8.5709261838928796e-06</internalNodes>
          <leafValues>
            -6.7590373754501343e-01 7.6843604445457458e-02</leafValues></_>
        <_>
          <internalNodes>
            0 -1 374 2.7762367390096188e-03</internalNodes>
          <leafValues>
            -1.2231086939573288e-01 5.5743694305419922e-01</leafValues></_>
        <_>
          <internalNodes>
            0 -1 350 1.3157776556909084e-03</internalNodes>
          <leafValues>
            -1.1639691889286041e-01 4.6874716877937317e-01</leafValues></_>
        <_>
          <internalNodes>
            0 -1 12 2.3415964096784592e-04</internalNodes>
          <leafValues>
            -1.6702789068222046e-01 3.5746037960052490e-01</leafValues></_>
        <_>
          <internalNodes>
            0 -1 444 9.0770496171899140e-05</internalNodes>
          <leafValues>
            -1.7304000258445740e-01 3.3955678343772888e-01</leafValues></_>
        <_>
          <internalNodes>
            0 -1 349 -1.7364639788866043e-02</internalNodes>
          <leafValues>
            -6.0930681228637695e-01 1.0729205608367920e-01</leafValues></_>
        <_>
          <internalNodes>
            0 -1 229 3.0216416344046593e-03</internalNodes>
          <leafValues>
            -1.3319844007492065e-01 4.8949661850929260e-01</leafValues></_>
        <_>
          <internalNodes>
            0 -1 254 -1.6748863345128484e-05</internalNodes>
          <leafValues>
            -3.6747118830680847e-01 1.6363830864429474e-01</leafValues></_>
        <_>
          <internalNodes>
            0 -1 480 -1.2936504208482802e-04</internalNodes>
          <leafValues>
            3.6878058314323425e-01 -1.6141448915004730e-01</leafValues></_>
        <_>
          <internalNodes>
            0 -1 493 1.8019025446847081e-05</internalNodes>
          <leafValues>
            1.3207559287548065e-01 -4.4726178050041199e-01</leafValues></_>
        <_>
          <internalNodes>
            0 -1 258 -8.7087000792962499e-06</internalNodes>
          <leafValues>
            -3.7236753106117249e-01 1.4875599741935730e-01</leafValues></_>
        <_>
          <internalNodes>
            0 -1 121 1.4995594974607229e-03</internalNodes>
          <leafValues>
            -2.0721761882305145e-01 2.8063353896141052e-01</leafValues></_>
        <_>
          <internalNodes>
            0 -1 309 -3.7334185093641281e-02</internalNodes>
          <leafValues>
            4.1956388950347900e-01 -1.4370988309383392e-01</leafValues></_>
        <_>
          <internalNodes>
            0 -1 283 2.2878758609294891e-03</internalNodes>
          <leafValues>
            -1.3994921743869781e-01 4.3576827645301819e-01</leafValues></_>
        <_>
          <internalNodes>
            0 -1 54 3.1542651355266571e-02</internalNodes>
          <leafValues>
            1.0707923024892807e-01 -6.1024188995361328e-01</leafValues></_>
        <_>
          <internalNodes>
            0 -1 307 -3.0705800745636225e-03</internalNodes>
          <leafValues>
            5.4388236999511719e-01 -1.2048911303281784e-01</leafValues></_>
        <_>
          <internalNodes>
            0 -1 69 -1.5082134632393718e-04</internalNodes>
          <leafValues>
            3.1814041733741760e-01 -1.6813737154006958e-01</leafValues></_>
        <_>
          <internalNodes>
            0 -1 43 -2.6971582323312759e-02</internalNodes>
          <leafValues>
            -7.0200037956237793e-01 1.0105404257774353e-01</leafValues></_>
        <_>
          <internalNodes>
            0 -1 94 -1.9964855164289474e-04</internalNodes>
          <leafValues>
            2.2466249763965607e-01 -2.3223263025283813e-01</leafValues></_>
        <_>
          <internalNodes>
            0 -1 174 -8.4918729044147767e-06</internalNodes>
          <leafValues>
            -4.5621874928474426e-01 1.3530342280864716e-01</leafValues></_></weakClassifiers></_>
    <!-- stage 11 -->
    <_>
      <maxWeakCount>31</maxWeakCount>
      <stageThreshold>-1.0000725984573364e+00</stageThreshold>
      <weakClassifiers>
        <_>
          <internalNodes>
            0 -1 214 8.6100726548465900e-06</internalNodes>
          <leafValues>
            4.5038166642189026e-01 -1.5254236757755280e-01</leafValues></_>
        <_>
          <internalNodes>
            0 -1 227 1.0020957561209798e-03</internalNodes>
          <leafValues>
            -2.2605060040950775e-01 3.7095260620117188e-01</leafValues></_>
        <_>
          <internalNodes>
            0 -1 137 8.4826115198666230e-06</internalNodes>
          <leafValues>
            1.7244939506053925e-01 -4.1663178801536560e-01</leafValues></_>
        <_>
          <internalNodes>
            0 -1 322 3.8534658960998058e-03</internalNodes>
          <leafValues>
            -1.2239579111337662e-01 5.4175692796707153e-01</leafValues></_>
        <_>
          <internalNodes>
            0 -1 463 -2.3806581157259643e-04</internalNodes>
          <leafValues>
            2.6542162895202637e-01 -2.3974165320396423e-01</leafValues></_>
        <_>
          <internalNodes>
            0 -1 23 -1.2004403769969940e-01</internalNodes>
          <leafValues>
            -8.2899826765060425e-01 7.4811525642871857e-02</leafValues></_>
        <_>
          <internalNodes>
            0 -1 362 1.6787762288004160e-03</internalNodes>
          <leafValues>
            -3.1169363856315613e-01 2.1357242763042450e-01</leafValues></_>
        <_>
          <internalNodes>
            0 -1 75 2.3567341268062592e-03</internalNodes>
          <leafValues>
            -3.8006082177162170e-01 1.8200741708278656e-01</leafValues></_>
        <_>
          <internalNodes>
            0 -1 127 4.3046772480010986e-02</internalNodes>
          <leafValues>
            9.7545392811298370e-02 -6.6639667749404907e-01</leafValues></_>
        <_>
          <internalNodes>
            0 -1 204 -1.8099352018907666e-05</internalNodes>
          <leafValues>
            -5.4583293199539185e-01 7.9077593982219696e-02</leafValues></_>
        <_>
          <internalNodes>
            0 -1 205 9.6222269348800182e-04</internalNodes>
          <leafValues>
            -2.5733342766761780e-01 2.1167862415313721e-01</leafValues></_>
        <_>
          <internalNodes>
            0 -1 278 3.8047307170927525e-03</internalNodes>
          <leafValues>
            -9.3791119754314423e-02 5.9304165840148926e-01</leafValues></_>
        <_>
          <internalNodes>
            0 -1 150 -4.5332629233598709e-02</internalNodes>
          <leafValues>
            -4.4361010193824768e-01 1.4505694806575775e-01</leafValues></_>
        <_>
          <internalNodes>
            0 -1 31 2.3221901210490614e-04</internalNodes>
          <leafValues>
            -1.5161027014255524e-01 3.5587435960769653e-01</leafValues></_>
        <_>
          <internalNodes>
            0 -1 492 1.9132698071189225e-05</internalNodes>
          <leafValues>
            1.3351978361606598e-01 -4.6894672513008118e-01</leafValues></_>
        <_>
          <internalNodes>
            0 -1 477 -4.4665246969088912e-04</internalNodes>
          <leafValues>
            2.7729409933090210e-01 -2.3713457584381104e-01</leafValues></_>
        <_>
          <internalNodes>
            0 -1 49 -6.1620578169822693e-02</internalNodes>
          <leafValues>
            -4.7960370779037476e-01 1.2198056280612946e-01</leafValues></_>
        <_>
          <internalNodes>
            0 -1 52 -6.0215017583686858e-05</internalNodes>
          <leafValues>
            2.7222374081611633e-01 -2.0886139571666718e-01</leafValues></_>
        <_>
          <internalNodes>
            0 -1 57 2.2584883496165276e-02</internalNodes>
          <leafValues>
            1.0027095675468445e-01 -6.7154437303543091e-01</leafValues></_>
        <_>
          <internalNodes>
            0 -1 381 8.8529792265035212e-05</internalNodes>
          <leafValues>
            -2.0734034478664398e-01 2.8133419156074524e-01</leafValues></_>
        <_>
          <internalNodes>
            0 -1 416 -8.6844347606529482e-06</internalNodes>
          <leafValues>
            -4.9375197291374207e-01 1.2251894176006317e-01</leafValues></_>
        <_>
          <internalNodes>
            0 -1 380 3.3257482573390007e-03</internalNodes>
          <leafValues>
            -1.1057106405496597e-01 4.9544230103492737e-01</leafValues></_>
        <_>
          <internalNodes>
            0 -1 269 3.6891512572765350e-02</internalNodes>
          <leafValues>
            9.5385186374187469e-02 -5.5011004209518433e-01</leafValues></_>
        <_>
          <internalNodes>
            0 -1 364 3.7575438618659973e-03</internalNodes>
          <leafValues>
            -2.4688763916492462e-01 2.4391193687915802e-01</leafValues></_>
        <_>
          <internalNodes>
            0 -1 208 1.0308897495269775e-01</internalNodes>
          <leafValues>
            -8.3722136914730072e-02 7.5913935899734497e-01</leafValues></_>
        <_>
          <internalNodes>
            0 -1 289 8.6228237705654465e-06</internalNodes>
          <leafValues>
            1.7240747809410095e-01 -3.2861098647117615e-01</leafValues></_>
        <_>
          <internalNodes>
            0 -1 411 1.5463316813111305e-03</internalNodes>
          <leafValues>
            -1.6402375698089600e-01 3.3954879641532898e-01</leafValues></_>
        <_>
          <internalNodes>
            0 -1 253 -1.8161905463784933e-03</internalNodes>
          <leafValues>
            6.2525850534439087e-01 -8.8838227093219757e-02</leafValues></_>
        <_>
          <internalNodes>
            0 -1 390 7.3214841540902853e-04</internalNodes>
          <leafValues>
            -2.0420230925083160e-01 2.6124408841133118e-01</leafValues></_>
        <_>
          <internalNodes>
            0 -1 191 -1.7531261619296856e-05</internalNodes>
          <leafValues>
            -3.7524360418319702e-01 1.3453052937984467e-01</leafValues></_>
        <_>
          <internalNodes>
            0 -1 195 8.6243939585983753e-04</internalNodes>
          <leafValues>
            -2.5088936090469360e-01 2.2948549687862396e-01</leafValues></_></weakClassifiers></_>
    <!-- stage 12 -->
    <_>
      <maxWeakCount>26</maxWeakCount>
      <stageThreshold>-8.9892482757568359e-01</stageThreshold>
      <weakClassifiers>
        <_>
          <internalNodes>
            0 -1 394 -1.0381878819316626e-03</internalNodes>
          <leafValues>
            5.5359113216400146e-01 -1.0050251148641109e-03</leafValues></_>
        <_>
          <internalNodes>
            0 -1 138 -2.5847440119832754e-03</internalNodes>
          <leafValues>
            1.8406727910041809e-01 -4.1957920789718628e-01</leafValues></_>
        <_>
          <internalNodes>
            0 -1 404 1.7647817003307864e-05</internalNodes>
          <leafValues>
            1.5061588585376740e-01 -4.1809630393981934e-01</leafValues></_>
        <_>
          <internalNodes>
            0 -1 468 8.6844474935787730e-06</internalNodes>
          <leafValues>
            1.2179811298847198e-01 -5.1032543182373047e-01</leafValues></_>
        <_>
          <internalNodes>
            0 -1 461 1.7871052841655910e-04</internalNodes>
          <leafValues>
            -2.0593239367008209e-01 3.1330099701881409e-01</leafValues></_>
        <_>
          <internalNodes>
            0 -1 459 -4.3250856106169522e-04</internalNodes>
          <leafValues>
            2.7478575706481934e-01 -3.0310693383216858e-01</leafValues></_>
        <_>
          <internalNodes>
            0 -1 403 1.2368116294965148e-03</internalNodes>
          <leafValues>
            -1.7754641175270081e-01 3.1753209233283997e-01</leafValues></_>
        <_>
          <internalNodes>
            0 -1 395 -9.3737296760082245e-02</internalNodes>
          <leafValues>
            -6.8626767396926880e-01 1.0467709600925446e-01</leafValues></_>
        <_>
          <internalNodes>
            0 -1 112 1.7385820683557540e-05</internalNodes>
          <leafValues>
            1.7439495027065277e-01 -3.3625200390815735e-01</leafValues></_>
        <_>
          <internalNodes>
            0 -1 27 -4.6211999142542481e-04</internalNodes>
          <leafValues>
            3.1270214915275574e-01 -1.9334033131599426e-01</leafValues></_>
        <_>
          <internalNodes>
            0 -1 341 3.7161209620535374e-03</internalNodes>
          <leafValues>
            -9.3253873288631439e-02 5.7459235191345215e-01</leafValues></_>
        <_>
          <internalNodes>
            0 -1 386 8.4465791587717831e-06</internalNodes>
          <leafValues>
            2.1108639240264893e-01 -2.5888097286224365e-01</leafValues></_>
        <_>
          <internalNodes>
            0 -1 15 7.2033173637464643e-04</internalNodes>
          <leafValues>
            -2.3764728009700775e-01 2.3284330964088440e-01</leafValues></_>
        <_>
          <internalNodes>
            0 -1 152 1.5308508276939392e-01</internalNodes>
          <leafValues>
            -7.8114345669746399e-02 6.5740305185317993e-01</leafValues></_>
        <_>
          <internalNodes>
            0 -1 181 8.0219033407047391e-04</internalNodes>
          <leafValues>
            -2.4965010583400726e-01 2.7297505736351013e-01</leafValues></_>
        <_>
          <internalNodes>
            0 -1 315 3.5797015298157930e-03</internalNodes>
          <leafValues>
            -9.5699705183506012e-02 6.6408717632293701e-01</leafValues></_>
        <_>
          <internalNodes>
            0 -1 385 7.0975469425320625e-03</internalNodes>
          <leafValues>
            -9.8597817122936249e-02 5.5170291662216187e-01</leafValues></_>
        <_>
          <internalNodes>
            0 -1 320 3.1874100677669048e-03</internalNodes>
          <leafValues>
            -1.6437128186225891e-01 3.2740890979766846e-01</leafValues></_>
        <_>
          <internalNodes>
            0 -1 10 1.7887885405798443e-05</internalNodes>
          <leafValues>
            8.5398919880390167e-02 -6.1374443769454956e-01</leafValues></_>
        <_>
          <internalNodes>
            0 -1 186 -5.9493415057659149e-02</internalNodes>
          <leafValues>
            -8.8905686140060425e-01 5.4754085838794708e-02</leafValues></_>
        <_>
          <internalNodes>
            0 -1 84 -7.6496705878525972e-04</internalNodes>
          <leafValues>
            3.1669130921363831e-01 -2.1197423338890076e-01</leafValues></_>
        <_>
          <internalNodes>
            0 -1 67 9.8501369357109070e-03</internalNodes>
          <leafValues>
            1.2805885076522827e-01 -5.1466679573059082e-01</leafValues></_>
        <_>
          <internalNodes>
            0 -1 425 -2.2813619580119848e-04</internalNodes>
          <leafValues>
            3.4306874871253967e-01 -1.6328290104866028e-01</leafValues></_>
        <_>
          <internalNodes>
            0 -1 224 -1.8106409697793424e-05</internalNodes>
          <leafValues>
            -3.9685669541358948e-01 1.5010233223438263e-01</leafValues></_>
        <_>
          <internalNodes>
            0 -1 377 2.4655712768435478e-03</internalNodes>
          <leafValues>
            -1.2724624574184418e-01 4.3126916885375977e-01</leafValues></_>
        <_>
          <internalNodes>
            0 -1 466 1.5838693827390671e-02</internalNodes>
          <leafValues>
            7.9635463654994965e-02 -7.4392277002334595e-01</leafValues></_></weakClassifiers></_>
    <!-- stage 13 -->
    <_>
      <maxWeakCount>35</maxWeakCount>
      <stageThreshold>-8.0477941036224365e-01</stageThreshold>
      <weakClassifiers>
        <_>
          <internalNodes>
            0 -1 347 -6.3670267991255969e-05</internalNodes>
          <leafValues>
            4.0000000596046448e-01 -2.0465116202831268e-01</leafValues></_>
        <_>
          <internalNodes>
            0 -1 455 8.7145544966915622e-06</internalNodes>
          <leafValues>
            1.2883962690830231e-01 -4.9374148249626160e-01</leafValues></_>
        <_>
          <internalNodes>
            0 -1 499 1.0361026215832680e-04</internalNodes>
          <leafValues>
            -1.8893352150917053e-01 3.5343462228775024e-01</leafValues></_>
        <_>
          <internalNodes>
            0 -1 119 -5.0900247879326344e-04</internalNodes>
          <leafValues>
            1.0051515698432922e-01 -4.8029398918151855e-01</leafValues></_>
        <_>
          <internalNodes>
            0 -1 46 -2.0414796017576009e-04</internalNodes>
          <leafValues>
            2.6424047350883484e-01 -2.2168505191802979e-01</leafValues></_>
        <_>
          <internalNodes>
            0 -1 21 1.9893530406989157e-04</internalNodes>
          <leafValues>
            -2.5203311443328857e-01 2.9151156544685364e-01</leafValues></_>
        <_>
          <internalNodes>
            0 -1 8 -2.2089667618274689e-02</internalNodes>
          <leafValues>
            -5.8732986450195312e-01 1.3041928410530090e-01</leafValues></_>
        <_>
          <internalNodes>
            0 -1 333 1.9965193132520653e-05</internalNodes>
          <leafValues>
            1.3741908967494965e-01 -3.8493517041206360e-01</leafValues></_>
        <_>
          <internalNodes>
            0 -1 426 5.8537826407700777e-04</internalNodes>
          <leafValues>
            -1.6564048826694489e-01 3.1640335917472839e-01</leafValues></_>
        <_>
          <internalNodes>
            0 -1 384 -7.6466001570224762e-02</internalNodes>
          <leafValues>
            -6.8825685977935791e-01 8.7322831153869629e-02</leafValues></_>
        <_>
          <internalNodes>
            0 -1 443 -5.3618289530277252e-04</internalNodes>
          <leafValues>
            2.8945431113243103e-01 -2.0095376670360565e-01</leafValues></_>
        <_>
          <internalNodes>
            0 -1 260 9.6560299396514893e-02</internalNodes>
          <leafValues>
            -1.1325987428426743e-01 5.6908637285232544e-01</leafValues></_>
        <_>
          <internalNodes>
            0 -1 62 -5.3154770284891129e-04</internalNodes>
          <leafValues>
            3.2938385009765625e-01 -1.5836808085441589e-01</leafValues></_>
        <_>
          <internalNodes>
            0 -1 68 -1.1503132060170174e-02</internalNodes>
          <leafValues>
            -5.5078822374343872e-01 8.7637126445770264e-02</leafValues></_>
        <_>
          <internalNodes>
            0 -1 334 -1.3531424105167389e-02</internalNodes>
          <leafValues>
            -4.0083977580070496e-01 1.3339363038539886e-01</leafValues></_>
        <_>
          <internalNodes>
            0 -1 367 7.9621362965553999e-04</internalNodes>
          <leafValues>
            -1.8779830634593964e-01 2.7733284235000610e-01</leafValues></_>
        <_>
          <internalNodes>
            0 -1 410 1.4548832550644875e-02</internalNodes>
          <leafValues>
            1.2910404801368713e-01 -4.2608803510665894e-01</leafValues></_>
        <_>
          <internalNodes>
            0 -1 170 -7.4623967520892620e-04</internalNodes>
          <leafValues>
            2.9974240064620972e-01 -1.5817788243293762e-01</leafValues></_>
        <_>
          <internalNodes>
            0 -1 204 1.7728079910739325e-05</internalNodes>
          <leafValues>
            1.1229311674833298e-01 -5.2684444189071655e-01</leafValues></_>
        <_>
          <internalNodes>
            0 -1 145 -3.0140049057081342e-04</internalNodes>
          <leafValues>
            2.2406251728534698e-01 -1.9773496687412262e-01</leafValues></_>
        <_>
          <internalNodes>
            0 -1 201 5.8476743288338184e-04</internalNodes>
          <leafValues>
            -2.1409128606319427e-01 2.1332596242427826e-01</leafValues></_>
        <_>
          <internalNodes>
            0 -1 153 7.4517473578453064e-02</internalNodes>
          <leafValues>
            6.7839965224266052e-02 -7.6209580898284912e-01</leafValues></_>
        <_>
          <internalNodes>
            0 -1 177 2.0618345588445663e-02</internalNodes>
          <leafValues>
            9.0581260621547699e-02 -4.3091183900833130e-01</leafValues></_>
        <_>
          <internalNodes>
            0 -1 401 1.6819531083456241e-05</internalNodes>
          <leafValues>
            1.2203393131494522e-01 -3.4945270419120789e-01</leafValues></_>
        <_>
          <internalNodes>
            0 -1 351 3.3249745611101389e-03</internalNodes>
          <leafValues>
            -1.1175118386745453e-01 4.7038853168487549e-01</leafValues></_>
        <_>
          <internalNodes>
            0 -1 288 8.5309848145698197e-06</internalNodes>
          <leafValues>
            2.0690372586250305e-01 -2.6110506057739258e-01</leafValues></_>
        <_>
          <internalNodes>
            0 -1 226 2.5249780155718327e-03</internalNodes>
          <leafValues>
            -1.8558968603610992e-01 2.7218738198280334e-01</leafValues></_>
        <_>
          <internalNodes>
            0 -1 106 3.3484317362308502e-02</internalNodes>
          <leafValues>
            1.2575511634349823e-01 -3.9023241400718689e-01</leafValues></_>
        <_>
          <internalNodes>
            0 -1 368 2.0105256699025631e-03</internalNodes>
          <leafValues>
            -2.1770276129245758e-01 2.2874650359153748e-01</leafValues></_>
        <_>
          <internalNodes>
            0 -1 342 -2.7817944064736366e-03</internalNodes>
          <leafValues>
            6.3939052820205688e-01 -6.6910013556480408e-02</leafValues></_>
        <_>
          <internalNodes>
            0 -1 436 -2.6367231839685701e-05</internalNodes>
          <leafValues>
            2.7009350061416626e-01 -1.6890861093997955e-01</leafValues></_>
        <_>
          <internalNodes>
            0 -1 248 -1.1460286378860474e-01</internalNodes>
          <leafValues>
            -6.8983274698257446e-01 8.1214539706707001e-02</leafValues></_>
        <_>
          <internalNodes>
            0 -1 151 -2.5242185802198946e-04</internalNodes>
          <leafValues>
            2.9867500066757202e-01 -1.6637887060642242e-01</leafValues></_>
        <_>
          <internalNodes>
            0 -1 157 4.3510816991329193e-02</internalNodes>
          <leafValues>
            1.1955698579549789e-01 -3.8119530677795410e-01</leafValues></_>
        <_>
          <internalNodes>
            0 -1 336 -9.8477732390165329e-03</internalNodes>
          <leafValues>
            2.0226967334747314e-01 -2.2900396585464478e-01</leafValues></_></weakClassifiers></_>
    <!-- stage 14 -->
    <_>
      <maxWeakCount>46</maxWeakCount>
      <stageThreshold>-1.0956367254257202e+00</stageThreshold>
      <weakClassifiers>
        <_>
          <internalNodes>
            0 -1 173 4.3946772348135710e-04</internalNodes>
          <leafValues>
            4.8739496618509293e-02 6.2253522872924805e-01</leafValues></_>
        <_>
          <internalNodes>
            0 -1 249 5.1066344603896141e-03</internalNodes>
          <leafValues>
            -4.1311722993850708e-01 1.8519289791584015e-01</leafValues></_>
        <_>
          <internalNodes>
            0 -1 465 -1.9563225214369595e-04</internalNodes>
          <leafValues>
            3.0555057525634766e-01 -1.8758244812488556e-01</leafValues></_>
        <_>
          <internalNodes>
            0 -1 161 8.6198087956290692e-06</internalNodes>
          <leafValues>
            1.4675495028495789e-01 -3.9311954379081726e-01</leafValues></_>
        <_>
          <internalNodes>
            0 -1 465 2.6393492589704692e-04</internalNodes>
          <leafValues>
            -2.6673057675361633e-01 2.3036435246467590e-01</leafValues></_>
        <_>
          <internalNodes>
            0 -1 83 -4.2278610635548830e-04</internalNodes>
          <leafValues>
            3.0629780888557434e-01 -1.7902654409408569e-01</leafValues></_>
        <_>
          <internalNodes>
            0 -1 485 8.8454180513508618e-06</internalNodes>
          <leafValues>
            1.1924251168966293e-01 -5.1435446739196777e-01</leafValues></_>
        <_>
          <internalNodes>
            0 -1 212 4.2019179090857506e-04</internalNodes>
          <leafValues>
            -1.6645532846450806e-01 2.9858085513114929e-01</leafValues></_>
        <_>
          <internalNodes>
            0 -1 451 -8.6012123574619181e-06</internalNodes>
          <leafValues>
            -6.6350919008255005e-01 5.3630188107490540e-02</leafValues></_>
        <_>
          <internalNodes>
            0 -1 454 5.2944041090086102e-04</internalNodes>
          <leafValues>
            -1.2367383390665054e-01 3.9808109402656555e-01</leafValues></_>
        <_>
          <internalNodes>
            0 -1 312 7.3363399133086205e-04</internalNodes>
          <leafValues>
            -2.9965624213218689e-01 1.8270803987979889e-01</leafValues></_>
        <_>
          <internalNodes>
            0 -1 74 2.6809489354491234e-03</internalNodes>
          <leafValues>
            -2.8159824013710022e-01 1.8536116182804108e-01</leafValues></_>
        <_>
          <internalNodes>
            0 -1 324 1.9272454665042460e-05</internalNodes>
          <leafValues>
            1.6465896368026733e-01 -3.0551156401634216e-01</leafValues></_>
        <_>
          <internalNodes>
            0 -1 413 -3.3254711888730526e-03</internalNodes>
          <leafValues>
            1.8371139466762543e-01 -2.7327755093574524e-01</leafValues></_>
        <_>
          <internalNodes>
            0 -1 193 -2.8480677865445614e-03</internalNodes>
          <leafValues>
            5.3857153654098511e-01 -9.7122795879840851e-02</leafValues></_>
        <_>
          <internalNodes>
            0 -1 40 9.3732051027473062e-06</internalNodes>
          <leafValues>
            1.2616410851478577e-01 -4.1440063714981079e-01</leafValues></_>
        <_>
          <internalNodes>
            0 -1 240 4.1489452123641968e-02</internalNodes>
          <leafValues>
            8.8148124516010284e-02 -4.8927593231201172e-01</leafValues></_>
        <_>
          <internalNodes>
            0 -1 252 1.2514705304056406e-03</internalNodes>
          <leafValues>
            -1.5083891153335571e-01 3.4195011854171753e-01</leafValues></_>
        <_>
          <internalNodes>
            0 -1 328 4.1152196354232728e-04</internalNodes>
          <leafValues>
            -1.7378027737140656e-01 2.6318666338920593e-01</leafValues></_>
        <_>
          <internalNodes>
            0 -1 268 -3.0950561165809631e-02</internalNodes>
          <leafValues>
            -4.7199338674545288e-01 9.1397494077682495e-02</leafValues></_>
        <_>
          <internalNodes>
            0 -1 51 8.7512598838657141e-06</internalNodes>
          <leafValues>
            1.2713028490543365e-01 -3.3494651317596436e-01</leafValues></_>
        <_>
          <internalNodes>
            0 -1 24 8.6666236165910959e-04</internalNodes>
          <leafValues>
            -3.0721119046211243e-01 1.7471702396869659e-01</leafValues></_>
        <_>
          <internalNodes>
            0 -1 99 1.8830784829333425e-03</internalNodes>
          <leafValues>
            -2.4568448960781097e-01 2.0989634096622467e-01</leafValues></_>
        <_>
          <internalNodes>
            0 -1 185 7.4624061584472656e-02</internalNodes>
          <leafValues>
            -1.0324372351169586e-01 5.7057595252990723e-01</leafValues></_>
        <_>
          <internalNodes>
            0 -1 219 8.5613337432732806e-06</internalNodes>
          <leafValues>
            1.8021073937416077e-01 -2.9248347878456116e-01</leafValues></_>
        <_>
          <internalNodes>
            0 -1 9 -1.0087951086461544e-03</internalNodes>
          <leafValues>
            3.1035560369491577e-01 -1.6841582953929901e-01</leafValues></_>
        <_>
          <internalNodes>
            0 -1 102 7.7555608004331589e-04</internalNodes>
          <leafValues>
            -2.5115063786506653e-01 2.0785053074359894e-01</leafValues></_>
        <_>
          <internalNodes>
            0 -1 44 -5.4681330220773816e-04</internalNodes>
          <leafValues>
            3.4665730595588684e-01 -1.4040744304656982e-01</leafValues></_>
        <_>
          <internalNodes>
            0 -1 134 -8.4135708675603382e-06</internalNodes>
          <leafValues>
            -3.2960650324821472e-01 1.4743863046169281e-01</leafValues></_>
        <_>
          <internalNodes>
            0 -1 246 -2.6754275895655155e-03</internalNodes>
          <leafValues>
            6.5325105190277100e-01 -8.3433687686920166e-02</leafValues></_>
        <_>
          <internalNodes>
            0 -1 467 4.3533719144761562e-04</internalNodes>
          <leafValues>
            -1.9767926633358002e-01 2.1430219709873199e-01</leafValues></_>
        <_>
          <internalNodes>
            0 -1 447 1.7385238606948406e-05</internalNodes>
          <leafValues>
            1.1178225278854370e-01 -4.0645286440849304e-01</leafValues></_>
        <_>
          <internalNodes>
            0 -1 479 -3.1188163120532408e-05</internalNodes>
          <leafValues>
            2.8799510002136230e-01 -1.5399695932865143e-01</leafValues></_>
        <_>
          <internalNodes>
            0 -1 242 1.7179620917886496e-03</internalNodes>
          <leafValues>
            -9.3167766928672791e-02 4.5084831118583679e-01</leafValues></_>
        <_>
          <internalNodes>
            0 -1 165 1.7385846149409190e-05</internalNodes>
          <leafValues>
            1.5119832754135132e-01 -3.0503493547439575e-01</leafValues></_>
        <_>
          <internalNodes>
            0 -1 30 3.4428890794515610e-03</internalNodes>
          <leafValues>
            -1.3871559500694275e-01 4.0220698714256287e-01</leafValues></_>
        <_>
          <internalNodes>
            0 -1 302 1.0550743900239468e-02</internalNodes>
          <leafValues>
            7.9167217016220093e-02 -7.1494406461715698e-01</leafValues></_>
        <_>
          <internalNodes>
            0 -1 332 -7.7753508230671287e-04</internalNodes>
          <leafValues>
            2.0616365969181061e-01 -2.1942317485809326e-01</leafValues></_>
        <_>
          <internalNodes>
            0 -1 330 -1.6987742856144905e-02</internalNodes>
          <leafValues>
            -3.9847108721733093e-01 1.2001829594373703e-01</leafValues></_>
        <_>
          <internalNodes>
            0 -1 366 -6.6796626197174191e-04</internalNodes>
          <leafValues>
            3.3283555507659912e-01 -1.4682221412658691e-01</leafValues></_>
        <_>
          <internalNodes>
            0 -1 38 1.2283815070986748e-02</internalNodes>
          <leafValues>
            9.4838991761207581e-02 -4.9146705865859985e-01</leafValues></_>
        <_>
          <internalNodes>
            0 -1 36 5.6049932027235627e-05</internalNodes>
          <leafValues>
            -1.7958794534206390e-01 2.8361862897872925e-01</leafValues></_>
        <_>
          <internalNodes>
            0 -1 405 -1.8317145077162422e-05</internalNodes>
          <leafValues>
            -3.1235364079475403e-01 1.5140406787395477e-01</leafValues></_>
        <_>
          <internalNodes>
            0 -1 203 -9.3373302370309830e-03</internalNodes>
          <leafValues>
            5.8180028200149536e-01 -9.5576405525207520e-02</leafValues></_>
        <_>
          <internalNodes>
            0 -1 423 2.9556453227996826e-04</internalNodes>
          <leafValues>
            -1.5546403825283051e-01 3.0760335922241211e-01</leafValues></_>
        <_>
          <internalNodes>
            0 -1 375 -2.9686889611184597e-03</internalNodes>
          <leafValues>
            5.4315364360809326e-01 -8.2049667835235596e-02</leafValues></_></weakClassifiers></_>
    <!-- stage 15 -->
    <_>
      <maxWeakCount>40</maxWeakCount>
      <stageThreshold>-1.1369168758392334e+00</stageThreshold>
      <weakClassifiers>
        <_>
          <internalNodes>
            0 -1 76 -1.1778226122260094e-02</internalNodes>
          <leafValues>
            4.1125541925430298e-01 -1.3618676364421844e-01</leafValues></_>
        <_>
          <internalNodes>
            0 -1 122 7.6890911441296339e-04</internalNodes>
          <leafValues>
            -1.5794084966182709e-01 3.3515390753746033e-01</leafValues></_>
        <_>
          <internalNodes>
            0 -1 211 3.4818515181541443e-02</internalNodes>
          <leafValues>
            9.0826220810413361e-02 -6.3268387317657471e-01</leafValues></_>
        <_>
          <internalNodes>
            0 -1 304 -6.3900672830641270e-03</internalNodes>
          <leafValues>
            -3.5129415988922119e-01 1.4541837573051453e-01</leafValues></_>
        <_>
          <internalNodes>
            0 -1 430 1.8303111195564270e-02</internalNodes>
          <leafValues>
            1.0299554467201233e-01 -4.6398901939392090e-01</leafValues></_>
        <_>
          <internalNodes>
            0 -1 295 3.2854685559868813e-03</internalNodes>
          <leafValues>
            -1.1662483215332031e-01 5.0540918111801147e-01</leafValues></_>
        <_>
          <internalNodes>
            0 -1 80 -4.4268113560974598e-04</internalNodes>
          <leafValues>
            2.4384523928165436e-01 -2.3598328232765198e-01</leafValues></_>
        <_>
          <internalNodes>
            0 -1 293 1.3956638285890222e-03</internalNodes>
          <leafValues>
            -1.7220014333724976e-01 2.6274263858795166e-01</leafValues></_>
        <_>
          <internalNodes>
            0 -1 299 5.7787921279668808e-02</internalNodes>
          <leafValues>
            -1.3546393811702728e-01 4.6088728308677673e-01</leafValues></_>
        <_>
          <internalNodes>
            0 -1 383 9.5397885888814926e-04</internalNodes>
          <leafValues>
            -2.0852030813694000e-01 2.7098923921585083e-01</leafValues></_>
        <_>
          <internalNodes>
            0 -1 469 -8.5750025391462259e-06</internalNodes>
          <leafValues>
            -4.5445436239242554e-01 1.1000983417034149e-01</leafValues></_>
        <_>
          <internalNodes>
            0 -1 139 -1.6798518598079681e-02</internalNodes>
          <leafValues>
            -3.7106141448020935e-01 1.2745323777198792e-01</leafValues></_>
        <_>
          <internalNodes>
            0 -1 100 6.8383693695068359e-02</internalNodes>
          <leafValues>
            -1.0200866311788559e-01 5.0889140367507935e-01</leafValues></_>
        <_>
          <internalNodes>
            0 -1 230 3.6845338763669133e-04</internalNodes>
          <leafValues>
            -2.0721040666103363e-01 2.6364874839782715e-01</leafValues></_>
        <_>
          <internalNodes>
            0 -1 475 -8.3887725850217976e-06</internalNodes>
          <leafValues>
            -4.6011891961097717e-01 9.7904510796070099e-02</leafValues></_>
        <_>
          <internalNodes>
            0 -1 393 5.4481986444443464e-04</internalNodes>
          <leafValues>
            -2.2786378860473633e-01 2.0993423461914062e-01</leafValues></_>
        <_>
          <internalNodes>
            0 -1 279 -5.3924638777971268e-03</internalNodes>
          <leafValues>
            7.8816580772399902e-01 -5.9591062366962433e-02</leafValues></_>
        <_>
          <internalNodes>
            0 -1 267 2.6746865361928940e-02</internalNodes>
          <leafValues>
            7.5680270791053772e-02 -7.1806466579437256e-01</leafValues></_>
        <_>
          <internalNodes>
            0 -1 325 3.2744859345257282e-03</internalNodes>
          <leafValues>
            -8.4897644817829132e-02 5.4149168729782104e-01</leafValues></_>
        <_>
          <internalNodes>
            0 -1 281 2.6068603619933128e-03</internalNodes>
          <leafValues>
            -9.7185753285884857e-02 4.2363873124122620e-01</leafValues></_>
        <_>
          <internalNodes>
            0 -1 484 -6.7847511672880501e-05</internalNodes>
          <leafValues>
            3.4163215756416321e-01 -1.2785486876964569e-01</leafValues></_>
        <_>
          <internalNodes>
            0 -1 18 -2.2048746177460998e-04</internalNodes>
          <leafValues>
            3.3881726861000061e-01 -1.3375203311443329e-01</leafValues></_>
        <_>
          <internalNodes>
            0 -1 111 8.7052221715566702e-06</internalNodes>
          <leafValues>
            1.2596729397773743e-01 -3.8554215431213379e-01</leafValues></_>
        <_>
          <internalNodes>
            0 -1 95 -1.6981251974357292e-05</internalNodes>
          <leafValues>
            -4.1183137893676758e-01 1.0470715910196304e-01</leafValues></_>
        <_>
          <internalNodes>
            0 -1 263 6.6901020705699921e-02</internalNodes>
          <leafValues>
            -1.5208014845848083e-01 3.0924725532531738e-01</leafValues></_>
        <_>
          <internalNodes>
            0 -1 128 3.0010752379894257e-03</internalNodes>
          <leafValues>
            -1.7890971899032593e-01 3.0510628223419189e-01</leafValues></_>
        <_>
          <internalNodes>
            0 -1 28 -1.0326681658625603e-03</internalNodes>
          <leafValues>
            3.0421683192253113e-01 -1.6937103867530823e-01</leafValues></_>
        <_>
          <internalNodes>
            0 -1 162 1.8124064803123474e-01</internalNodes>
          <leafValues>
            6.6850885748863220e-02 -8.1880891323089600e-01</leafValues></_>
        <_>
          <internalNodes>
            0 -1 20 1.1618975549936295e-03</internalNodes>
          <leafValues>
            -1.5985617041587830e-01 3.0555695295333862e-01</leafValues></_>
        <_>
          <internalNodes>
            0 -1 48 -1.7468884587287903e-02</internalNodes>
          <leafValues>
            -4.9948990345001221e-01 9.0784393250942230e-02</leafValues></_>
        <_>
          <internalNodes>
            0 -1 66 -5.8064935728907585e-04</internalNodes>
          <leafValues>
            2.3794418573379517e-01 -1.8682651221752167e-01</leafValues></_>
        <_>
          <internalNodes>
            0 -1 118 -8.5299652710091323e-06</internalNodes>
          <leafValues>
            -3.9248603582382202e-01 1.1472665518522263e-01</leafValues></_>
        <_>
          <internalNodes>
            0 -1 387 -8.6632617239956744e-06</internalNodes>
          <leafValues>
            -3.1366696953773499e-01 1.2787628173828125e-01</leafValues></_>
        <_>
          <internalNodes>
            0 -1 400 4.0686074644327164e-03</internalNodes>
          <leafValues>
            -6.2959454953670502e-02 6.7975980043411255e-01</leafValues></_>
        <_>
          <internalNodes>
            0 -1 233 2.7007560711354017e-03</internalNodes>
          <leafValues>
            -2.1932266652584076e-01 2.0557515323162079e-01</leafValues></_>
        <_>
          <internalNodes>
            0 -1 86 -1.0070302960230038e-04</internalNodes>
          <leafValues>
            2.3402589559555054e-01 -1.9639375805854797e-01</leafValues></_>
        <_>
          <internalNodes>
            0 -1 101 1.9025579094886780e-02</internalNodes>
          <leafValues>
            7.6156266033649445e-02 -6.2912571430206299e-01</leafValues></_>
        <_>
          <internalNodes>
            0 -1 338 -1.0849368758499622e-02</internalNodes>
          <leafValues>
            -4.3210244178771973e-01 8.8078632950782776e-02</leafValues></_>
        <_>
          <internalNodes>
            0 -1 171 -2.0102844573557377e-03</internalNodes>
          <leafValues>
            2.8813651204109192e-01 -1.4672276377677917e-01</leafValues></_>
        <_>
          <internalNodes>
            0 -1 373 4.9878149293363094e-03</internalNodes>
          <leafValues>
            -7.2423398494720459e-02 6.4406520128250122e-01</leafValues></_></weakClassifiers></_>
    <!-- stage 16 -->
    <_>
      <maxWeakCount>35</maxWeakCount>
      <stageThreshold>-8.5656708478927612e-01</stageThreshold>
      <weakClassifiers>
        <_>
          <internalNodes>
            0 -1 130 -5.8327964507043362e-04</internalNodes>
          <leafValues>
            4.5152837038040161e-01 -2.2516556084156036e-02</leafValues></_>
        <_>
          <internalNodes>
            0 -1 179 3.3711045398376882e-04</internalNodes>
          <leafValues>
            -7.9833008348941803e-02 6.2232846021652222e-01</leafValues></_>
        <_>
          <internalNodes>
            0 -1 33 6.2009315006434917e-03</internalNodes>
          <leafValues>
            -3.1177404522895813e-01 1.8483000993728638e-01</leafValues></_>
        <_>
          <internalNodes>
            0 -1 414 2.9629169148392975e-05</internalNodes>
          <leafValues>
            1.1421047151088715e-01 -5.0135833024978638e-01</leafValues></_>
        <_>
          <internalNodes>
            0 -1 358 7.6769641600549221e-04</internalNodes>
          <leafValues>
            -2.0750567317008972e-01 2.5018790364265442e-01</leafValues></_>
        <_>
          <internalNodes>
            0 -1 160 -8.4631101344712079e-06</internalNodes>
          <leafValues>
            -4.9187806248664856e-01 1.0878288745880127e-01</leafValues></_>
        <_>
          <internalNodes>
            0 -1 245 4.2590540833771229e-03</internalNodes>
          <leafValues>
            -6.7657791078090668e-02 7.0436412096023560e-01</leafValues></_>
        <_>
          <internalNodes>
            0 -1 50 1.1538611352443695e-01</internalNodes>
          <leafValues>
            -1.3241674005985260e-01 3.7584382295608521e-01</leafValues></_>
        <_>
          <internalNodes>
            0 -1 166 -5.5641576182097197e-04</internalNodes>
          <leafValues>
            1.3617049157619476e-01 -3.6446610093116760e-01</leafValues></_>
        <_>
          <internalNodes>
            0 -1 65 -1.0024535004049540e-03</internalNodes>
          <leafValues>
            3.0185601115226746e-01 -1.7046760022640228e-01</leafValues></_>
        <_>
          <internalNodes>
            0 -1 16 2.3930208408273757e-04</internalNodes>
          <leafValues>
            -1.9300130009651184e-01 2.7685880661010742e-01</leafValues></_>
        <_>
          <internalNodes>
            0 -1 431 8.3205886767245829e-06</internalNodes>
          <leafValues>
            1.4241233468055725e-01 -3.8487970829010010e-01</leafValues></_>
        <_>
          <internalNodes>
            0 -1 290 1.3492233119904995e-03</internalNodes>
          <leafValues>
            -1.4328172802925110e-01 3.3969697356224060e-01</leafValues></_>
        <_>
          <internalNodes>
            0 -1 326 -1.6861838957993314e-05</internalNodes>
          <leafValues>
            -4.3142139911651611e-01 1.0620885342359543e-01</leafValues></_>
        <_>
          <internalNodes>
            0 -1 502 -1.0940972424577922e-04</internalNodes>
          <leafValues>
            2.5855493545532227e-01 -1.8841534852981567e-01</leafValues></_>
        <_>
          <internalNodes>
            0 -1 98 2.1684421226382256e-02</internalNodes>
          <leafValues>
            7.8940853476524353e-02 -5.9899735450744629e-01</leafValues></_>
        <_>
          <internalNodes>
            0 -1 452 8.5745450633112341e-06</internalNodes>
          <leafValues>
            8.1385731697082520e-02 -5.4659771919250488e-01</leafValues></_>
        <_>
          <internalNodes>
            0 -1 296 1.9872204866260290e-03</internalNodes>
          <leafValues>
            -1.3478611409664154e-01 3.6260867118835449e-01</leafValues></_>
        <_>
          <internalNodes>
            0 -1 294 1.0068712290376425e-03</internalNodes>
          <leafValues>
            -2.3080991208553314e-01 2.7778691053390503e-01</leafValues></_>
        <_>
          <internalNodes>
            0 -1 357 -8.7092248577391729e-06</internalNodes>
          <leafValues>
            -3.8704863190650940e-01 1.1360123008489609e-01</leafValues></_>
        <_>
          <internalNodes>
            0 -1 331 9.1135278344154358e-03</internalNodes>
          <leafValues>
            -1.2336716055870056e-01 3.9515462517738342e-01</leafValues></_>
        <_>
          <internalNodes>
            0 -1 194 -2.0508158486336470e-03</internalNodes>
          <leafValues>
            2.9199635982513428e-01 -1.8145689368247986e-01</leafValues></_>
        <_>
          <internalNodes>
            0 -1 97 -9.2250958085060120e-02</internalNodes>
          <leafValues>
            -7.8750240802764893e-01 8.0068528652191162e-02</leafValues></_>
        <_>
          <internalNodes>
            0 -1 287 4.9616524484008551e-04</internalNodes>
          <leafValues>
            -2.0945374667644501e-01 2.4073949456214905e-01</leafValues></_>
        <_>
          <internalNodes>
            0 -1 440 -8.6066575022414327e-04</internalNodes>
          <leafValues>
            2.8653439879417419e-01 -1.5119133889675140e-01</leafValues></_>
        <_>
          <internalNodes>
            0 -1 392 -1.6476824879646301e-01</internalNodes>
          <leafValues>
            -7.3939579725265503e-01 6.3268937170505524e-02</leafValues></_>
        <_>
          <internalNodes>
            0 -1 391 1.9975166651420295e-05</internalNodes>
          <leafValues>
            1.6230382025241852e-01 -3.1682589650154114e-01</leafValues></_>
        <_>
          <internalNodes>
            0 -1 148 -2.0380884408950806e-01</internalNodes>
          <leafValues>
            7.6360511779785156e-01 -6.8007960915565491e-02</leafValues></_>
        <_>
          <internalNodes>
            0 -1 206 -2.6421174407005310e-03</internalNodes>
          <leafValues>
            3.9368838071823120e-01 -9.9894680082798004e-02</leafValues></_>
        <_>
          <internalNodes>
            0 -1 482 -7.4680065154097974e-05</internalNodes>
          <leafValues>
            3.2563275098800659e-01 -1.3003294169902802e-01</leafValues></_>
        <_>
          <internalNodes>
            0 -1 313 2.2890954278409481e-03</internalNodes>
          <leafValues>
            -1.6323895752429962e-01 2.5629940629005432e-01</leafValues></_>
        <_>
          <internalNodes>
            0 -1 234 -2.7354988560546190e-05</internalNodes>
          <leafValues>
            2.7176967263221741e-01 -1.5192034840583801e-01</leafValues></_>
        <_>
          <internalNodes>
            0 -1 154 1.7407150153303519e-05</internalNodes>
          <leafValues>
            1.0847905278205872e-01 -4.3680179119110107e-01</leafValues></_>
        <_>
          <internalNodes>
            0 -1 123 -1.7461492097936571e-04</internalNodes>
          <leafValues>
            2.8165590763092041e-01 -1.5462291240692139e-01</leafValues></_>
        <_>
          <internalNodes>
            0 -1 159 -1.0676344390958548e-03</internalNodes>
          <leafValues>
            2.5372296571731567e-01 -1.8113791942596436e-01</leafValues></_></weakClassifiers></_>
    <!-- stage 17 -->
    <_>
      <maxWeakCount>39</maxWeakCount>
      <stageThreshold>-8.5647493600845337e-01</stageThreshold>
      <weakClassifiers>
        <_>
          <internalNodes>
            0 -1 407 8.4438506746664643e-04</internalNodes>
          <leafValues>
            2.1739129442721605e-03 5.0816327333450317e-01</leafValues></_>
        <_>
          <internalNodes>
            0 -1 115 2.3338459141086787e-04</internalNodes>
          <leafValues>
            -2.7979737520217896e-01 2.4278718233108521e-01</leafValues></_>
        <_>
          <internalNodes>
            0 -1 389 1.3003679923713207e-03</internalNodes>
          <leafValues>
            -2.2071057558059692e-01 2.4487905204296112e-01</leafValues></_>
        <_>
          <internalNodes>
            0 -1 82 2.0449271687539294e-05</internalNodes>
          <leafValues>
            1.1718775331974030e-01 -4.2224654555320740e-01</leafValues></_>
        <_>
          <internalNodes>
            0 -1 424 1.7050936003215611e-04</internalNodes>
          <leafValues>
            -1.0091315209865570e-01 5.4600703716278076e-01</leafValues></_>
        <_>
          <internalNodes>
            0 -1 213 -7.8683439642190933e-04</internalNodes>
          <leafValues>
            1.1722707748413086e-01 -3.7706559896469116e-01</leafValues></_>
        <_>
          <internalNodes>
            0 -1 255 -8.8257656898349524e-06</internalNodes>
          <leafValues>
            -3.3037075400352478e-01 1.4129570126533508e-01</leafValues></_>
        <_>
          <internalNodes>
            0 -1 64 -2.1035836834926158e-04</internalNodes>
          <leafValues>
            2.0227634906768799e-01 -2.1047286689281464e-01</leafValues></_>
        <_>
          <internalNodes>
            0 -1 487 3.2861309591680765e-04</internalNodes>
          <leafValues>
            -1.7175801098346710e-01 3.2370066642761230e-01</leafValues></_>
        <_>
          <internalNodes>
            0 -1 446 8.5135507106315345e-06</internalNodes>
          <leafValues>
            1.1118546128273010e-01 -4.6838924288749695e-01</leafValues></_>
        <_>
          <internalNodes>
            0 -1 7 1.0872644931077957e-01</internalNodes>
          <leafValues>
            -1.3012802600860596e-01 3.7079447507858276e-01</leafValues></_>
        <_>
          <internalNodes>
            0 -1 187 -1.6658669337630272e-03</internalNodes>
          <leafValues>
            3.0924421548843384e-01 -1.7264218628406525e-01</leafValues></_>
        <_>
          <internalNodes>
            0 -1 238 -1.4144536107778549e-03</internalNodes>
          <leafValues>
            1.7506977915763855e-01 -3.3974897861480713e-01</leafValues></_>
        <_>
          <internalNodes>
            0 -1 476 8.8453189164283685e-06</internalNodes>
          <leafValues>
            8.9395411312580109e-02 -4.6076986193656921e-01</leafValues></_>
        <_>
          <internalNodes>
            0 -1 61 -1.7871003365144134e-05</internalNodes>
          <leafValues>
            -4.0553155541419983e-01 1.1663984507322311e-01</leafValues></_>
        <_>
          <internalNodes>
            0 -1 450 -8.8836341092246585e-06</internalNodes>
          <leafValues>
            -6.3697803020477295e-01 7.0122241973876953e-02</leafValues></_>
        <_>
          <internalNodes>
            0 -1 497 -2.0761482301168144e-04</internalNodes>
          <leafValues>
            2.2986313700675964e-01 -2.0255966484546661e-01</leafValues></_>
        <_>
          <internalNodes>
            0 -1 343 -2.3688383400440216e-02</internalNodes>
          <leafValues>
            -4.2074671387672424e-01 1.1403235793113708e-01</leafValues></_>
        <_>
          <internalNodes>
            0 -1 271 -2.2787889465689659e-03</internalNodes>
          <leafValues>
            5.6687957048416138e-01 -8.2163795828819275e-02</leafValues></_>
        <_>
          <internalNodes>
            0 -1 412 5.2404415328055620e-04</internalNodes>
          <leafValues>
            -1.8145768344402313e-01 2.4977117776870728e-01</leafValues></_>
        <_>
          <internalNodes>
            0 -1 53 -1.8068575300276279e-03</internalNodes>
          <leafValues>
            2.4611432850360870e-01 -2.0286966860294342e-01</leafValues></_>
        <_>
          <internalNodes>
            0 -1 89 -5.9310827055014670e-05</internalNodes>
          <leafValues>
            2.9430302977561951e-01 -1.5634740889072418e-01</leafValues></_>
        <_>
          <internalNodes>
            0 -1 14 -1.7474506050348282e-02</internalNodes>
          <leafValues>
            -4.7073650360107422e-01 1.2155320495367050e-01</leafValues></_>
        <_>
          <internalNodes>
            0 -1 311 -3.1909677200019360e-03</internalNodes>
          <leafValues>
            5.9998965263366699e-01 -7.4928745627403259e-02</leafValues></_>
        <_>
          <internalNodes>
            0 -1 337 1.8581706171971746e-05</internalNodes>
          <leafValues>
            1.7137104272842407e-01 -2.5862058997154236e-01</leafValues></_>
        <_>
          <internalNodes>
            0 -1 445 -8.9193245003116317e-06</internalNodes>
          <leafValues>
            -4.8450455069541931e-01 9.5864437520503998e-02</leafValues></_>
        <_>
          <internalNodes>
            0 -1 473 -1.1051485780626535e-03</internalNodes>
          <leafValues>
            3.0800426006317139e-01 -1.4038860797882080e-01</leafValues></_>
        <_>
          <internalNodes>
            0 -1 105 -1.7825593054294586e-01</internalNodes>
          <leafValues>
            -4.8478013277053833e-01 8.8166452944278717e-02</leafValues></_>
        <_>
          <internalNodes>
            0 -1 355 4.3944080243818462e-04</internalNodes>
          <leafValues>
            -1.5684743225574493e-01 2.4202120304107666e-01</leafValues></_>
        <_>
          <internalNodes>
            0 -1 360 -1.3154624321032315e-04</internalNodes>
          <leafValues>
            2.6627594232559204e-01 -1.6348421573638916e-01</leafValues></_>
        <_>
          <internalNodes>
            0 -1 222 -9.8978017922490835e-04</internalNodes>
          <leafValues>
            3.2601010799407959e-01 -1.1686076223850250e-01</leafValues></_>
        <_>
          <internalNodes>
            0 -1 207 -1.7295078578172252e-05</internalNodes>
          <leafValues>
            -3.7171530723571777e-01 1.1167702078819275e-01</leafValues></_>
        <_>
          <internalNodes>
            0 -1 103 -1.0612063854932785e-01</internalNodes>
          <leafValues>
            -7.1609240770339966e-01 4.6162091195583344e-02</leafValues></_>
        <_>
          <internalNodes>
            0 -1 442 -5.3662084974348545e-04</internalNodes>
          <leafValues>
            2.6776370406150818e-01 -1.5557116270065308e-01</leafValues></_>
        <_>
          <internalNodes>
            0 -1 427 -2.7578793466091156e-02</internalNodes>
          <leafValues>
            -4.5230504870414734e-01 9.5358058810234070e-02</leafValues></_>
        <_>
          <internalNodes>
            0 -1 125 1.9346406916156411e-03</internalNodes>
          <leafValues>
            1.0569623112678528e-01 -4.0569987893104553e-01</leafValues></_>
        <_>
          <internalNodes>
            0 -1 361 1.5443695883732289e-04</internalNodes>
          <leafValues>
            -1.7672750353813171e-01 2.6875296235084534e-01</leafValues></_>
        <_>
          <internalNodes>
            0 -1 259 5.4117068648338318e-02</internalNodes>
          <leafValues>
            -7.7486619353294373e-02 5.1625162363052368e-01</leafValues></_>
        <_>
          <internalNodes>
            0 -1 87 -4.3555917218327522e-03</internalNodes>
          <leafValues>
            2.8104469180107117e-01 -1.7193910479545593e-01</leafValues></_></weakClassifiers></_>
    <!-- stage 18 -->
    <_>
      <maxWeakCount>32</maxWeakCount>
      <stageThreshold>-7.9314994812011719e-01</stageThreshold>
      <weakClassifiers>
        <_>
          <internalNodes>
            0 -1 147 6.7654997110366821e-03</internalNodes>
          <leafValues>
            3.9118644595146179e-01 -1.8117646872997284e-01</leafValues></_>
        <_>
          <internalNodes>
            0 -1 453 8.8968172349268571e-06</internalNodes>
          <leafValues>
            1.5543229877948761e-01 -3.8247561454772949e-01</leafValues></_>
        <_>
          <internalNodes>
            0 -1 1 -1.2398390099406242e-02</internalNodes>
          <leafValues>
            -5.3063738346099854e-01 1.1102867126464844e-01</leafValues></_>
        <_>
          <internalNodes>
            0 -1 316 3.4138956107199192e-03</internalNodes>
          <leafValues>
            -4.2316997051239014e-01 9.8321199417114258e-02</leafValues></_>
        <_>
          <internalNodes>
            0 -1 327 8.4988014350528829e-06</internalNodes>
          <leafValues>
            1.3476106524467468e-01 -3.7281522154808044e-01</leafValues></_>
        <_>
          <internalNodes>
            0 -1 34 -7.1488142013549805e-02</internalNodes>
          <leafValues>
            -7.9392588138580322e-01 5.0296373665332794e-02</leafValues></_>
        <_>
          <internalNodes>
            0 -1 496 3.6764855030924082e-04</internalNodes>
          <leafValues>
            -1.0940532386302948e-01 4.8937365412712097e-01</leafValues></_>
        <_>
          <internalNodes>
            0 -1 409 -9.3266321346163750e-04</internalNodes>
          <leafValues>
            2.7244123816490173e-01 -2.0822291076183319e-01</leafValues></_>
        <_>
          <internalNodes>
            0 -1 184 6.1837501823902130e-02</internalNodes>
          <leafValues>
            -1.1730002611875534e-01 4.0470615029335022e-01</leafValues></_>
        <_>
          <internalNodes>
            0 -1 472 -1.0516447946429253e-04</internalNodes>
          <leafValues>
            2.7670079469680786e-01 -1.6497591137886047e-01</leafValues></_>
        <_>
          <internalNodes>
            0 -1 178 -7.4620958184823394e-04</internalNodes>
          <leafValues>
            2.9335674643516541e-01 -1.5074074268341064e-01</leafValues></_>
        <_>
          <internalNodes>
            0 -1 163 -6.3756503164768219e-02</internalNodes>
          <leafValues>
            -4.2124632000923157e-01 1.2399628013372421e-01</leafValues></_>
        <_>
          <internalNodes>
            0 -1 352 1.6834208508953452e-03</internalNodes>
          <leafValues>
            -2.2816526889801025e-01 1.9286407530307770e-01</leafValues></_>
        <_>
          <internalNodes>
            0 -1 209 -7.4332058429718018e-02</internalNodes>
          <leafValues>
            -7.7374899387359619e-01 5.4086036980152130e-02</leafValues></_>
        <_>
          <internalNodes>
            0 -1 495 1.2323394184932113e-04</internalNodes>
          <leafValues>
            1.0313463211059570e-01 -4.1296127438545227e-01</leafValues></_>
        <_>
          <internalNodes>
            0 -1 59 4.3607879430055618e-02</internalNodes>
          <leafValues>
            5.0526678562164307e-02 -8.5510343313217163e-01</leafValues></_>
        <_>
          <internalNodes>
            0 -1 146 -1.1613533133640885e-03</internalNodes>
          <leafValues>
            2.6237535476684570e-01 -1.8385288119316101e-01</leafValues></_>
        <_>
          <internalNodes>
            0 -1 39 1.8380127847194672e-02</internalNodes>
          <leafValues>
            8.1084221601486206e-02 -6.2712091207504272e-01</leafValues></_>
        <_>
          <internalNodes>
            0 -1 168 -8.5583378677256405e-06</internalNodes>
          <leafValues>
            -4.8193934559822083e-01 9.0360648930072784e-02</leafValues></_>
        <_>
          <internalNodes>
            0 -1 63 -5.9437309391796589e-04</internalNodes>
          <leafValues>
            2.0273086428642273e-01 -2.3805168271064758e-01</leafValues></_>
        <_>
          <internalNodes>
            0 -1 81 8.5046785898157395e-06</internalNodes>
          <leafValues>
            1.4274984598159790e-01 -3.6294820904731750e-01</leafValues></_>
        <_>
          <internalNodes>
            0 -1 140 1.2889821082353592e-03</internalNodes>
          <leafValues>
            -1.5938866138458252e-01 2.7435225248336792e-01</leafValues></_>
        <_>
          <internalNodes>
            0 -1 126 -2.3584724403917789e-03</internalNodes>
          <leafValues>
            3.5033053159713745e-01 -1.4271739125251770e-01</leafValues></_>
        <_>
          <internalNodes>
            0 -1 239 2.9813193250447512e-03</internalNodes>
          <leafValues>
            -6.2619023025035858e-02 6.3649857044219971e-01</leafValues></_>
        <_>
          <internalNodes>
            0 -1 388 4.9723412841558456e-02</internalNodes>
          <leafValues>
            -4.9519091844558716e-02 7.0845848321914673e-01</leafValues></_>
        <_>
          <internalNodes>
            0 -1 470 -8.6154632299439982e-06</internalNodes>
          <leafValues>
            -5.0695657730102539e-01 9.6060678362846375e-02</leafValues></_>
        <_>
          <internalNodes>
            0 -1 192 1.8233753507956862e-05</internalNodes>
          <leafValues>
            1.1902178823947906e-01 -3.5577699542045593e-01</leafValues></_>
        <_>
          <internalNodes>
            0 -1 228 7.8332296106964350e-04</internalNodes>
          <leafValues>
            -2.0396819710731506e-01 2.1231839060783386e-01</leafValues></_>
        <_>
          <internalNodes>
            0 -1 437 1.9580422667786479e-04</internalNodes>
          <leafValues>
            -1.3439577817916870e-01 3.3866259455680847e-01</leafValues></_>
        <_>
          <internalNodes>
            0 -1 457 -5.1915936637669802e-05</internalNodes>
          <leafValues>
            2.5779470801353455e-01 -1.8950681388378143e-01</leafValues></_>
        <_>
          <internalNodes>
            0 -1 433 -6.3457280397415161e-02</internalNodes>
          <leafValues>
            -8.7697404623031616e-01 6.3835255801677704e-02</leafValues></_>
        <_>
          <internalNodes>
            0 -1 474 9.2236086857155897e-06</internalNodes>
          <leafValues>
            8.4686085581779480e-02 -4.7207430005073547e-01</leafValues></_></weakClassifiers></_>
    <!-- stage 19 -->
    <_>
      <maxWeakCount>38</maxWeakCount>
      <stageThreshold>-1.0527245998382568e+00</stageThreshold>
      <weakClassifiers>
        <_>
          <internalNodes>
            0 -1 156 -3.0410236213356256e-03</internalNodes>
          <leafValues>
            5.3779697418212891e-01 2.0533881615847349e-03</leafValues></_>
        <_>
          <internalNodes>
            0 -1 42 -5.9344316832721233e-04</internalNodes>
          <leafValues>
            3.4177386760711670e-01 -1.7883680760860443e-01</leafValues></_>
        <_>
          <internalNodes>
            0 -1 142 -7.9400569200515747e-02</internalNodes>
          <leafValues>
            3.8470578193664551e-01 -1.5559452772140503e-01</leafValues></_>
        <_>
          <internalNodes>
